(function bootstrapCcxpLiteDecaptchaModel(globalScope, factory) {
  const model = factory();
  const namespace = globalScope.CCXP_LITE || (globalScope.CCXP_LITE = {});
  namespace.decaptchaModel = model;

  if (typeof module === "object" && module.exports) {
    module.exports = model;
  }
})(typeof globalThis !== "undefined" ? globalThis : this, function createCcxpLiteDecaptchaModel() {
  return {"digits":6,"eps":1e-05,"tensors":{"features.0.weight":{"shape":[24,3,3,3],"data":[0.21089103817939758,-0.041355691850185394,-0.12303365021944046,0.4023764133453369,0.02123027667403221,-0.06328404694795609,0.19213144481182098,0.02211754210293293,0.16586270928382874,0.11386766284704208,-0.008710820227861404,-0.09167031198740005,0.34409937262535095,0.00475429929792881,-0.03529604151844978,0.299705445766449,-0.029711538925766945,0.06373780220746994,0.12409093230962753,-0.029876338317990303,-0.14426060020923615,0.4247094988822937,0.04719727858901024,0.023847464472055435,0.29577624797821045,0.0063726999796926975,0.11155162006616592,0.08580942451953888,-0.010427036322653294,-0.1552160531282425,0.2792980670928955,-0.3359124958515167,0.19683092832565308,0.11400043964385986,-0.22702954709529877,0.12596379220485687,0.14427272975444794,-0.06352715194225311,-0.06055563688278198,0.10967352241277695,-0.22066646814346313,0.016236405819654465,0.13971440494060516,-0.19665265083312988,0.10636594146490097,0.04813385754823685,-0.06504493206739426,-0.005382345989346504,0.26501625776290894,-0.2581936717033386,-0.018061621114611626,0.13910777866840363,-0.3010312616825104,0.18312634527683258,0.047807108610868454,0.1205325648188591,-0.17696136236190796,0.07883386313915253,0.2482927292585373,-0.3238702118396759,0.1785009503364563,-0.07146315276622772,-0.08025462180376053,0.007806268986314535,0.174485981464386,-0.21535761654376984,0.1669142246246338,0.12633994221687317,-0.31988415122032166,0.0789431557059288,0.12043393403291702,-0.13465279340744019,0.1322718858718872,0.03478217124938965,-0.21428033709526062,0.057592958211898804,0.12411829829216003,-0.18741121888160706,0.1367456018924713,0.11885901540517807,-0.20464827120304108,-0.2608518898487091,0.11628492921590805,0.053724780678749084,-0.2936609387397766,-0.25630977749824524,-0.028968460857868195,-0.1576177179813385,-0.13180693984031677,-0.0911748856306076,-0.13826356828212738,-0.014580645598471165,0.17891797423362732,-0.3045312166213989,-0.25147467851638794,-0.08071480691432953,-0.08031776547431946,-0.24289347231388092,-0.09570863097906113,-0.1862441897392273,0.009877405129373074,0.12564817070960999,-0.2695143222808838,-0.2482016682624817,-0.038033947348594666,-0.1303156018257141,-0.21024248003959656,-0.12385054677724838,-0.06692131608724594,-0.03792331740260124,0.13223522901535034,0.1281648725271225,-0.08295498043298721,-0.304817259311676,-0.20888066291809082,-0.4316398501396179,-0.11022753268480301,-0.09639491885900497,0.04150324687361717,-0.0602433979511261,0.10808800160884857,-0.14651258289813995,-0.13901275396347046,-0.1787858009338379,-0.41672348976135254,-0.23872937262058258,-0.02459292858839035,-0.020655976608395576,0.05967608466744423,0.08706997334957123,-0.08390634506940842,-0.18660594522953033,-0.14686326682567596,-0.3756473660469055,-0.2875557243824005,0.062189530581235886,-0.17666946351528168,-0.46331092715263367,0.030618106946349144,-0.03464367240667343,-0.002082953229546547,-0.08919817954301834,0.12159929424524307,0.07432156056165695,-0.01770094595849514,-0.13986866176128387,-0.3358684778213501,0.08779771625995636,0.09561792761087418,-0.28441503643989563,0.043403878808021545,-0.09527485817670822,0.15773901343345642,-0.08845891803503036,0.028796913102269173,-0.5375954508781433,0.01590633951127529,-0.01766073703765869,-0.07874269038438797,-0.12073405832052231,0.08763603866100311,0.19105969369411469,0.2690117061138153,-0.009560327976942062,-0.0124776316806674,-0.29583343863487244,0.028428684920072556,0.04279959574341774,-0.34062275290489197,0.003483154345303774,-0.032696228474378586,0.24659988284111023,0.04944474250078201,0.03985340893268585,-0.2800827920436859,0.01677352748811245,-0.0031143659725785255,-0.38440898060798645,0.06105312332510948,-0.0004238995898049325,0.27132514119148254,0.02446616068482399,-0.058277130126953125,-0.35478538274765015,0.06756918132305145,0.03887041658163071,-0.3740832805633545,-0.02496298775076866,-0.02989066392183304,-0.0011720951879397035,0.028426744043827057,0.03267994523048401,-0.17223551869392395,-0.19358457624912262,-0.006346758455038071,-0.3629562556743622,-0.22827495634555817,0.012454952113330364,0.06876973062753677,0.019460109993815422,-0.08473685383796692,-0.24603165686130524,-0.2115633338689804,0.04857214540243149,-0.28899946808815,-0.21521611511707306,-0.10151337087154388,-0.046566713601350784,0.02474827878177166,0.08692749589681625,-0.07324019074440002,-0.19401098787784576,-0.12270614504814148,-0.3791588842868805,-0.20384906232357025,0.05209045112133026,-0.14373429119586945,-0.033840276300907135,-0.05511397495865822,-0.3203071653842926,-0.08072018623352051,-0.037983059883117676,-0.3047439754009247,-0.06426282972097397,-0.15984363853931427,-0.13403552770614624,0.05737033858895302,-0.05413530021905899,-0.339287132024765,-0.1277940571308136,-0.19533804059028625,-0.25077563524246216,-0.15722769498825073,0.004529885016381741,-0.12498544156551361,0.03509419038891792,-0.08216992765665054,-0.3631644546985626,-0.04611244425177574,-0.1658134162425995,-0.25947946310043335,-0.1774531900882721,-0.08288448303937912,-0.12025711685419083,0.06647392362356186,-0.007337094284594059,-0.10690630972385406,0.3254340887069702,-0.1639794111251831,0.04357707127928734,0.04863271117210388,-0.27123400568962097,-0.13919328153133392,0.06840270012617111,0.12063924968242645,-0.1153956800699234,0.3674398362636566,-0.24750180542469025,0.042832303792238235,0.01388407964259386,-0.16925786435604095,-0.2026788294315338,0.14542509615421295,0.03866908326745033,0.06373117119073868,0.2731788754463196,-0.18931171298027039,-0.007009350229054689,0.04191409423947334,-0.25778475403785706,0.04619895666837692,-0.06672337651252747,0.2544247806072235,0.0033059020061045885,-0.161591574549675,-0.11032071709632874,-0.0733480304479599,-0.20454318821430206,-0.27977579832077026,-0.08205187320709229,0.15711483359336853,0.1358761489391327,0.03747590258717537,-0.2743920683860779,-0.0310229379683733,0.11740795522928238,-0.3400808572769165,-0.19688507914543152,0.03109978511929512,0.012176993303000927,0.23439867794513702,-0.1198626309633255,-0.2882683277130127,-0.008342638611793518,0.10143675655126572,-0.22189420461654663,-0.29646027088165283,0.12551099061965942,0.14462971687316895,0.16502724587917328,-0.08532566577196121,0.0577167384326458,0.26362255215644836,-0.17060309648513794,-0.23110736906528473,0.06197841838002205,0.08020900934934616,0.1723545789718628,0.08316762745380402,-0.07281879335641861,0.08124224096536636,0.2233465015888214,-0.25906071066856384,-0.17995786666870117,0.048509202897548676,0.12758374214172363,0.17773723602294922,0.21116583049297333,-0.13500624895095825,0.04962879791855812,0.1790139526128769,-0.20033173263072968,-0.14853766560554504,0.07258383184671402,-0.23193474113941193,-0.13331042230129242,-0.12402277439832687,-0.3318139314651489,-0.2210228145122528,-0.1278814822435379,0.024713801220059395,0.03908584266901016,-0.1201729029417038,-0.28176286816596985,-0.0734885036945343,-0.23160779476165771,-0.21244573593139648,-0.11317206919193268,-0.1917750984430313,-0.04567347839474678,-0.03726920485496521,-0.0963154211640358,-0.2014242708683014,-0.18145814538002014,-0.14920920133590698,-0.2522009313106537,-0.026071207597851753,-0.231067955493927,-0.0942082405090332,0.012977717444300652,-0.03625849634408951,0.05476423725485802,0.29340001940727234,0.044348109513521194,-0.314011812210083,-0.055676523596048355,0.2065904140472412,-0.06319700926542282,-0.23268529772758484,0.031739652156829834,0.0026507109869271517,0.23363183438777924,0.024603482335805893,-0.20789587497711182,0.023536158725619316,0.24799010157585144,-0.09490732848644257,-0.2154567688703537,-0.05591052398085594,-0.0027110474184155464,0.2778901159763336,0.0654664933681488,-0.24695903062820435,-0.07850775122642517,0.07143894582986832,-0.10170351713895798,-0.17584110796451569,0.044106870889663696,0.0031612880993634462,-0.24308669567108154,0.2387053221464157,-0.1993456482887268,0.03635025396943092,0.28775522112846375,-0.038325533270835876,0.2765420377254486,0.010206262581050396,-0.19427837431430817,0.001440014922991395,0.1407560110092163,-0.09971933811903,-0.039209961891174316,0.3181082010269165,0.03348684310913086,0.19610650837421417,0.050041314214468,-0.1859637200832367,-0.04094594344496727,0.20318563282489777,-0.10872352123260498,-0.01069714780896902,0.25935059785842896,-0.024127433076500893,0.1695694476366043,0.1477341651916504,-0.012561928480863571,-0.1905331313610077,0.023242885246872902,-0.01753317005932331,-0.37464970350265503,-0.16551512479782104,-0.1587764173746109,-0.20559681951999664,-0.0544608049094677,0.06813809275627136,-0.2153351753950119,-0.0019677348900586367,0.021674560382962227,-0.38604581356048584,-0.15730057656764984,-0.1607077419757843,-0.25787585973739624,-0.12599951028823853,0.043247152119874954,-0.16522404551506042,0.008731747046113014,-0.021104902029037476,-0.4032927453517914,-0.13690337538719177,-0.13124366104602814,-0.2256728559732437,-0.08612991124391556,0.115481436252594,0.2768765985965729,-0.06358274072408676,0.17251870036125183,0.14517256617546082,-0.042746350169181824,0.19839178025722504,0.055499427020549774,-0.2326643168926239,0.07468509674072266,0.1855023354291916,0.10318904370069504,0.1534728705883026,0.22155167162418365,-0.15791067481040955,0.2241804450750351,0.1690991073846817,-0.2529180943965912,-0.02449904754757881,0.1109732910990715,-0.07518674433231354,0.11877386271953583,0.29273486137390137,-0.049202609807252884,0.1640242338180542,0.10199922323226929,-0.18026591837406158,0.07253508269786835,-0.08894411474466324,-0.0655907541513443,-0.09834638983011246,-0.175289124250412,-0.13546235859394073,-0.31372588872909546,-0.2749439775943756,0.019888686016201973,0.13566137850284576,-0.0881650298833847,-0.010804117657244205,-0.09195219725370407,-0.15732061862945557,-0.18085013329982758,-0.331434041261673,-0.23630887269973755,-0.08153816312551498,0.09874028712511063,-0.08755595982074738,-0.03940945118665695,-0.09202104061841965,-0.19677625596523285,-0.1685839295387268,-0.36047518253326416,-0.27115073800086975,-0.006503419019281864,0.08603538572788239,0.014362609013915062,0.21176329255104065,0.4042476713657379,0.08416394144296646,-0.05999838188290596,0.10961247980594635,-0.13250112533569336,-0.29366767406463623,0.036882929503917694,0.14134950935840607,0.11728234589099884,0.3300600051879883,0.03883867710828781,-0.14047062397003174,0.021061770617961884,-0.09174876660108566,-0.199926495552063,0.11827543377876282,0.17058216035366058,-0.037802405655384064,0.18821845948696136,0.06990028917789459,-0.08198051154613495,0.09631524235010147,-0.2209111452102661,-0.1413789689540863,0.08750895410776138,-0.03326394408941269,-0.1337684690952301,-0.3865605294704437,-0.4405692517757416,-0.029218029230833054,0.002081974409520626,0.11935792863368988,0.055061258375644684,0.03570815548300743,0.006246164441108704,-0.05907359719276428,-0.4449650049209595,-0.36027148365974426,-0.1446523368358612,0.06513712555170059,0.15603099763393402,0.05988365784287453,0.013010025955736637,-0.03190816566348076,0.02194785699248314,-0.3290081024169922,-0.2958763539791107,-0.14883330464363098,-0.010821518488228321,0.053399547934532166,0.14505070447921753,-0.037618547677993774,-0.054077621549367905,0.05071412771940231,-0.15495428442955017,-0.26890289783477783,0.016247183084487915,-0.3092634975910187,-0.21271350979804993,0.12312735617160797,0.0054082865826785564,-0.15275830030441284,0.10696197301149368,-0.11162877827882767,-0.3057730793952942,-0.06200157850980759,-0.2993743121623993,-0.17741617560386658,0.07538236677646637,-0.03904800862073898,-0.0325004979968071,0.1098482757806778,-0.01988394744694233,-0.3563697338104248,-0.06055637076497078,-0.3482381999492645,-0.22685681283473969,0.09577614068984985,-0.16505539417266846,-0.2377193421125412,-0.054471854120492935,0.12741583585739136,-0.18521252274513245,-0.11173278093338013,0.2680816352367401,0.2890697717666626,0.03004787117242813,-0.14790749549865723,-0.21740379929542542,-0.04441298544406891,0.12388576567173004,-0.08938954770565033,-0.19650517404079437,0.2570103406906128,0.20768602192401886,0.07170228660106659,-0.16495071351528168,-0.24623455107212067,-0.038153767585754395,0.05715683847665787,-0.09241875261068344,-0.07869209349155426,0.26048576831817627,0.1505940556526184,0.06519412249326706,-0.14013101160526276,-0.13902005553245544,0.06695292890071869,-0.29562243819236755,-0.16560636460781097,-0.11501054465770721,0.2558491826057434,0.10063635557889938,0.05140598118305206,-0.12018552422523499,-0.09317084401845932,0.004742190707474947,-0.2810738980770111,-0.26731228828430176,-0.020535113289952278,0.3204619288444519,0.09365736693143845,0.026752015575766563,-0.165335014462471,-0.0698842853307724,0.06718365848064423,-0.22032970190048218,-0.2606152892112732,-0.1798582375049591,0.22072575986385345,0.18287375569343567,0.12961600720882416,0.16269367933273315,-0.15044161677360535,-0.10633537173271179,0.0465351939201355,-0.33885064721107483,-0.0773676335811615,0.05293333902955055,-0.29395556449890137,0.019017580896615982,0.13911759853363037,-0.2251392900943756,-0.047425903379917145,0.1876327246427536,-0.3619423508644104,-0.13321931660175323,-0.024381453171372414,-0.22335168719291687,-0.04582326114177704,0.1367582380771637,-0.08241099119186401,-0.10370183736085892,0.1371600180864334,-0.3666784465312958,-0.14360786974430084,-0.06436815857887268,-0.2290772944688797,0.01481267623603344]},"features.1.weight":{"shape":[24],"data":[0.2897271513938904,0.8783879280090332,1.0406094789505005,0.41043585538864136,0.6570920944213867,0.7280099391937256,0.6474143862724304,0.5822566151618958,0.5358505845069885,0.5927665829658508,0.7119800448417664,1.1216033697128296,1.0070630311965942,0.8895529508590698,0.6423317193984985,0.9072917699813843,0.5632032752037048,0.4694547653198242,0.591093122959137,0.5653210878372192,0.9562577605247498,1.4481936693191528,0.5987651348114014,0.8735702037811279]},"features.1.bias":{"shape":[24],"data":[0.619293212890625,-0.21936312317848206,0.015146569348871708,0.500299334526062,0.26978206634521484,-0.318509966135025,-0.3277967572212219,0.3373076617717743,0.40586531162261963,0.3722112774848938,-0.25214722752571106,-0.026387667283415794,0.0501861535012722,-0.20720510184764862,0.31893688440322876,-0.18369987607002258,0.3324258327484131,0.4567837715148926,0.31895771622657776,0.409539133310318,-0.09073399752378464,-0.006027450785040855,0.4260043799877167,-0.16383850574493408]},"features.1.running_mean":{"shape":[24],"data":[2.0157790184020996,-0.0073866774328053,0.043475110083818436,-2.7705471515655518,-2.710932731628418,-1.219270944595337,-0.9357652068138123,-2.423393964767456,-3.1851277351379395,-0.27507004141807556,-1.4888508319854736,0.6797859072685242,-3.130103588104248,-0.21612884104251862,1.0728328227996826,-3.072805881500244,1.5495655536651611,-2.840501070022583,0.6660023331642151,-1.7804315090179443,-2.3421785831451416,-0.11821411550045013,-0.8519049286842346,-1.87130606174469]},"features.1.running_var":{"shape":[24],"data":[0.22905315458774567,0.05115542933344841,0.12220823019742966,0.2740159332752228,0.2404114305973053,0.2112606316804886,0.11999170482158661,0.2192990779876709,0.344304621219635,0.04647213965654373,0.12779200077056885,0.1663026660680771,0.396453320980072,0.11223375797271729,0.13259358704090118,0.2882773280143738,0.1655903458595276,0.25132688879966736,0.12764543294906616,0.13128991425037384,0.21678511798381805,0.14224335551261902,0.07233057916164398,0.1551593542098999]},"features.3.block.0.weight":{"shape":[24,1,3,3],"data":[-0.3011936843395233,0.15743222832679749,0.06296930462121964,-0.332260400056839,0.35431182384490967,0.20737974345684052,-0.09656394273042679,0.06638137996196747,-0.03828335553407669,0.07358790189027786,0.3800147473812103,0.036453861743211746,-0.0426621176302433,0.31686434149742126,-0.117240309715271,0.4222046136856079,0.030240995809435844,0.06702137738466263,0.34127724170684814,0.004255339037626982,0.053308818489313126,0.6281432509422302,-0.015402118675410748,0.058219462633132935,0.32377851009368896,0.21301715075969696,-0.027649199590086937,0.3947990834712982,0.04304160922765732,-0.07751191407442093,-0.4093650281429291,-0.019420236349105835,0.17044216394424438,0.0733826756477356,-0.060705624520778656,-0.05734137073159218,0.20556479692459106,0.09618016332387924,0.014980120584368706,-0.26080602407455444,-0.479474812746048,-0.13026092946529388,0.17380958795547485,0.30586400628089905,0.1832103133201599,-0.07152454555034637,-0.07478757947683334,0.5439707636833191,-0.1484239399433136,0.2686046063899994,0.2057281881570816,0.12265096604824066,0.36825960874557495,0.11724013835191727,-0.5391771793365479,0.07336289435625076,0.06820861995220184,-0.47724848985671997,-0.01569998636841774,0.09117642045021057,-0.29525822401046753,0.15259870886802673,0.16410288214683533,-0.22875140607357025,-0.1540568470954895,-0.05928797647356987,0.4999602138996124,0.343676894903183,0.13299903273582458,-0.2604394853115082,-0.19420450925827026,-0.1070747971534729,-0.3261783719062805,0.18557152152061462,-0.08778755366802216,0.1992671638727188,0.12615437805652618,-0.033186040818691254,0.3869185745716095,-0.15795455873012543,-0.28916144371032715,0.10386854410171509,0.22751183807849884,-0.015329934656620026,-0.5158350467681885,0.2876232862472534,-0.032505836337804794,0.40776327252388,-0.05989169329404831,-0.14644759893417358,-0.10630109906196594,0.1328856647014618,0.40075811743736267,-0.14427001774311066,0.09680970013141632,0.6073775887489319,-0.200155109167099,0.05865403264760971,0.24120555818080902,-0.25724148750305176,-0.14282432198524475,0.23572608828544617,-0.13557496666908264,0.11261144280433655,0.18705883622169495,0.15828876197338104,0.4767082631587982,-0.11119048297405243,0.2807435095310211,0.05601007118821144,-0.4101002812385559,0.27255669236183167,0.17278479039669037,0.04904073849320412,-0.15419574081897736,-0.2627127468585968,-0.11063859611749649,0.2559063136577606,-0.14563359320163727,-0.12488260120153427,0.2834026515483856,0.30126145482063293,-0.2531411647796631,0.18310463428497314,0.250732958316803,0.1801568567752838,-0.26168978214263916,-0.1776854395866394,-0.2958467900753021,0.03253820165991783,0.019854744896292686,-0.06880896538496017,-0.1691685914993286,-0.033493440598249435,0.0027763848192989826,0.09050790965557098,-0.3074951171875,-0.1968223601579666,0.48182475566864014,-0.12536439299583435,-0.12523871660232544,0.3289523720741272,-0.13032405078411102,0.06980259716510773,0.387658953666687,0.010250931605696678,0.04838540777564049,-0.41387075185775757,-0.028822030872106552,-0.24582840502262115,-0.45579320192337036,0.0659785270690918,-0.24026130139827728,-0.17901985347270966,-0.22735880315303802,0.20663373172283173,-0.2594829201698303,0.018044423311948776,0.19590052962303162,0.2882639467716217,0.2629327178001404,-0.31442680954933167,-0.16706357896327972,-0.11966951191425323,-0.20031659305095673,0.15590283274650574,0.11040306836366653,0.2537398040294647,0.20986539125442505,0.27638816833496094,0.1340659260749817,0.11405443400144577,0.09886402636766434,0.02289002388715744,-0.43184447288513184,-0.2552699148654938,-0.17313292622566223,0.28562670946121216,0.257295697927475,0.10833702236413956,0.33812224864959717,0.12027324736118317,0.24144859611988068,-0.10492908954620361,-0.05916464328765869,-0.20795229077339172,-0.24478620290756226,-0.21872735023498535,-0.31202247738838196,-0.19642645120620728,-0.3095189929008484,-0.2766517102718353,-0.20090700685977936,-0.2436230331659317,-0.09390277415513992,-0.35239145159721375,-0.22485347092151642,0.030631721019744873,-0.331745445728302,-0.2096157819032669,-0.038353316485881805,0.4534660279750824,0.17480017244815826,-0.08800287544727325,-0.13312028348445892,0.07551230490207672,0.012866228818893433,0.21121126413345337,0.27461516857147217,-9.843285079114139e-05,0.5689358115196228,0.21843242645263672,-0.050240203738212585,0.035554978996515274,0.3352351784706116,-0.07377269119024277]},"features.3.block.1.weight":{"shape":[24],"data":[1.0980387926101685,0.6403658986091614,0.8557552695274353,1.132826566696167,1.194747805595398,0.7985292673110962,1.3304466009140015,1.0717681646347046,1.1471216678619385,0.755832850933075,0.9008854031562805,0.6349660754203796,1.1002671718597412,0.9868955016136169,0.6823596358299255,1.0358089208602905,0.757669985294342,1.0178147554397583,0.7272878885269165,1.1226091384887695,1.050330638885498,1.3594155311584473,1.112563967704773,0.8251782059669495]},"features.3.block.1.bias":{"shape":[24],"data":[-0.02542523853480816,0.2927883565425873,0.4069085419178009,-0.2545425295829773,0.2643241882324219,-0.07858722656965256,0.12279903888702393,-0.24695388972759247,-0.21404562890529633,-0.05185755342245102,0.7710817456245422,0.9326311349868774,-0.1409437656402588,0.24996599555015564,0.17410683631896973,0.1727592498064041,-0.09343810379505157,0.1405322402715683,0.1383441984653473,-0.25231847167015076,0.2137306034564972,0.1823909431695938,-0.2486923784017563,0.885313093662262]},"features.3.block.1.running_mean":{"shape":[24],"data":[0.06530096381902695,0.11625120788812637,0.2554650604724884,0.021585820242762566,0.025053072720766068,0.1942766308784485,-0.10306646674871445,0.003065659897401929,0.018819022923707962,0.10019105672836304,0.17229661345481873,0.18266761302947998,0.01931661181151867,0.14676542580127716,-0.396780401468277,0.012878312729299068,-0.38905417919158936,0.0001972078753169626,0.29891765117645264,-0.0014255517162382603,-0.12583394348621368,-0.6351200342178345,-0.020610535517334938,0.35745686292648315]},"features.3.block.1.running_var":{"shape":[24],"data":[0.023254986852407455,0.087731271982193,0.2803392708301544,0.018234554678201675,0.09634146094322205,0.10413266718387604,0.1570691168308258,0.07329656928777695,0.06503864377737045,0.10608455538749695,0.22797290980815887,0.05768328160047531,0.20804692804813385,0.14360979199409485,0.032726045697927475,0.27422112226486206,0.0579570010304451,0.05507751181721687,0.03471224382519722,0.10144171863794327,0.22492201626300812,1.0053383111953735,0.15325850248336792,0.502293050289154]},"features.3.block.3.weight":{"shape":[32,24,1,1],"data":[0.2634935677051544,-0.2522416114807129,-0.11003676801919937,0.5366092920303345,0.00836116261780262,-0.07144958525896072,-0.004001397639513016,0.13216909766197205,0.049670979380607605,-0.06299539655447006,-0.22180107235908508,-0.05924954265356064,0.22777462005615234,-0.2012033462524414,0.10431259125471115,0.006654782220721245,-0.017335543408989906,0.10514364391565323,0.23201735317707062,0.1007760763168335,0.09148149937391281,-0.10427021980285645,0.2828393876552582,-0.027954455465078354,-0.10164668411016464,-0.11910990625619888,0.14311234652996063,0.08900576829910278,-0.07023364305496216,-0.14839071035385132,0.18023453652858734,0.2032872885465622,0.05013260617852211,-0.36066195368766785,-0.0015665000537410378,-0.14140138030052185,0.06339574605226517,-0.02986055240035057,-0.19342467188835144,0.07084456086158752,-0.12214051932096481,0.5269973874092102,-0.03661287948489189,0.007706217467784882,-0.10529609024524689,-0.07073944061994553,0.050104569643735886,0.29374104738235474,0.32830187678337097,-0.07869178056716919,0.20323118567466736,-0.0027247469406574965,-0.04323249310255051,0.018597999587655067,-0.27543506026268005,-0.2451278567314148,-0.34758633375167847,-0.06984371691942215,-0.2534940242767334,-0.05201628804206848,0.2510225176811218,0.036545928567647934,-0.008122986182570457,0.06752696633338928,-0.13373634219169617,0.03705834597349167,0.00015111666289158165,-0.12175261974334717,0.17758741974830627,-0.1470302939414978,0.048752494156360626,-0.15669003129005432,-0.11873040348291397,-0.1798756718635559,0.12663526833057404,0.19349674880504608,-0.4258241057395935,0.0847543478012085,-0.14280639588832855,-0.08376996964216232,-0.2995452284812927,-0.2747281789779663,-0.10454832762479782,-0.12183652073144913,-0.15916326642036438,0.2530028223991394,-0.019526993855834007,0.13094662129878998,-0.1126558780670166,-0.10240007936954498,-0.23791638016700745,-0.28461191058158875,-0.24345971643924713,0.05083979666233063,0.13501077890396118,0.15668310225009918,-0.5306539535522461,0.14914511144161224,-0.06527338176965714,0.25154438614845276,-0.023658432066440582,-0.0007475226302631199,-0.32453784346580505,0.07075229287147522,0.29019883275032043,0.13326090574264526,-0.13352295756340027,-0.13873235881328583,-0.16990943253040314,-0.07703404128551483,0.11200316250324249,-0.11590813845396042,-0.19002437591552734,0.1455242782831192,0.25322046875953674,-0.06106168404221535,-0.16053450107574463,-0.0261630117893219,0.3612629473209381,0.058562520891427994,-0.09705674648284912,-0.09321437031030655,-0.05286959186196327,0.1822163611650467,0.06605987250804901,-0.12546448409557343,-0.032266780734062195,0.22688429057598114,-0.06311850249767303,0.014261768199503422,-0.006861032452434301,-0.039407841861248016,-0.5145887732505798,-0.07198646664619446,-0.0038762339390814304,-0.6984411478042603,0.018146652728319168,0.08652571588754654,0.0059601543471217155,0.13571058213710785,-0.2136232852935791,-0.28438299894332886,0.12764236330986023,0.050364043563604355,-0.13782618939876556,-0.025048892945051193,0.04987076669931412,-0.011668932624161243,0.23019863665103912,-0.16629715263843536,-0.16071857511997223,0.264437198638916,-0.2925942838191986,-0.07517659664154053,0.15017607808113098,0.07707288861274719,-0.0014123411383479834,-0.011239524930715561,-0.23123259842395782,-0.1531277745962143,0.09299398213624954,0.15368147194385529,0.08538846671581268,0.22887670993804932,0.13500246405601501,-0.3754650950431824,0.174806609749794,0.2743838131427765,-0.2477298229932785,-0.10978157073259354,-0.11658976227045059,0.11590076237916946,0.07001294940710068,-0.08688697963953018,-0.254401832818985,0.18074609339237213,-0.07303818315267563,0.04524665325880051,-0.41517895460128784,-0.0690898448228836,-0.1214614287018776,0.04469025880098343,0.002656035590916872,-0.21353374421596527,-0.018433772027492523,-0.5207203030586243,0.08158978819847107,0.08121943473815918,0.11153178662061691,-0.08946818858385086,0.27638354897499084,0.13494271039962769,0.1401687115430832,-0.05986638367176056,-0.003110293997451663,-0.36084461212158203,-0.0024546580389142036,-0.1844479888677597,-0.30545663833618164,0.07039449363946915,0.017074642702937126,-0.23279421031475067,-0.6001291275024414,0.23336707055568695,-0.052706219255924225,0.046043090522289276,0.1939731240272522,0.1657903790473938,0.023737234994769096,0.1557651162147522,-0.043092649430036545,0.12023560702800751,-0.02488407865166664,-0.23988009989261627,0.050829850137233734,-0.19383949041366577,0.10434002429246902,0.02044171839952469,0.04209936782717705,-0.45390135049819946,0.49848565459251404,0.011843429878354073,0.3802681565284729,-0.006646298803389072,0.015070854686200619,-0.0643867701292038,0.09358234703540802,-0.04002995789051056,-0.3653412163257599,0.02135678008198738,-0.020673874765634537,0.08397673070430756,-0.12144593894481659,0.1836099773645401,0.1829630583524704,0.26381170749664307,-0.22833365201950073,0.3868493139743805,-0.18390318751335144,0.137455552816391,0.3053009808063507,0.09431219846010208,0.24624863266944885,-0.06434474140405655,0.03199499100446701,-0.16756319999694824,-0.17596553266048431,-0.14892683923244476,-0.12040523439645767,0.008946549147367477,-0.18694990873336792,0.07084358483552933,-0.0020064092241227627,-0.18464988470077515,-0.34701937437057495,0.021988335996866226,0.02608594112098217,-0.1139988824725151,-0.09674640744924545,-0.0666833147406578,-0.05116117745637894,-0.01404406875371933,-0.12145525217056274,0.4057486951351166,0.1929776817560196,0.18765945732593536,0.15952859818935394,-0.19431757926940918,-0.09016785770654678,-0.1608341932296753,0.2607886493206024,-0.7181518077850342,-0.20962142944335938,0.20696347951889038,0.029927019029855728,-0.023587098345160484,0.11274456232786179,0.059562914073467255,-0.040401723235845566,0.07044247537851334,0.10457814484834671,-0.12788812816143036,-0.09534928947687149,-0.47864219546318054,-0.09065643697977066,0.16631104052066803,-0.4309263527393341,0.06943363696336746,0.04686520993709564,-0.2748158574104309,-0.4881577491760254,0.250871479511261,0.061098888516426086,-0.04802713170647621,-0.40615975856781006,0.27771127223968506,0.04385947436094284,-0.02377537079155445,-0.028965072706341743,0.05823047459125519,-0.3109841048717499,0.026688357815146446,0.029342088848352432,0.007479636464267969,-0.06855110079050064,-0.11532670259475708,-0.2187083512544632,0.2163299322128296,-0.22694706916809082,-0.34032613039016724,0.3342178761959076,0.020126378163695335,0.1599884331226349,-0.012274736538529396,0.15520310401916504,0.09828485548496246,-0.02375505119562149,-0.14515240490436554,-0.015229551121592522,-0.41175171732902527,-0.09350258857011795,-0.1823883205652237,-0.016774192452430725,0.148667573928833,-0.20376384258270264,0.015178113244473934,0.06823910772800446,0.23802420496940613,-0.21966767311096191,-0.14789895713329315,-0.1693933606147766,-0.2254764437675476,-0.3142602741718292,-0.2891412675380707,-0.13550378382205963,0.09099669009447098,0.25707316398620605,0.020889876410365105,0.1719920039176941,0.0599973201751709,-0.19908787310123444,-0.04462561383843422,0.24644221365451813,-0.08344803750514984,-0.07944516837596893,-0.11537608504295349,0.4173891842365265,0.02761138044297695,0.022115588188171387,0.42065733671188354,0.1553814560174942,0.4221687912940979,-0.19289584457874298,-0.16795387864112854,-0.09899431467056274,-0.05723132565617561,-0.04039566591382027,-0.14024564623832703,0.009974965825676918,0.021661311388015747,0.29113611578941345,0.017411569133400917,0.10027825087308884,-0.05266696214675903,0.08066572993993759,-0.27448445558547974,-0.4011010527610779,-0.010160143487155437,0.2999400496482849,0.2726392149925232,-0.19191046059131622,-0.08504227548837662,-0.11810947954654694,-0.250783234834671,-0.052888527512550354,0.19577834010124207,0.049883000552654266,0.10403920710086823,0.14493177831172943,-0.040017999708652496,0.07494360208511353,0.059668682515621185,-0.02076425962150097,0.1531236171722412,-0.2350543886423111,-0.09548258781433105,0.03930770978331566,0.21679814159870148,-0.1421293318271637,-0.11423447728157043,0.011294802650809288,-0.04528440907597542,-0.36142686009407043,-0.27906903624534607,-0.0697183832526207,0.025757670402526855,-0.081947460770607,0.2810259759426117,-0.09998375922441483,-0.01888309419155121,-0.07485808432102203,-0.31364473700523376,-0.15676246583461761,-0.06345142424106598,-0.40381860733032227,-0.21916307508945465,0.1572398990392685,0.15298619866371155,-0.06946375966072083,-0.04911236837506294,0.011582056060433388,0.18930892646312714,0.2696036100387573,-0.03511122614145279,-0.10313449054956436,0.42854249477386475,0.020619332790374756,-0.18324486911296844,0.10219187289476395,0.2539101243019104,0.03804175555706024,0.09977274388074875,0.061166081577539444,-0.08666244149208069,0.1248464360833168,-0.09394863992929459,-0.048137009143829346,0.4359104335308075,-0.038749344646930695,-0.3701505959033966,0.3679733872413635,0.20861463248729706,-0.12089285254478455,-0.003475694917142391,0.00864085927605629,0.08400724083185196,0.02651998959481716,-0.30340445041656494,0.1470305472612381,0.05759614333510399,0.04793684929609299,-0.07141682505607605,0.334142804145813,-0.10322075337171555,-0.1284189224243164,-0.006282447371631861,-0.04512010142207146,0.10627449303865433,-0.08769034594297409,0.054178472608327866,0.3815883696079254,0.01593545265495777,0.2511846423149109,-0.41298186779022217,0.03214398771524429,0.038646385073661804,0.025853808969259262,-0.28599804639816284,-0.15508884191513062,0.28795334696769714,-0.06122279539704323,-0.12747539579868317,-0.021864743903279305,0.2914820611476898,-0.12901203334331512,-0.00807931274175644,-0.383711040019989,-0.04892384633421898,0.22187723219394684,-0.07802263647317886,0.051828183233737946,-0.024964381009340286,-0.024222316220402718,-0.10275139659643173,0.008207733742892742,0.07665721327066422,0.31503942608833313,-0.018329383805394173,0.2344464808702469,-0.03768520802259445,-0.17850461602210999,-0.20838674902915955,-0.10901650041341782,-0.138667032122612,0.11193036288022995,-0.010328657925128937,0.06555717438459396,0.05088067427277565,0.2111198753118515,-0.15243743360042572,0.20503737032413483,-0.08975176513195038,0.051731131970882416,-0.20109745860099792,0.1587781459093094,-0.07374257594347,-0.1932850033044815,0.13195939362049103,0.32171761989593506,0.047442156821489334,0.26418399810791016,-0.3325800597667694,-0.16075579822063446,-0.11193493008613586,0.12518662214279175,-0.12724441289901733,-0.055366676300764084,0.06911547482013702,0.3774014115333557,-0.21082821488380432,-0.23508742451667786,0.16779401898384094,-0.014918001368641853,-0.17566291987895966,-0.1272229105234146,0.3698827922344208,-0.14110533893108368,-0.23533925414085388,0.09679011255502701,-0.13440856337547302,0.18026244640350342,-0.0009354452486149967,-0.1515233963727951,0.27971407771110535,-0.1712225079536438,-0.44468948245048523,-0.003913596738129854,0.10270500928163528,-0.03358284384012222,-0.03689105063676834,-0.03396940603852272,-0.09133868664503098,-0.2594355344772339,0.12756571173667908,0.13740749657154083,-0.27846696972846985,-0.24907509982585907,-0.0303040724247694,-0.289673388004303,-0.11071554571390152,-0.2178429663181305,-0.04410849139094353,-0.021507425233721733,-0.05553514137864113,-0.1743328720331192,-0.13614153861999512,-0.04843170940876007,-0.18377797305583954,-0.05920868739485741,0.3265863060951233,-0.139796644449234,-0.10036610811948776,-0.0541219525039196,0.14723023772239685,0.19646914303302765,-0.207705557346344,0.1218898817896843,-0.1547308713197708,-0.06663388013839722,-0.046013813465833664,0.3963588774204254,0.1839594841003418,-0.04780153930187225,-0.10873579978942871,0.010808794759213924,-0.2614365220069885,-0.0025001922622323036,-0.06521603465080261,-0.0337354838848114,0.18839314579963684,-0.0055411080829799175,-0.00964873656630516,0.24730288982391357,-0.11084716022014618,-0.22404631972312927,0.2239983081817627,0.0006442447192966938,0.011710260063409805,0.007033506408333778,0.021765047684311867,-0.5233347415924072,0.08696118742227554,-0.3297199308872223,-0.14917629957199097,-0.062255360186100006,-0.31109607219696045,-0.07719557732343674,-0.02999359928071499,-0.1921495944261551,0.242416650056839,0.020218703895807266,0.07437460869550705,-0.005696765147149563,-0.22533069550991058,-0.05953614413738251,-0.4354809820652008,-0.38626331090927124,0.043013185262680054,0.21034730970859528,0.018534941598773003,0.37835177779197693,-0.020894916728138924,0.08914889395236969,-0.13066349923610687,0.07304083555936813,0.14240115880966187,-0.3055347204208374,-0.09050007909536362,0.09413354843854904,0.006679582875221968,-0.151123508810997,0.2860405445098877,-0.027937255799770355,0.34831780195236206,-0.08928436040878296,0.1872347742319107,0.0451807864010334,0.002705060411244631,-0.3090485632419586,-0.12433795630931854,-0.23130345344543457,0.06389009952545166,0.034978266805410385,-0.024659551680088043,0.022495219483971596,0.042000893503427505,0.2270001322031021,-0.3467640280723572,0.01600959151983261,-0.10066255927085876,-0.3007846176624298,0.0789097473025322,-0.40319663286209106,0.011660432443022728,0.02534829080104828,0.18035537004470825,0.18848071992397308,-0.22355271875858307,-0.16832241415977478,-0.042771145701408386,0.18128938972949982,-0.19072312116622925,-0.08949564397335052,0.06484798341989517,0.05406729131937027,-0.13059572875499725,-0.18164408206939697,0.233930304646492,-3.758692764677107e-05,0.08080321550369263,0.035451777279376984,-0.10460034012794495,-0.15859977900981903,0.053319051861763,0.1079244390130043,-0.25407248735427856,0.3675573170185089,-0.030751977115869522,0.05246995761990547,-0.14030849933624268,0.044293202459812164,-0.17302636802196503,-0.11267844587564468,-0.07611796259880066,0.06848549097776413,0.23721672594547272,-0.17175054550170898,-0.4100685119628906,-0.42408567667007446,-0.16397598385810852,-0.3745158612728119,0.028506960719823837,-0.07245606929063797,-0.11608771979808807,-0.1561361700296402,0.014604895375669003,0.28801923990249634,-0.14266179502010345,-0.6669660210609436,0.2600768208503723,0.02775432914495468,-0.031066635623574257,-0.015652330592274666,0.04057038947939873,-0.08730027824640274,-0.11372315138578415,-0.010458982549607754,-0.09487555176019669,0.21307338774204254,0.08495482802391052,0.02131243795156479,0.2551009953022003,-0.02853682078421116,-0.33066853880882263,0.1820777803659439,-0.002423021709546447,0.2293981909751892,0.09008686989545822,0.14335623383522034,-0.03206682950258255,-0.17832538485527039,0.03517536073923111,0.20677104592323303,0.08520966023206711,0.08858592063188553,0.19538375735282898,-0.2980402410030365,-0.10471135377883911,0.01759154535830021,-0.13518108427524567,0.00023552827769890428,0.22429922223091125,-0.12857836484909058,0.050509262830019,-0.10208781063556671,0.05686935409903526,-0.3158791959285736,-0.12547102570533752,-0.17963279783725739,0.2122151106595993,0.3105979561805725,0.050266433507204056,0.18275512754917145,-0.05292080342769623,0.08038816601037979,-0.09321032464504242,-0.1547483652830124,0.074376679956913,0.20538833737373352,-0.03690560534596443,-0.18443948030471802,0.17292867600917816,-0.06362022459506989,-0.2818976044654846,-0.18501251935958862,0.2360851913690567,0.009794356301426888,0.21576063334941864,-0.02554791048169136,0.05323098227381706,0.027867618948221207,0.19540581107139587,-0.1353633999824524,0.21841250360012054,-0.1412576138973236,-0.18890906870365143,-0.2751244306564331,-0.3334004580974579,-0.4383952021598816,-0.042954329401254654,-0.03338092938065529,0.31618931889533997,-0.031986404210329056,0.060900088399648666,0.10410916060209274,-0.06559611111879349,-0.2086765617132187,0.0073395767249166965,0.0009723876719363034,-0.26820018887519836,-0.012839574366807938,-0.17803506553173065,-0.05289227142930031,0.02812958136200905,0.18614202737808228,-0.007222871296107769,0.14491423964500427,-0.25693967938423157]},"features.3.block.4.weight":{"shape":[32],"data":[1.259527564048767,1.0685076713562012,0.8685777187347412,0.5441861748695374,0.8878723382949829,0.6482687592506409,0.9081874489784241,0.697601318359375,0.6941935420036316,0.8795876502990723,0.6879323720932007,0.8300219178199768,0.9249075651168823,0.6559271216392517,0.6316245794296265,0.9460634589195251,0.6128913164138794,0.9136732816696167,0.6913241744041443,0.9512197375297546,0.9773159027099609,1.1087396144866943,0.38250088691711426,1.131390929222107,1.0790094137191772,0.4179435968399048,0.825221061706543,0.7516168355941772,1.2142813205718994,1.02414071559906,1.1088250875473022,0.6347299814224243]},"features.3.block.4.bias":{"shape":[32],"data":[0.025451457127928734,-0.07239705324172974,0.1828453093767166,-0.3952609896659851,-0.11934726685285568,-0.3713861107826233,0.11775320023298264,-0.3740870952606201,-0.31236153841018677,0.2000766098499298,-0.2963560223579407,0.17412886023521423,-0.13833029568195343,-0.37802833318710327,0.35916534066200256,-0.08485860377550125,-0.43453869223594666,0.16473808884620667,0.2967618703842163,0.2382308542728424,-0.030450427904725075,0.0481775626540184,0.5589499473571777,0.0012430184287950397,-0.13444453477859497,0.559434711933136,-0.16054731607437134,-0.2279268205165863,-0.03891564533114433,-0.14243890345096588,0.048674002289772034,0.3312903046607971]},"features.3.block.4.running_mean":{"shape":[32],"data":[0.053168151527643204,0.15595951676368713,-0.46736136078834534,-0.6311564445495605,-0.31306079030036926,-0.6665046811103821,0.2103058397769928,-0.6830543875694275,-0.6620483994483948,0.6895070672035217,-0.0376102440059185,-0.06747259944677353,-0.6883192658424377,-0.4042245149612427,0.6096101403236389,0.028204793110489845,-0.6692941188812256,0.5832082033157349,0.16112712025642395,-0.2936970889568329,-0.12775035202503204,-0.1428973376750946,-0.7575320601463318,0.18064665794372559,-0.792341947555542,0.17054371535778046,-0.09203064441680908,-0.5713989734649658,-0.40828797221183777,-0.17095330357551575,0.47367769479751587,-0.7896400094032288]},"features.3.block.4.running_var":{"shape":[32],"data":[0.42132866382598877,0.3139653503894806,0.36792874336242676,0.3223974406719208,0.3061768710613251,0.5490836501121521,0.4041869640350342,0.44073161482810974,0.6452168822288513,0.7573328018188477,0.2663324475288391,0.6382066011428833,0.3962641954421997,0.23283781111240387,0.535716712474823,0.293549120426178,0.23486588895320892,0.7943751215934753,0.2283819019794464,0.4914754331111908,0.2692239284515381,0.24389584362506866,0.7790618538856506,0.30059242248535156,0.528322696685791,0.6545737385749817,0.193440780043602,0.35326361656188965,0.26736050844192505,0.33116114139556885,0.3261193633079529,0.8031760454177856]},"features.4.block.0.weight":{"shape":[32,1,3,3],"data":[-0.4310561716556549,-0.4263106882572174,-0.2586192786693573,-0.3804653286933899,-0.19081133604049683,-0.13378234207630157,0.0206364206969738,0.0007290896028280258,-0.030738336965441704,-0.24681387841701508,-0.33675724267959595,-0.0024976429995149374,-0.4524981677532196,-0.356017529964447,-0.06592167913913727,-0.20857834815979004,-0.2955799698829651,-0.09861955046653748,0.27177631855010986,-0.10725969821214676,0.04168757051229477,-0.4422236382961273,0.23642227053642273,-0.054575737565755844,0.08881395310163498,-0.2698027491569519,-0.04269358515739441,-0.23679818212985992,0.15322333574295044,0.11126077175140381,0.29803287982940674,0.2416643351316452,-0.1352374106645584,0.33081087470054626,0.11664775758981705,-0.09871900826692581,0.08859152346849442,0.038843072950839996,-0.006590345408767462,0.36257481575012207,0.20427432656288147,0.03799113258719444,0.34213486313819885,0.25548696517944336,0.0468582846224308,0.16186363995075226,0.18456950783729553,0.1704423576593399,0.26752784848213196,0.36921507120132446,0.2527655363082886,0.13515183329582214,0.22894589602947235,0.121228888630867,-0.1416204869747162,-0.21045903861522675,-0.2656491696834564,0.3293009102344513,-0.02126951701939106,-0.3079673945903778,0.4546380341053009,0.21588234603405,-0.169540137052536,0.13827376067638397,0.17258742451667786,-0.0034999840427190065,0.2513676583766937,0.2907867431640625,0.10922205448150635,0.18458499014377594,0.27129921317100525,0.18347741663455963,0.12642355263233185,0.14846909046173096,0.11491843312978745,0.40117722749710083,0.30990755558013916,0.09656500816345215,0.35737141966819763,0.2295656055212021,0.062402836978435516,0.1495293527841568,0.08689427375793457,0.24540969729423523,0.09587699919939041,0.23848940432071686,0.3990271985530853,-0.06314000487327576,0.22111564874649048,0.2928306758403778,-0.5364909768104553,-0.46364855766296387,-0.4022936224937439,-0.18272334337234497,-0.1503666788339615,-0.1920265257358551,-0.024669069796800613,-0.04819126054644585,-0.03411875292658806,0.23091353476047516,0.11958449333906174,0.10734514147043228,0.4151279330253601,0.23107990622520447,0.16562142968177795,0.27133825421333313,0.08974288403987885,-0.014363645575940609,0.2440614551305771,0.22089244425296783,0.07437754422426224,0.3414255976676941,0.2965043783187866,0.12755732238292694,0.19320859014987946,0.18842478096485138,0.0649995356798172,0.29785728454589844,0.3243304193019867,0.18043680489063263,0.3828458786010742,0.3788062334060669,0.14480625092983246,0.17455749213695526,0.18689800798892975,0.011257067322731018,0.2999846637248993,0.4065898060798645,0.22710926830768585,-0.09781266003847122,-0.18712258338928223,-0.11268480122089386,-0.35656455159187317,-0.35317471623420715,-0.2193661630153656,0.392095148563385,0.15600015223026276,-0.015687452629208565,0.45700421929359436,0.08837300539016724,-0.024742530658841133,0.38638174533843994,0.2694976329803467,0.042362555861473083,-0.1915637105703354,-0.21959441900253296,0.046714212745428085,-0.10563769191503525,0.16855569183826447,0.27535349130630493,-0.01933101750910282,0.3601907789707184,0.2691303491592407,-0.15369680523872375,0.09746693074703217,0.31514617800712585,-0.20575369894504547,0.04156683385372162,0.39293262362480164,-0.36912232637405396,-0.16653425991535187,0.289529412984848,-0.12509854137897491,0.11269189417362213,0.44791290163993835,-0.29509782791137695,-0.008566171862185001,0.3633561432361603,-0.11950492858886719,-0.14329512417316437,0.11250120401382446,-0.46017706394195557,-0.14509044587612152,0.19331412017345428,-0.26628732681274414,-0.03448519855737686,0.09568952769041061,-0.4182659685611725,-0.19695353507995605,-0.03502315655350685,0.23808571696281433,0.14011888206005096,-0.4059675335884094,0.2379762977361679,0.1802048236131668,-0.4273775517940521,0.3044978678226471,0.24357107281684875,-0.2062424272298813,0.11019294708967209,0.18797270953655243,0.09221296012401581,0.27268216013908386,0.32607290148735046,0.26964324712753296,0.15093527734279633,0.22766467928886414,0.20793257653713226,-0.20381343364715576,-0.26024115085601807,-0.2087467461824417,-0.06738469004631042,0.09734048694372177,0.03524370864033699,0.1677810400724411,0.28473350405693054,0.20132353901863098,-0.33860328793525696,-0.26530158519744873,-0.12301721423864365,0.1551816314458847,-0.09922981262207031,-0.41854971647262573,0.20431946218013763,0.20857110619544983,0.08276763558387756,0.4277289807796478,0.21693354845046997,0.03744085133075714,0.3162132799625397,0.2935560345649719,0.28880324959754944,-0.1893116980791092,0.046787191182374954,0.08828648179769516,-0.16793027520179749,-0.12486936151981354,0.12233421206474304,0.21335706114768982,-0.36418917775154114,0.1815081536769867,0.5185160636901855,-0.3519997000694275,0.10367266088724136,0.15524922311306,0.25081706047058105,0.13878969848155975,0.36370140314102173,0.3595147430896759,0.2040741890668869,0.25288254022598267,0.18737806379795074,0.09990938752889633,0.24546189606189728,0.1971864551305771,0.057409338653087616,0.3588653802871704,0.3378790020942688,0.11916566640138626,0.1385362297296524,0.19978126883506775,0.06762712448835373,0.09736113250255585,-0.2077690064907074,-0.2474745512008667,0.30435508489608765,-0.03140988573431969,-0.18512718379497528,0.4069170653820038,0.21666257083415985,-0.07787790149450302,-0.21963728964328766,-0.2303450107574463,-0.24238061904907227,0.2432260364294052,0.27273693680763245,0.0480792336165905,-0.20820116996765137,-0.16037651896476746,-0.23337753117084503,0.1043110266327858,0.18021290004253387,0.05699438974261284,-0.21151019632816315,-0.11272192746400833,-0.06792064011096954,-0.6313287615776062,-0.3970664441585541,-0.26425299048423767,-0.10101400315761566,0.2768665850162506,-0.20485863089561462,-0.2723577916622162,0.36496004462242126,-0.21335484087467194,-0.23548665642738342,0.2178936004638672,-0.12443447858095169]},"features.4.block.1.weight":{"shape":[32],"data":[1.2150006294250488,1.3463165760040283,0.5485632419586182,0.692511796951294,0.7860936522483826,0.9537815451622009,0.928345263004303,0.9134498834609985,0.8506684899330139,0.9718478322029114,1.2269210815429688,0.9488114714622498,1.2136294841766357,1.2425562143325806,1.271581768989563,0.8570837378501892,0.900199830532074,1.1352425813674927,0.7840864062309265,0.6975601315498352,0.9494098424911499,1.1188645362854004,0.9733739495277405,1.0157755613327026,0.7555980682373047,0.7984185814857483,0.9482349157333374,0.9500430226325989,0.9406102895736694,0.6216914653778076,1.134762167930603,0.6218440532684326]},"features.4.block.1.bias":{"shape":[32],"data":[0.5368708372116089,0.35624659061431885,-0.3123226463794708,0.138729065656662,0.43800604343414307,0.26389119029045105,0.05668077617883682,0.2789098918437958,0.45310020446777344,0.292631596326828,0.9060627818107605,0.4556705057621002,0.03467581793665886,0.4246869385242462,-0.018457215279340744,0.3023013770580292,0.1533827781677246,0.15955346822738647,0.24957461655139923,0.4096319079399109,0.0315745584666729,0.044430915266275406,0.10930228978395462,-0.14452329277992249,-0.6780087351799011,0.1323375552892685,0.10148710757493973,0.31837761402130127,0.07062769681215286,-0.3307335078716278,0.6823955774307251,-0.2180374413728714]},"features.4.block.1.running_mean":{"shape":[32],"data":[-0.6884737610816956,-0.6782541871070862,-0.12234091013669968,0.02116313762962818,0.2772987484931946,0.062306396663188934,-0.03298630937933922,0.06924723088741302,0.14217086136341095,0.6256760358810425,-0.26113367080688477,0.5805801153182983,0.3346196115016937,0.1466318964958191,-0.17450065910816193,0.4836849868297577,0.029804416000843048,0.09907025843858719,0.12696029245853424,-0.5183019042015076,0.08634082973003387,0.6647558212280273,0.07917025685310364,-0.2005561739206314,0.38803038001060486,0.09023218601942062,0.3196341097354889,0.19482579827308655,0.10655927658081055,-0.19144773483276367,-0.5024121999740601,-0.0973132848739624]},"features.4.block.1.running_var":{"shape":[32],"data":[1.1449317932128906,1.363701343536377,0.04798373207449913,0.00903672631829977,0.17882303893566132,0.017866693437099457,0.3731765151023865,0.02911137044429779,0.062462519854307175,0.4546222388744354,0.3160461187362671,0.14386487007141113,0.34116849303245544,0.13347356021404266,0.19658632576465607,0.7759706974029541,0.026809873059391975,0.40290603041648865,0.24948641657829285,0.27056097984313965,0.36120909452438354,1.1176360845565796,0.0404079370200634,0.32521721720695496,0.10239177942276001,0.09658893197774887,0.2890271842479706,0.11223454773426056,0.4805877208709717,0.1459195464849472,0.8947520852088928,0.030792098492383957]},"features.4.block.3.weight":{"shape":[48,32,1,1],"data":[0.30416253209114075,-0.11243811994791031,-0.06671859323978424,-0.037700485438108444,0.009601921774446964,0.2383175939321518,0.18485821783542633,-0.2029178887605667,0.12833157181739807,0.0006407006876543164,-0.3189965784549713,-0.12727341055870056,-0.07508999854326248,0.5142351388931274,0.0615493468940258,0.17514155805110931,-0.10952427238225937,-0.19996508955955505,-0.03243602439761162,-0.06170642375946045,-0.029646998271346092,-0.19837652146816254,0.23871181905269623,0.07473722845315933,0.08506553620100021,0.2520528733730316,-0.004408033099025488,-0.05677603930234909,-0.22815148532390594,0.06573982536792755,0.012814018875360489,-0.06118809059262276,-0.20477595925331116,-0.39096376299858093,0.16002070903778076,0.045697931200265884,0.14044173061847687,0.25041043758392334,0.11756987124681473,-0.11948428303003311,-0.2507479190826416,-0.04947948455810547,-0.35584765672683716,-0.04282369092106819,0.06461825221776962,-0.11883140355348587,0.17293621599674225,0.10392645001411438,0.17432889342308044,-0.011485258117318153,0.09204607456922531,-0.2830798923969269,-0.032639279961586,-0.13395826518535614,-0.12255315482616425,-0.14738436043262482,-0.03225939720869064,-0.15950682759284973,0.3467417061328888,-0.07110673189163208,-0.07925757765769958,0.2112812101840973,-5.733416764996946e-05,-0.10263566672801971,-0.08419355005025864,0.12309321761131287,0.031559139490127563,0.015463972464203835,-0.07834852486848831,0.06947904080152512,-0.08385452628135681,-0.017351189628243446,-0.13051025569438934,-0.14883163571357727,-0.19302886724472046,0.12346004694700241,-0.05839040130376816,0.21128419041633606,-0.06833864748477936,-0.10003706067800522,-0.1914074420928955,-0.2592222988605499,0.0859350711107254,-0.10757766664028168,0.2811809778213501,-0.43741485476493835,-0.1847536563873291,0.06864415109157562,-0.1256786584854126,0.08253874629735947,-0.08915042132139206,0.006764903198927641,-0.036866046488285065,-0.13952936232089996,-0.250959187746048,-0.1842615157365799,0.0136732691898942,-0.4096047282218933,-0.09201780706644058,-0.3080301284790039,0.10772981494665146,0.0892363116145134,0.04962087795138359,-0.18545350432395935,-0.0012175862211734056,-0.030906900763511658,-0.48636606335639954,0.01490064151585102,-0.0635143518447876,0.04329352453351021,-0.003604829777032137,0.1194257140159607,-0.2916073203086853,-0.32828906178474426,-0.012445710599422455,0.13970297574996948,-0.18180347979068756,-0.3450548052787781,-0.29730433225631714,-0.03334004804491997,-0.11392219364643097,-0.09513948857784271,0.012656222097575665,-0.06969395279884338,0.15212446451187134,0.0012174578150734305,-0.3491952419281006,0.0705304965376854,-0.14076006412506104,-0.34994080662727356,0.17248132824897766,-0.019112294539809227,0.11269955337047577,0.16330508887767792,-0.1847684234380722,-0.2368277758359909,-0.14479002356529236,-0.05080292373895645,-0.3391878306865692,0.12554031610488892,0.16463904082775116,-0.040590424090623856,0.1258632242679596,0.15010710060596466,-0.028324982151389122,-0.24533109366893768,-0.1378042846918106,-0.1565580666065216,-0.09904954582452774,-0.054853904992341995,-0.09133397787809372,-0.07754555344581604,-0.06329701840877533,-0.1941569596529007,-0.03572356700897217,-0.09242545068264008,0.1271658092737198,-0.07150112837553024,-0.395625501871109,-0.046505339443683624,-0.15826423466205597,0.14327438175678253,0.0958666205406189,0.03265427052974701,-0.01912849210202694,-0.03567090258002281,-0.17996089160442352,-0.030632659792900085,-0.09891985356807709,-0.30158355832099915,-0.2142985463142395,0.16754046082496643,-0.05381831154227257,0.19540290534496307,-0.11859051138162613,-0.08145195990800858,-0.12100126594305038,-0.35223713517189026,-0.09629379957914352,-0.10531116276979446,0.2196323722600937,-0.32761865854263306,0.051101427525281906,-0.09624489396810532,-0.02523350529372692,0.02578505128622055,-0.1024879515171051,0.16297966241836548,0.06022191420197487,-0.0824485570192337,-0.20428666472434998,-0.16615809500217438,-0.025038979947566986,-0.35735884308815,0.05806605517864227,-0.05305219814181328,-0.10319783538579941,-0.17814025282859802,0.1345425844192505,0.010482062585651875,0.35221734642982483,-0.22422172129154205,0.29880890250205994,-0.35772594809532166,0.19882047176361084,-0.02166249044239521,-0.134733185172081,-0.06347452849149704,0.023495560511946678,0.17676286399364471,0.08641817420721054,0.021491650491952896,0.1955314576625824,0.1529453694820404,-0.12550707161426544,-0.09763933718204498,0.13067026436328888,0.04738838970661163,0.041226692497730255,-0.3761044144630432,0.15189501643180847,0.218525692820549,-0.0778563991189003,-0.05030127242207527,0.42669782042503357,-0.17987599968910217,0.0228809155523777,0.15263506770133972,-0.10438420623540878,-0.11873273551464081,0.35260719060897827,0.07986727356910706,0.3874504566192627,0.023038428276777267,0.31979018449783325,-0.11411205679178238,0.0769653171300888,-0.13036836683750153,0.09205349534749985,-0.026769084855914116,-0.11866150796413422,0.3158250153064728,-0.03647317737340927,-0.07270972430706024,-0.027927754446864128,0.021152783185243607,-0.09918595105409622,-0.01516568660736084,0.07161720842123032,0.12482436001300812,0.051415592432022095,-0.1294214129447937,0.2537844181060791,0.08609332144260406,0.12429136782884598,-0.0029797381721436977,0.2737836241722107,-0.24739328026771545,0.027623172849416733,-0.11888398975133896,0.23628294467926025,0.1759990155696869,0.11164989322423935,-0.16045302152633667,0.10855139046907425,-0.039362963289022446,0.07128862291574478,0.04491071775555611,-0.24211397767066956,-0.32662805914878845,-0.28545209765434265,0.2018655240535736,-0.021660054102540016,0.025966564193367958,-0.11014938354492188,0.20345069468021393,0.0266311876475811,-0.14079295098781586,-0.01889929361641407,-0.07846008986234665,-0.10808908939361572,-0.11831378936767578,0.08852161467075348,-0.22975118458271027,-0.2711752951145172,-0.22577343881130219,-0.33736705780029297,-0.03741860389709473,-0.06670157611370087,0.027698270976543427,0.1285260170698166,-0.14052791893482208,0.2412947118282318,0.16917411983013153,-0.0858812928199768,-0.12781839072704315,-0.3290424942970276,-0.34169238805770874,-0.27257078886032104,0.05928049236536026,0.03405351936817169,-0.2263551652431488,-0.09912046790122986,0.20492729544639587,-0.13807076215744019,-0.2439812421798706,-0.07677040249109268,-0.14633944630622864,-0.10644858330488205,-0.03641023859381676,-0.05042489245533943,-0.20940250158309937,-0.24479050934314728,-0.17926496267318726,0.06090809404850006,-0.04237184673547745,-0.09809350222349167,0.046631939709186554,-0.2595457434654236,-0.08025693893432617,-0.21011431515216827,-0.028978465124964714,0.14921610057353973,-0.14084264636039734,0.014201984740793705,-0.09778834134340286,-0.16554321348667145,0.24985453486442566,-0.12642252445220947,-0.13637879490852356,0.04989423230290413,-0.10666760802268982,0.22895197570323944,-0.26392191648483276,0.3412136137485504,0.08493714034557343,-0.3314801752567291,-0.20969757437705994,-0.015364609658718109,0.035948362201452255,-0.1747943013906479,0.16217732429504395,0.0053441328927874565,-0.14915256202220917,-0.16879339516162872,-0.29341351985931396,0.12639479339122772,-0.049468960613012314,0.022952187806367874,0.12758296728134155,0.09264624863862991,0.0068268850445747375,-0.24954798817634583,0.1432006061077118,0.12575718760490417,0.09901512414216995,-0.1687491536140442,0.22276431322097778,0.08697615563869476,-0.10668140649795532,0.08607655018568039,-0.09653247892856598,-0.4279746115207672,-0.2280619889497757,-0.2207895666360855,-0.277824342250824,-0.21613843739032745,0.07726480811834335,0.26220640540122986,0.11578917503356934,-0.032834284007549286,0.14426197111606598,0.02793239615857601,-0.034722860902547836,0.06313026696443558,0.035072121769189835,-0.10022255033254623,-0.127053365111351,-0.12607944011688232,-0.3918457627296448,-0.2386934459209442,-0.1430257111787796,0.004571780562400818,0.0051582325249910355,0.013118604198098183,-0.17181724309921265,-0.10732538998126984,-0.04690887778997421,-0.056062523275613785,0.305415540933609,0.18401658535003662,-0.03187421336770058,0.2999531328678131,0.03070540726184845,-0.14926829934120178,-0.12001769989728928,-0.3509049415588379,-0.292486310005188,-0.12155807763338089,0.021946130320429802,0.05417342856526375,0.05331723019480705,0.2677990794181824,0.1303463876247406,-0.04444655776023865,-0.09968838095664978,-0.026648256927728653,-0.07924982160329819,0.14141875505447388,0.015215069055557251,0.22027777135372162,-0.20250892639160156,-0.25138354301452637,0.07008528709411621,0.20682434737682343,-0.055007193237543106,0.06407882273197174,-0.3295963704586029,0.004980536177754402,0.18891660869121552,0.04396092891693115,-0.11334635317325592,-0.055044546723365784,0.21292603015899658,-0.16743449866771698,-0.1506367325782776,-0.1312805861234665,-0.020969223231077194,-0.04013920575380325,0.0080963633954525,-0.038308314979076385,-0.13901309669017792,0.07110387086868286,-0.11444591730833054,-0.21847987174987793,-0.06449910998344421,0.10583707690238953,0.2240138202905655,0.06259366124868393,0.2764313519001007,0.21461473405361176,-0.10223783552646637,-0.34811487793922424,-0.010792482644319534,0.18350455164909363,-0.059124890714883804,-0.2135094404220581,0.13612709939479828,-0.24689267575740814,-0.14071890711784363,0.056258540600538254,-0.030486363917589188,0.021798977628350258,-0.16731160879135132,-0.15679505467414856,-0.08589298278093338,-0.09119043499231339,-0.21394245326519012,0.3149559199810028,-0.12127930670976639,0.18960969150066376,-0.24819330871105194,-0.19429084658622742,-0.0211184099316597,-0.037236522883176804,-0.20680001378059387,0.045149680227041245,-0.1404561847448349,-0.3411516845226288,0.09589207917451859,-0.10153517127037048,0.05423177406191826,-0.331866979598999,-0.14605922996997833,0.1075069010257721,-0.13596747815608978,0.16119715571403503,0.20163822174072266,-0.3535594940185547,-0.04567442461848259,-0.21591070294380188,-0.03442607820034027,-0.07221565395593643,0.04146893694996834,0.15944026410579681,0.14508773386478424,-0.1595437377691269,-0.33744484186172485,-0.1081840991973877,-0.020192505791783333,-0.36927130818367004,-0.34067943692207336,0.19299721717834473,-0.024338163435459137,-0.044759348034858704,0.08725757151842117,-0.12145082652568817,-0.20521938800811768,-0.06365220248699188,-0.24305710196495056,-0.3550693988800049,-0.010920231230556965,-0.20083199441432953,0.00037001020973548293,0.029693294316530228,0.027304360643029213,0.35493165254592896,-0.09124356508255005,0.07931516319513321,-0.02968015894293785,-0.20815640687942505,0.05980171263217926,0.022478755563497543,-0.15337230265140533,0.03226053714752197,-0.08359518647193909,0.18884213268756866,0.2505817413330078,-0.1985432356595993,-0.24586252868175507,-0.005305422469973564,-0.09147442877292633,-0.2034052312374115,-0.14290374517440796,0.12248155474662781,-0.09937383979558945,0.040801409631967545,-0.15876205265522003,-0.2670947313308716,-0.2568996846675873,-0.1238732784986496,-0.08144920319318771,-0.10421556979417801,-0.21571440994739532,-0.10849609225988388,-0.277150958776474,-0.15658843517303467,-0.06909666955471039,0.28215765953063965,-0.218007892370224,0.02481280453503132,0.10733909159898758,-0.10530786961317062,-0.022537043318152428,0.1470467895269394,-0.27984702587127686,-0.10411174595355988,0.04637458547949791,0.07518600672483444,-0.08131896704435349,-0.17638620734214783,-0.3102281391620636,-0.11595337092876434,-0.12906873226165771,0.054793503135442734,-0.08400718122720718,0.07315444201231003,0.12879782915115356,-0.17943832278251648,-0.39499136805534363,0.08509273827075958,0.06985370069742203,-0.1591779887676239,0.07786792516708374,-0.23862692713737488,0.2472596913576126,-0.3467978239059448,0.08529410511255264,-0.05638231709599495,0.06403889507055283,-0.3097041845321655,0.16973939538002014,0.018624665215611458,-0.24169360101222992,-0.34773752093315125,0.07682757079601288,-0.23029115796089172,-0.04764460772275925,0.11521170288324356,0.23798023164272308,-0.13594572246074677,-0.14492346346378326,-0.11078719794750214,0.15441524982452393,-0.1719091385602951,-0.32409772276878357,-0.2525659501552582,-0.0903337374329567,0.14203254878520966,0.009745138697326183,0.18874438107013702,-0.007182609289884567,-0.10840221494436264,-0.05131339281797409,-0.0014050680911168456,-0.5469270348548889,-0.06973683089017868,-0.04001447930932045,0.08280519396066666,-0.04731579124927521,0.1999896764755249,-0.0997113287448883,-0.20700187981128693,0.3418782353401184,0.2782147228717804,-0.08166778087615967,-0.1424930989742279,-0.0324823372066021,-0.3026849627494812,-0.4685705006122589,-0.0038444320671260357,0.22735770046710968,-0.0992153137922287,0.12835220992565155,-0.14499038457870483,-0.0042611341923475266,-0.17113946378231049,0.09777642041444778,-0.013216676190495491,-0.1397351175546646,-0.11854510009288788,0.06704934686422348,0.031735558062791824,-0.09529685974121094,0.08851148188114166,0.24338975548744202,0.05719441920518875,0.05350375548005104,-0.2583029568195343,0.3373703956604004,-0.2141350954771042,0.28382182121276855,0.14394503831863403,0.08049005270004272,-0.33457985520362854,-0.09097373485565186,0.08718011528253555,0.057992443442344666,0.007294931914657354,0.07523064315319061,-0.1575169414281845,-0.10131093114614487,0.0684308260679245,0.0990622341632843,0.08400797843933105,0.15387022495269775,-0.1315993070602417,0.08710385113954544,-0.22136370837688446,-0.041768353432416916,-0.359220027923584,-0.054428502917289734,-0.18622830510139465,-0.06316698342561722,0.006245426367968321,-0.13773882389068604,-0.18097656965255737,-0.23184514045715332,-0.24786701798439026,-0.14799822866916656,-0.24559162557125092,-0.08181041479110718,-0.03587019816040993,-0.22627313435077667,0.011136813089251518,-0.5232264995574951,0.044194452464580536,-0.04200783371925354,0.13254819810390472,-0.01897117681801319,0.1994500756263733,0.07945547997951508,0.3429846167564392,-0.10748996585607529,0.1475256085395813,0.009936564601957798,-0.04923909902572632,0.18889884650707245,-0.0021285894326865673,-0.13255785405635834,-0.034784018993377686,-0.07111085206270218,-0.48867276310920715,-0.12468414008617401,-0.034339599311351776,0.3109581768512726,-0.2300531417131424,-0.02988496795296669,-0.18815910816192627,-0.1909133493900299,-0.06267479807138443,-0.08536112308502197,-0.2763623297214508,-0.24735508859157562,-0.1337594985961914,-0.14317479729652405,-0.041579052805900574,0.030362552031874657,0.016360126435756683,-0.012966333888471127,0.24734872579574585,-0.025203565135598183,0.05408916622400284,-0.015454421751201153,-0.12939995527267456,-0.15846963226795197,0.10585612803697586,0.1030576303601265,0.08902458846569061,0.20241114497184753,0.12067769467830658,-0.1914939284324646,-0.020959321409463882,-0.20085008442401886,-0.2361082285642624,-0.6464546918869019,-0.17598463594913483,0.01315323170274496,0.044428501278162,0.09011109173297882,-0.025389481335878372,-0.30070751905441284,0.03869660943746567,-0.19390825927257538,0.04704882577061653,0.014330280013382435,-0.3654913604259491,0.04219522327184677,0.04646555706858635,-0.0028718747198581696,0.01522657461464405,-0.15818743407726288,0.04325579106807709,-0.0177194532006979,-0.567963182926178,0.05046152323484421,0.2617802321910858,-0.16125786304473877,-0.02540447562932968,-0.1300821155309677,0.01951262168586254,-0.1329016387462616,0.06880475580692291,-0.11793298274278641,0.15381862223148346,-0.23020026087760925,-0.2939852476119995,0.25917527079582214,0.09270963072776794,-0.042249180376529694,-0.40377718210220337,0.15158872306346893,0.0568651482462883,-0.07654161751270294,0.014429609291255474,0.12835665047168732,-0.030966131016612053,-0.023728296160697937,0.11261580139398575,-0.24298377335071564,-0.3220425844192505,-0.05642000213265419,0.021921858191490173,0.006757750641554594,0.07734031975269318,-0.02281709760427475,-0.3525610864162445,-0.24775391817092896,0.1609712839126587,-0.19809550046920776,-0.18733622133731842,-0.23070307075977325,-0.23542194068431854,-0.07182793319225311,0.4159809648990631,0.1476772576570511,0.2487313598394394,-0.15513747930526733,-0.2777816951274872,0.09438727796077728,0.03234945237636566,-0.012684538960456848,0.07721924781799316,-0.009130720049142838,-0.10860765725374222,-0.12183088809251785,-0.27881911396980286,0.1599392145872116,0.18465934693813324,-0.2584790885448456,0.01034679263830185,-0.369584858417511,-0.21994729340076447,0.17929691076278687,-0.039841409772634506,-0.15218059718608856,-0.3310967981815338,-0.000532602658495307,0.030059397220611572,-0.1595049798488617,0.16115565598011017,0.12546399235725403,0.08154509961605072,0.02628091163933277,0.02458234876394272,0.016668615862727165,-0.0817243754863739,-0.25194790959358215,-0.005328334402292967,-0.1021498367190361,-0.16333037614822388,-0.18625904619693756,0.07462558150291443,0.33942732214927673,-0.2866836190223694,-0.25266143679618835,0.24765178561210632,0.12228111177682877,0.32462722063064575,0.14945122599601746,-0.03628687188029289,0.06380125135183334,0.0625753253698349,0.08043479919433594,-0.07798964530229568,0.09070585668087006,-0.3458462953567505,0.009421478025615215,0.05513492599129677,-0.11919914931058884,0.023021075874567032,0.03678387403488159,0.10894539952278137,0.06245126202702522,-0.17438921332359314,-0.1304575651884079,0.05893478915095329,0.20824456214904785,0.3093242049217224,-0.04863574728369713,0.3046891987323761,-0.08974599838256836,-0.435359925031662,0.0928659737110138,0.030552446842193604,0.00790705718100071,-0.43749964237213135,0.10470964014530182,0.034821294248104095,-0.12432906031608582,-0.5168401002883911,0.037757184356451035,0.09906135499477386,-0.17157796025276184,-0.03294703736901283,-0.26679256558418274,-0.18580275774002075,-0.040258441120386124,-0.0057984995655715466,-0.1465291827917099,-0.03705737367272377,-0.05024997144937515,-0.26809626817703247,-0.22506989538669586,0.23883956670761108,-0.02910921350121498,-0.027832843363285065,0.2594870924949646,-0.17567704617977142,0.16667737066745758,0.13796131312847137,-0.03787039965391159,0.314548134803772,-0.10506189614534378,-0.1332666128873825,-0.04754525423049927,-0.023730676621198654,0.6094294190406799,0.09160920232534409,0.03824932128190994,0.17023301124572754,0.00011553868534974754,0.08264239132404327,-0.13273867964744568,0.16889847815036774,-0.1593373566865921,-0.17761527001857758,-0.0569765642285347,-0.12380235642194748,0.16873988509178162,-0.23993545770645142,-0.17117226123809814,-0.035322971642017365,-0.10450833290815353,-0.17745843529701233,-0.14114630222320557,-0.16193938255310059,-0.24231749773025513,0.08700934797525406,-0.06584926694631577,0.2129809856414795,0.07843274623155594,-0.09696495532989502,-0.2104245126247406,0.0010916300816461444,0.002143187914043665,-0.4613817632198334,0.13477882742881775,-0.1471128612756729,-0.2508290112018585,0.16706785559654236,0.15909326076507568,-0.04549472779035568,-0.31208178400993347,-0.051292646676301956,-0.1441550850868225,-0.1393742561340332,-0.02250279113650322,-0.13927744328975677,-0.06699739396572113,-0.0975571945309639,-0.3472006022930145,0.12688137590885162,-0.16503481566905975,0.20308637619018555,0.0373254232108593,-0.1507686823606491,0.13857005536556244,0.004158212337642908,0.06335829198360443,0.10820425301790237,0.000782935821916908,-0.124052993953228,0.05622836947441101,-0.2507609724998474,0.022015012800693512,-0.18203969299793243,-0.2992912828922272,-0.32577624917030334,-0.03336169198155403,-0.20529936254024506,0.16148507595062256,-0.3533921539783478,-0.053833968937397,-0.03592836856842041,-0.04786364734172821,0.002797454595565796,-0.021976757794618607,0.08095433562994003,-0.17334194481372833,0.013895364478230476,-0.2623063921928406,-0.42756399512290955,0.0721367821097374,-0.009258151054382324,0.09589076042175293,-0.32343900203704834,-0.1261921375989914,-0.19860447943210602,-0.04961948096752167,0.033780161291360855,-0.12184813618659973,0.06947758048772812,0.1608850657939911,0.1803361177444458,-0.05928187817335129,-0.3028687536716461,-0.07071710377931595,-0.2261679768562317,0.24781960248947144,-0.1513151228427887,0.02230493351817131,0.14690722525119781,-0.018344294279813766,0.21212396025657654,0.011412132531404495,0.14919859170913696,-0.06541462987661362,0.3401564657688141,-0.08133188635110855,-0.22300732135772705,0.18424683809280396,0.21194997429847717,0.1003173217177391,0.13896247744560242,-0.1801726222038269,-0.14413002133369446,0.09880508482456207,0.26296716928482056,-0.03553719073534012,-0.11360818892717361,0.1487116813659668,-0.20683689415454865,-0.40931493043899536,0.03975936397910118,0.21681058406829834,-0.19603344798088074,0.1281764656305313,-0.11031956970691681,0.13440877199172974,0.09530185163021088,-0.07839065790176392,0.23294241726398468,-0.30711594223976135,-0.06708876043558121,0.22642533481121063,0.15871652960777283,-0.26005253195762634,-0.13062849640846252,0.14248254895210266,0.136731818318367,-0.07044399529695511,0.0004896855680271983,0.08772643655538559,-0.4289300739765167,0.0045062946155667305,0.09994913637638092,0.19688881933689117,-0.24991416931152344,-0.2850435674190521,0.15477140247821808,0.26954561471939087,0.08145570009946823,0.01997113786637783,0.00016506671090610325,-0.08650306612253189,-0.10660572350025177,-0.08440421521663666,0.15553192794322968,0.05651824548840523,-0.037821751087903976,-0.2619917690753937,0.10820302367210388,-0.013154060579836369,-0.2840895652770996,-0.03544168919324875,0.2850721776485443,-0.2024545669555664,-0.06656605750322342,0.04886440932750702,-0.17522895336151123,-0.1412077695131302,-0.04853393882513046,-0.049018532037734985,-0.07111088186502457,-0.2958895266056061,-0.013261436484754086,-0.19916971027851105,-0.22890999913215637,0.01144210435450077,0.2716136872768402,-0.2534874975681305,-0.2699311673641205,0.08723091334104538,-0.08271007239818573,-0.13671639561653137,0.03303766995668411,-0.44555020332336426,0.007944146171212196,0.12212741374969482,0.22638632357120514,-0.09467125684022903,-0.24419844150543213,-0.04647045582532883,-0.15872842073440552,-0.038252394646406174,0.06281359493732452,0.18968553841114044,0.21905900537967682,-0.09692510962486267,-0.11016036570072174,-0.24907010793685913,0.15688744187355042,0.010695814155042171,0.116878442466259,-0.2538224756717682,-0.11520471423864365,0.3790264129638672,-0.1625061184167862,0.04397572949528694,0.09775758534669876,-0.1257210075855255,-0.08244725316762924,0.1522839069366455,0.11975619941949844,-0.027452519163489342,-0.07906835526227951,0.14995676279067993,-0.18856100738048553,-0.193954199552536,0.14116066694259644,0.05562380701303482,-0.0778128132224083,0.21670901775360107,0.0976133942604065,0.021931391209363937,0.1997651308774948,-0.15353074669837952,-0.25597208738327026,-0.1488836705684662,-0.454778254032135,-0.3352169990539551,-0.0951601043343544,-0.2689799666404724,0.0908111110329628,0.010619303211569786,0.10004565119743347,0.1698395311832428,-0.04021170362830162,0.20145532488822937,-0.31655341386795044,-0.12284931540489197,-0.03127853572368622,0.16435444355010986,0.030253641307353973,-0.15858319401741028,-0.25166240334510803,-0.08861496299505234,0.1442238837480545,-0.1833810955286026,-0.33418548107147217,0.04740612208843231,-0.029493208974599838,-0.015882663428783417,-0.20764042437076569,-0.076435886323452,0.09280744940042496,-0.006449869833886623,-0.0486188605427742,-0.26561808586120605,0.20126071572303772,0.05262454226613045,0.13603629171848297,-0.2887561321258545,-0.3296506404876709,0.1828269362449646,0.2401410937309265,0.14518333971500397,-0.251325398683548,0.2093522846698761,-0.18010590970516205,0.15634563565254211,-0.1787509024143219,-0.15779437124729156,-0.21487006545066833,-0.16580742597579956,0.07447785884141922,-0.05160421505570412,-0.16314996778964996,0.05529215931892395,-0.4062122106552124,-0.3112559914588928,-0.5404086709022522,-0.2508459985256195,-0.07649975270032883,0.02461911179125309,0.08481516689062119,0.12295637279748917,0.010217087343335152,-0.07911506295204163,-0.04607211425900459,-0.07716827839612961,0.08543641865253448,-0.57662433385849,0.1173684373497963,-0.032234009355306625,0.004233475308865309,-0.034310586750507355,-0.16176219284534454,-0.10035593062639236,0.014006184414029121,-0.25182560086250305,-0.0943789929151535,-0.11070358753204346,-0.001275863847695291,0.061604782938957214,-0.07852057367563248,0.216131791472435,0.30478712916374207,-0.1810806542634964,0.25556689500808716,0.2181595414876938,-0.09145718812942505,0.18980301916599274,0.15668199956417084,-0.1318843811750412,-0.05710051208734512,-0.05377069115638733,-0.0638422891497612,-0.331248015165329,-0.1050218790769577,-0.016630319878458977,-0.11390755325555801,0.014208159409463406,-0.20227794349193573,0.271484911441803,-0.18489331007003784,0.12411556392908096,-0.658022403717041,-0.012086061760783195,0.07738659530878067,-0.07047615200281143,0.06660205125808716,-0.02070126309990883,-0.04114561527967453,0.12241845577955246,-0.06487280130386353,-0.6497601270675659,-0.3449676036834717,-0.06705860048532486,0.011389263905584812,0.12574166059494019,-0.41606464982032776,0.03906919062137604,0.08258896321058273,-0.08340545743703842,-0.30748578906059265,0.06876632571220398,0.31914809346199036,-0.04961942508816719,-0.20521527528762817,-0.1211349293589592,-0.2914718985557556,-0.0650191381573677,-0.008531389757990837,-0.03997331112623215,0.007818278856575489,-0.22829216718673706,0.3573170006275177,-0.08469408005475998,0.09225871413946152,-0.052433717995882034,-0.24444445967674255,0.2854331135749817,-0.10555845499038696,0.035177554935216904,0.038847703486680984,0.19181542098522186,-0.06629441678524017,0.12328378111124039,-0.3025366961956024,0.019392499700188637,-0.1737479567527771,-0.04223402217030525,-0.06905610859394073,0.2367846816778183,-0.04047144576907158,-0.14400017261505127,0.14617712795734406,0.04449259862303734,0.036558739840984344,0.05252797529101372,-0.17667020857334137,0.028855672106146812,-0.0932525247335434,-0.1390211135149002,-0.29551196098327637,-0.1266615092754364,-0.07977292686700821,-0.05323772504925728,0.2315577119588852,0.37051287293434143,-0.14245237410068512,0.18844376504421234,0.039923202246427536,0.021306417882442474,0.23818422853946686,-0.0453835055232048,-0.0457383431494236,-0.09209798276424408,-0.3281420171260834,-0.07196567207574844,0.04810962826013565,0.3192876875400543,-0.16174070537090302,0.13612115383148193,0.2299506962299347,-0.00515885092318058,-0.05021503567695618,0.037464745342731476,-0.44083327054977417,0.10965216904878616,0.13575328886508942,0.04995707795023918,-0.11500482261180878,0.24149419367313385,0.1298399716615677,0.1381877213716507,-0.27660852670669556,-0.16910523176193237,-0.3196018934249878,-0.13537360727787018,-0.2723698914051056,0.19757230579853058,0.39209651947021484,-0.06842140108346939,-0.11708058416843414,0.12338920682668686,0.04876040294766426,-0.009089414961636066,0.049060747027397156,-0.02542746812105179,-0.03557050600647926,-0.021982047706842422,0.234818696975708,-0.12785908579826355,-0.04653048515319824,-0.10089219361543655,-0.34849730134010315,0.1337723731994629,0.18092499673366547,0.05150377005338669,-0.0038857818581163883,-0.33681753277778625,0.06694987416267395,0.06924591958522797,0.19958963990211487,0.2847244143486023,0.0029738161247223616,-0.2896764278411865,0.05282064527273178,-0.13072174787521362,-0.5888996720314026,-0.17921259999275208,0.02265492081642151,0.19181597232818604,-0.33768677711486816,-0.12756209075450897,0.0023736946750432253,-0.16032665967941284,0.13566642999649048,0.049762703478336334,-0.13575614988803864,-0.03861122950911522,-0.20012207329273224,0.0865519791841507,-0.009227696806192398,0.05373582988977432,0.06799356639385223,-0.14394964277744293,0.1294804960489273,0.10303176194429398,0.11355851590633392,0.04671451449394226,-0.28756460547447205,-0.4213438034057617,0.0776873379945755,-0.0133570721372962,0.03585391864180565,0.22213131189346313,-0.0844988077878952,-0.1014523059129715,-0.04130346328020096,-0.23692791163921356,-0.024271883070468903,0.013280540704727173,-0.22331279516220093,0.09696338325738907,0.37148532271385193,0.07731019705533981,-0.07215193659067154,-0.31266874074935913,-0.06482110172510147,0.0003855415270663798,0.09521941095590591,0.09132668375968933,-0.5545139312744141,0.16969044506549835,0.1437178999185562,-0.0616053082048893,-0.15990202128887177,-0.10332086682319641,0.1246538832783699,0.025910021737217903,-0.2690681219100952,0.06312987953424454,0.08656390011310577,-0.04335751011967659,0.10666419565677643,0.02235429733991623,-0.22357450425624847,-0.07917781919240952,-0.020785249769687653,-0.18844082951545715,0.14153443276882172,0.22644270956516266,-0.06906776130199432,-0.061918631196022034,-0.09326060861349106,-0.21507006883621216,-0.0011296739103272557,-0.13846638798713684,0.08267640322446823,-0.025728458538651466,0.19146500527858734,0.03244350105524063,-0.07664623856544495,-0.4156205952167511,0.1554732322692871,-0.16480135917663574,0.20430241525173187,-0.1613696664571762,0.3097016215324402,0.028344715014100075,-0.11398641020059586,0.15558528900146484,0.17694251239299774,0.1291193813085556,-0.42907482385635376,-0.09561717510223389,0.06855511665344238,-0.1782570481300354,0.0016445049550384283,-0.0900726169347763,-0.3481459617614746,-0.04012497887015343,-0.03102755919098854,0.06608009338378906,0.048200368881225586,-0.031487081199884415,0.3135998249053955,-0.21691656112670898,0.1760568767786026,-0.08474668860435486,-0.3579077124595642,-0.17349757254123688,-0.037859369069337845,-0.044381994754076004,-0.1599498689174652,0.045387931168079376,-0.2099543958902359,-0.17450879514217377,-0.3437419533729553,-0.1955760419368744,0.121707484126091,-0.09764403104782104,0.17054057121276855,0.3353811502456665,0.09205012768507004,0.05580778047442436,0.06621988117694855,-0.3711487948894501,-0.022916847839951515,-0.3557080924510956,-0.05169651284813881,-0.03701063245534897,-0.12382606416940689,-0.05719990283250809,-0.009076080285012722,0.019510561600327492,-0.24384276568889618,0.07503273338079453,0.025978924706578255,-0.364383339881897,-0.020811617374420166,0.12135132402181625,-0.06514526158571243,-0.04623232036828995,-0.22041545808315277,0.200428768992424,-0.29251939058303833,0.19808077812194824,-0.22446060180664062,-0.2777361273765564,-0.25467225909233093,-0.08561255037784576,0.28486472368240356,0.01664368249475956,-0.004142505116760731,0.1624114066362381,-0.15374381840229034,-0.05083875358104706,0.02017028257250786,0.3456328809261322,0.18924391269683838,-0.016521384939551353,0.0400739461183548,0.13085782527923584,-0.05113079398870468,0.1577085256576538,-0.1720336675643921,-0.1899281144142151,0.06688152253627777,-0.16713152825832367,-0.17352774739265442,-0.10781363397836685,0.018627682700753212,0.1099776178598404,-0.17206384241580963,-0.24715878069400787,-0.6288040280342102,0.23417896032333374,-0.1290348768234253,0.025073349475860596,0.08786073327064514,-0.014192748814821243,-0.025052161887288094,-0.2103981226682663,0.06264398992061615,-0.08170134574174881,0.018265334889292717,-0.11618442088365555,0.24311316013336182,0.35686221718788147,0.27081048488616943,-0.0997004359960556,-0.40442878007888794,-0.29463356733322144,0.23475639522075653,0.02547888644039631,0.0016164183616638184,-0.12259645760059357,0.09275402128696442,0.05049936845898628,0.3026736378669739,0.06174791604280472,0.20047391951084137,-0.1360776424407959,-0.3790481388568878,-0.12255978584289551,-0.3163764476776123,-0.1819934844970703,-0.07442942261695862,0.0977775976061821,-0.036295149475336075,0.006285769399255514,0.027088206261396408,-0.09362117946147919,-0.20840080082416534,-0.0019360871519893408,0.29910868406295776,-0.49502164125442505,0.0011175812687724829,0.1947350800037384,-0.20799271762371063,0.04175920784473419]},"features.4.block.4.weight":{"shape":[48],"data":[0.8808918595314026,0.757560133934021,0.7832699418067932,0.7694716453552246,0.9770517945289612,0.7132299542427063,0.7455111145973206,0.6503996253013611,1.105535864830017,0.6991201639175415,0.9371761083602905,0.28339943289756775,0.9008316993713379,0.6945256590843201,0.5974173545837402,1.1142024993896484,0.6283201575279236,0.7328745126724243,0.8462539911270142,0.5288465619087219,0.9206055998802185,0.8691122531890869,0.8187956213951111,0.765167236328125,0.8341216444969177,0.8049622178077698,0.5744985342025757,0.6162605881690979,1.0896283388137817,0.7398332357406616,0.4917927086353302,0.7768139243125916,0.9466380476951599,0.7735602855682373,0.5442432165145874,0.6345786452293396,0.7140193581581116,1.0700129270553589,0.5523497462272644,1.0013000965118408,0.6201121807098389,0.7863771915435791,0.9278878569602966,0.7480970621109009,0.9399253726005554,0.682910144329071,0.9396441578865051,1.0072983503341675]},"features.4.block.4.bias":{"shape":[48],"data":[0.2084461897611618,0.29172784090042114,-0.24311010539531708,-0.18994297087192535,-0.1012616902589798,-0.25780123472213745,0.28846287727355957,0.2956852614879608,0.11876356601715088,-0.260004460811615,0.10883010923862457,0.5799714922904968,0.17667675018310547,-0.27300265431404114,-0.40709224343299866,-0.18592947721481323,-0.31131497025489807,-0.2696027457714081,-0.1335952877998352,0.4537088871002197,-0.13717545568943024,-0.17694169282913208,0.1302468329668045,-0.24654197692871094,0.2389947921037674,0.25321584939956665,-0.4050588309764862,0.3442136347293854,0.00017812645819503814,-0.28073689341545105,0.4464665353298187,0.3024846315383911,0.11787977069616318,-0.2699638605117798,-0.440557062625885,-0.3531508445739746,0.2876335382461548,-0.05703511834144592,0.4495273530483246,0.1711023896932602,0.4652249813079834,-0.2118339091539383,0.1007300317287445,0.29380661249160767,-0.09527963399887085,-0.3076834976673126,-0.09419003874063492,-0.04801762476563454]},"features.4.block.4.running_mean":{"shape":[48],"data":[0.01934349350631237,-1.0057995319366455,-0.8904656767845154,-1.635976791381836,-1.4462614059448242,-0.931626558303833,-0.17495618760585785,0.9704129099845886,-0.4915100932121277,-1.2979676723480225,-0.34701085090637207,-1.1317851543426514,-0.17569725215435028,-0.7180942296981812,-1.0641415119171143,-1.3821988105773926,-1.0974277257919312,-0.8898733258247375,-1.0773882865905762,-0.6571621298789978,-1.240564227104187,-0.8055821061134338,-1.812549114227295,-0.6570464968681335,-0.5713945031166077,0.06153755635023117,-0.9153003692626953,0.06282786279916763,-1.3415641784667969,-1.2555432319641113,0.050399377942085266,-0.44460317492485046,-0.9303790330886841,-0.2963390350341797,-0.9735317826271057,-0.8748446106910706,-1.0451786518096924,-0.7619768381118774,-0.527572512626648,-0.006195227615535259,-0.6406014561653137,-1.02940034866333,-1.1041953563690186,-0.12311719357967377,-0.7848275303840637,-1.0029854774475098,0.0829537883400917,-0.0348532535135746]},"features.4.block.4.running_var":{"shape":[48],"data":[0.713725745677948,0.5276746153831482,0.5966873168945312,0.6471021175384521,0.27642735838890076,0.7138985991477966,0.6867067217826843,0.5352165699005127,0.3536183834075928,0.46857133507728577,0.7460023164749146,0.4690188765525818,0.2530498802661896,0.2938603460788727,0.5410844683647156,0.32933399081230164,0.2881527245044708,0.36763888597488403,0.4645199477672577,0.4376959204673767,0.5242382884025574,0.4557068645954132,0.49910449981689453,0.37621524930000305,0.36066487431526184,0.2718351483345032,0.5701656341552734,0.8833714723587036,0.3022986054420471,0.7369344830513,0.3526284694671631,0.4095877707004547,0.20580632984638214,0.4923911690711975,0.35135793685913086,0.2796495258808136,0.6027965545654297,0.9433271288871765,0.4151289761066437,0.4536289870738983,0.7059903740882874,0.446742445230484,0.4382510781288147,0.5520390868186951,0.48406803607940674,0.33584731817245483,0.8284278512001038,0.5312595367431641]},"features.5.block.0.weight":{"shape":[48,1,3,3],"data":[-0.4794379770755768,-0.19041556119918823,0.006879604887217283,-0.07414467632770538,-0.03648536652326584,0.016342682763934135,0.2902783751487732,0.10959101468324661,0.020675094798207283,-0.6942485570907593,-0.3482525944709778,-0.020755469799041748,-0.4107244610786438,0.04523586481809616,0.0794958546757698,-0.13152989745140076,-0.25881728529930115,-0.03227350488305092,0.4490062892436981,0.11969015002250671,-0.15122517943382263,0.2055022269487381,0.004843547940254211,-0.23185233771800995,0.3531576991081238,-0.09143643081188202,-0.2766272723674774,0.2950921952724457,0.20102545619010925,0.17053773999214172,0.1461418867111206,0.09528572857379913,0.1592554897069931,-0.4958454966545105,-0.25850823521614075,-0.033980198204517365,-0.2107938975095749,0.015146388672292233,-0.0017480351962149143,-0.5149888396263123,-0.3343607485294342,-0.15986701846122742,-0.3869265019893646,-0.26971620321273804,-0.23846912384033203,-0.037468072026968,0.19294215738773346,0.23047687113285065,0.1250792294740677,0.2941574156284332,0.3250402808189392,-0.0778837576508522,0.2175152450799942,0.5159952044487,-0.27266931533813477,0.07701877504587173,0.24355047941207886,0.4505607485771179,0.1035512313246727,-0.04685680568218231,-0.3397497534751892,-0.22145937383174896,-0.19780385494232178,-0.40408289432525635,-0.19579486548900604,0.18341195583343506,-0.3001244068145752,0.0004902811488136649,0.1674547642469406,-0.6445540189743042,0.051727212965488434,0.10648522526025772,0.4519791603088379,0.0044058701023459435,-0.13207988440990448,0.3681066632270813,0.0932704284787178,-0.02422660030424595,0.3322589099407196,-0.047794342041015625,-0.012429259717464447,0.3892720341682434,-0.17674176394939423,-0.1371457874774933,0.3720903992652893,0.05764950439333916,-0.03405662253499031,0.5043088793754578,-0.04985306039452553,-0.2770153284072876,-0.393730103969574,-0.2093636691570282,-0.24269278347492218,-0.3325369954109192,-0.27950218319892883,-0.1802462339401245,-0.19882707297801971,-0.1344270557165146,-0.13956956565380096,-0.13138726353645325,-0.015337751246988773,0.22886525094509125,-0.10569039732217789,0.011437194421887398,0.1344538927078247,0.4231324791908264,0.47042471170425415,0.31943824887275696,-0.40294453501701355,-0.06263910233974457,0.4709694981575012,-0.15918397903442383,0.007387817837297916,0.2624497711658478,-0.2729346752166748,0.07590842247009277,0.4064168930053711,-0.16093328595161438,-0.11903806030750275,-0.2201196253299713,-0.2520608901977539,-0.15135140717029572,-0.2589138150215149,-0.4231897294521332,-0.25523456931114197,-0.31167635321617126,0.3851107060909271,0.06784720718860626,-0.13897646963596344,0.3272930085659027,-0.056233856827020645,-0.007253384683281183,0.37866613268852234,-0.3416396677494049,-0.20378415286540985,-0.4193571209907532,-0.22033758461475372,-0.08938176929950714,-0.1353883147239685,-0.13860906660556793,-0.10516201704740524,0.42801520228385925,0.037429895251989365,-0.06236283853650093,0.09509191662073135,0.07942599058151245,0.1370198279619217,0.24432864785194397,0.19324970245361328,0.36162644624710083,0.1344902068376541,0.19763073325157166,0.43797630071640015,0.26828598976135254,0.12071285396814346,-0.11370524764060974,0.3200986087322235,0.09264807403087616,-0.02771342545747757,0.28987687826156616,-0.10916417092084885,-0.08688852936029434,0.25648441910743713,0.09079037606716156,-0.22578874230384827,0.2507649064064026,-0.021617433056235313,-0.035521604120731354,0.5053436756134033,0.1291612833738327,-0.10781727731227875,-0.31873464584350586,-0.11919979751110077,0.3736911416053772,-0.01287677139043808,-0.0205246489495039,0.2910782992839813,-0.3042009770870209,0.009515066631138325,0.3075190484523773,0.3196609616279602,0.1839795857667923,-0.04538317769765854,0.41749632358551025,0.03882592171430588,-0.04059051349759102,0.4232715368270874,0.01914549618959427,-0.18696309626102448,0.2156154215335846,0.027274247258901596,-0.09531256556510925,0.46388059854507446,0.2533578872680664,-0.006347827147692442,0.15920333564281464,0.04616664722561836,-0.27580681443214417,0.44175317883491516,-0.17215727269649506,-0.06896539777517319,0.45216476917266846,-0.07524795830249786,-0.02760886773467064,0.3923177123069763,-0.2838897705078125,-0.11467952281236649,-0.3817128837108612,-0.12069542706012726,0.008877777494490147,-0.40331214666366577,-0.19743712246418,-0.0577249713242054,-0.30554401874542236,-0.26548266410827637,-0.11375058442354202,0.25052618980407715,-0.059185177087783813,-0.1825210154056549,0.300416499376297,-0.00719780707731843,-0.041596099734306335,0.28774386644363403,-0.0039323922246694565,-0.11379173398017883,-0.3635023534297943,-0.026752501726150513,0.3030919134616852,-0.10194899886846542,-0.03170394152402878,0.16819924116134644,-0.15014389157295227,0.0453951433300972,0.34134000539779663,-0.08285735547542572,-0.1809549331665039,-0.36659491062164307,-0.2308216542005539,-0.13627725839614868,-0.2848873734474182,-0.46756455302238464,-0.2663058340549469,-0.23511594533920288,-0.31405937671661377,-0.1735667884349823,-0.21354059875011444,-0.4276706278324127,-0.4148359000682831,-0.087120920419693,-0.12347754836082458,-0.5768166780471802,-0.050113286823034286,-0.44375327229499817,-0.14532478153705597,0.007304464466869831,-0.0028410146478563547,-0.09319740533828735,-0.054097048938274384,0.2856844663619995,0.03433198481798172,-0.007694493047893047,0.16543738543987274,-0.2067679911851883,-0.039509180933237076,0.2865492105484009,0.16668106615543365,0.006889512296766043,0.5422109961509705,0.298673540353775,-0.03546733036637306,0.21710486710071564,-0.07904472202062607,-0.6703221797943115,0.07120876759290695,-0.10802962630987167,-0.406419962644577,0.24313968420028687,0.006970181595534086,-0.5238053202629089,0.1360151767730713,0.21784262359142303,0.012820111587643623,0.32495903968811035,0.07570527493953705,-0.02841648831963539,0.32556232810020447,-0.35012733936309814,-0.23401854932308197,0.28230586647987366,0.021614965051412582,-0.12587131559848785,0.34546959400177,-0.10022619366645813,-0.08345062285661697,0.34322911500930786,-0.1471889466047287,-0.2366935908794403,-0.5476834177970886,-0.26352736353874207,-0.016955086961388588,-0.32464873790740967,-0.16666406393051147,-0.034902989864349365,-0.5475281476974487,-0.17301662266254425,0.07777450233697891,0.3539923429489136,0.08713670819997787,-0.012086906470358372,0.3863462507724762,0.12350329011678696,-0.11286526173353195,0.5576024055480957,0.09045667946338654,-0.34201812744140625,-0.07305682450532913,0.3057551681995392,0.33652424812316895,0.29769936203956604,0.2263096272945404,0.2763445973396301,0.26761335134506226,0.2806452214717865,0.187931627035141,-0.24295873939990997,0.21150659024715424,0.09381411969661713,-0.12336932122707367,0.19725845754146576,0.12877525389194489,-0.3175566792488098,0.1739751547574997,-0.27865228056907654,0.3628371059894562,0.327775239944458,-0.1596464365720749,0.29648128151893616,0.2236505150794983,0.029746923595666885,0.24243643879890442,0.24705669283866882,-0.12558136880397797,0.43824830651283264,0.32567375898361206,-0.006957223638892174,-0.25589433312416077,0.049167923629283905,-0.14277447760105133,0.23267139494419098,0.021329490467905998,-0.43643778562545776,-0.3851679563522339,0.12240801751613617,0.24659879505634308,-0.3055652379989624,-0.02765698730945587,-0.004133677110075951,-0.5999027490615845,0.08983808755874634,0.1540580540895462,-0.25040897727012634,-0.20362648367881775,-0.005087296944111586,-0.26477211713790894,-0.1513722836971283,-0.032263461500406265,-0.3331228196620941,-0.10251928865909576,-0.007986324839293957,0.33533304929733276,0.11512090265750885,0.03714999929070473,0.39025452733039856,0.18590427935123444,-0.04149714484810829,0.584905207157135,-0.04001399129629135,-0.13377037644386292,0.24240732192993164,0.294973224401474,0.30629995465278625,0.1291576623916626,0.3395293951034546,0.33757999539375305,-0.011563936248421669,0.17723649740219116,0.14710693061351776,-0.27395185828208923,0.16589699685573578,0.3396564722061157,-0.4055759012699127,-0.007622311823070049,0.02617518976330757,-0.2463366836309433,0.1348722279071808,0.09516280889511108,0.24651679396629333,0.1581958532333374,-0.07609260827302933,0.2950649559497833,0.1309821456670761,0.05633295699954033,0.35754820704460144,0.08346852660179138,-0.02474721521139145,0.3469841182231903,-0.10997485369443893,-0.130896657705307,0.3028590679168701,0.10879972577095032,-0.013071306981146336,0.37097325921058655,0.18509076535701752,-0.04575681313872337,-0.1662338376045227,-0.1260422021150589,-0.577782392501831,-0.13349753618240356,-0.06282410025596619,-0.24873307347297668,0.017388157546520233,-0.16454796493053436,-0.3974575996398926,0.5138057470321655,0.08282720297574997,-0.02314973622560501,0.47047293186187744,0.27398058772087097,0.14985816180706024,0.331693172454834,0.07396693527698517,0.026285169646143913]},"features.5.block.1.weight":{"shape":[48],"data":[1.2603694200515747,1.0400738716125488,0.8776535391807556,0.9549113512039185,1.2647297382354736,0.8187795877456665,1.056114673614502,0.8451077938079834,0.8045376539230347,0.925174355506897,1.2543702125549316,0.8826115727424622,0.9346833825111389,1.1658096313476562,0.8199135661125183,0.9619774222373962,0.9764363765716553,0.7868787050247192,0.8551872372627258,1.0138015747070312,0.840796709060669,0.9810100197792053,1.0593156814575195,0.9982345104217529,0.9518883228302002,0.8344488143920898,0.8126013875007629,1.1436666250228882,1.1438746452331543,0.8298143148422241,1.2175076007843018,0.9149795174598694,0.9164460301399231,1.3587599992752075,0.899870753288269,0.8110713362693787,0.8418657779693604,0.9080492258071899,0.7260195016860962,0.7974504232406616,1.056528091430664,0.9150377511978149,0.8451074361801147,0.9463673830032349,0.8923407793045044,0.741369366645813,0.9987475275993347,0.9213515520095825]},"features.5.block.1.bias":{"shape":[48],"data":[-0.5407573580741882,0.07630890607833862,0.2710360288619995,-0.18641397356987,0.4869663417339325,0.3667011857032776,-0.4868433177471161,0.28918007016181946,-0.5909731388092041,-0.2078329175710678,0.013966936618089676,-0.11085671931505203,0.45122772455215454,0.37147581577301025,-0.13892386853694916,0.234310582280159,-0.19225245714187622,-0.38010475039482117,-0.0182428490370512,-0.04681356996297836,-0.39850324392318726,-0.0540202371776104,-0.5357677340507507,0.6779440641403198,-0.7199341058731079,0.34163525700569153,0.5686383843421936,0.38946419954299927,-0.5171966552734375,0.08475172519683838,0.2946326732635498,-0.5926027894020081,-0.1940106302499771,0.40048521757125854,-0.009081256575882435,-0.6992809176445007,-0.3892975449562073,-0.39114493131637573,-0.2868344485759735,0.5949869751930237,-0.2343549281358719,0.3677404522895813,0.029618719592690468,-0.1527601033449173,-0.5436882972717285,0.09312035888433456,0.8039543628692627,-0.6294165253639221]},"features.5.block.1.running_mean":{"shape":[48],"data":[-0.11607061326503754,-0.6579657793045044,0.0364215150475502,0.040146663784980774,-0.6374698281288147,0.14724871516227722,-0.03788839653134346,-0.3701765239238739,0.41703885793685913,0.05400784686207771,-0.7360740900039673,0.6509590148925781,0.1045193076133728,-0.30666956305503845,0.014274504967033863,-0.22510842978954315,0.09733518958091736,0.09721804410219193,0.18783211708068848,0.07865633815526962,0.2708481252193451,0.15253646671772003,0.16389784216880798,-0.3226773142814636,0.1745971292257309,0.052100565284490585,-0.18567197024822235,-0.8974477052688599,-0.12451376765966415,0.0706607848405838,-0.5304324626922607,0.19904257357120514,0.10317906737327576,-0.36549684405326843,0.03279924392700195,0.15323054790496826,-0.019678175449371338,0.45070740580558777,0.09119202196598053,-0.2985411584377289,-0.6663296818733215,0.31202027201652527,0.6860554218292236,-0.10155358910560608,0.284699946641922,0.10732898861169815,-0.4803031086921692,0.587019681930542]},"features.5.block.1.running_var":{"shape":[48],"data":[0.23336133360862732,0.7783973217010498,0.040114786475896835,0.08638230711221695,0.8914774060249329,0.05755923315882683,0.1485859453678131,0.2977938950061798,0.15702937543392181,0.04321577027440071,0.32724374532699585,0.08201705664396286,0.3978930711746216,0.2331591695547104,0.01159150805324316,0.38202762603759766,0.04252587631344795,0.03976692259311676,0.205438032746315,0.1785079389810562,0.08634714037179947,0.15526843070983887,0.36063671112060547,0.2286800593137741,0.08220899850130081,0.1650175154209137,0.07644668966531754,0.8220546245574951,0.1680213063955307,0.027698639780282974,0.372164785861969,0.21066461503505707,0.11036581546068192,0.5160393118858337,0.02012532390654087,0.06714406609535217,0.09804714471101761,0.22178660333156586,0.12174030393362045,0.4080130159854889,0.11457038670778275,0.38145554065704346,0.45911112427711487,0.12146421521902084,0.08461149781942368,0.058716367930173874,0.13464605808258057,0.18470893800258636]},"features.5.block.3.weight":{"shape":[64,48,1,1],"data":[-0.07349073141813278,-0.14657248556613922,0.09030616283416748,-0.005045275203883648,-0.2000848352909088,-0.27503547072410583,0.23441262543201447,-0.24796681106090546,-0.1924232542514801,0.08135928213596344,0.17024798691272736,-0.14086779952049255,-0.09737105667591095,-0.14478620886802673,0.1282031089067459,-0.1591004580259323,-0.15160803496837616,-0.18011391162872314,-0.1713549941778183,0.08137534558773041,-0.27026599645614624,-0.05404584854841232,-0.08368980139493942,-0.10759341716766357,-0.20691370964050293,0.2061506062746048,0.22666795551776886,-0.10748317837715149,0.4822217524051666,-0.010705586522817612,-0.06345463544130325,-0.170253723859787,-0.05799618363380432,-0.22707192599773407,0.1363387256860733,0.015946034342050552,-0.19161230325698853,-0.08399985730648041,-0.11435017734766006,0.4288773834705353,-0.3620014190673828,-0.09627155214548111,0.0558355338871479,0.20831340551376343,-0.06672485917806625,0.06187757849693298,0.10319799184799194,-0.0815964788198471,-0.447380930185318,-0.4109148681163788,-0.011298293247818947,-0.294220507144928,-0.29305779933929443,-0.11134126037359238,0.09430404752492905,0.04474790394306183,-0.2296566516160965,-0.03648198023438454,-0.20917083323001862,0.22573192417621613,0.3700355887413025,0.13029688596725464,-0.06022914871573448,0.1499279886484146,-0.13357454538345337,0.11406311392784119,-0.14776559174060822,-0.20353350043296814,-0.12023770064115524,-0.08398271352052689,0.05288197100162506,-0.10570067912340164,0.0905824527144432,0.20514324307441711,-0.15420709550380707,-0.026697281748056412,-0.2845003306865692,0.13977396488189697,0.18080322444438934,-0.052917756140232086,0.11677270382642746,-0.15391165018081665,-0.1549723893404007,-0.3872718811035156,0.04582597315311432,0.023789724335074425,-0.010850893333554268,0.10080976039171219,0.048547498881816864,0.10047000646591187,0.0736381784081459,-0.06310751289129257,-0.111043281853199,-0.06578674912452698,0.1236816793680191,0.037891581654548645,-0.21167975664138794,-0.06360480189323425,-0.06689058244228363,-0.25669556856155396,-0.27284252643585205,-0.1789901703596115,0.1419861614704132,0.05289877578616142,-0.1258963644504547,-0.04378113895654678,