// @ts-nocheck
(function bootstrapCcxpLiteDecaptchaModel(globalScope, factory) {
  const model = factory();
  const namespace = globalScope.CCXP_LITE || (globalScope.CCXP_LITE = {});
  namespace.decaptchaModel = model;

  if (typeof module === "object" && module.exports) {
    module.exports = model;
  }
})(typeof globalThis !== "undefined" ? globalThis : this, function createCcxpLiteDecaptchaModel() {
  return {"digits":6,"eps":1e-05,"cropRight":13,"tensors":{"features.0.weight":{"shape":[24,3,3,3],"data":[-0.04246246814727783,-0.13650363683700562,0.2077362984418869,-0.2529051899909973,-0.3222375214099884,-0.13467475771903992,0.1419025957584381,0.04636503756046295,0.1186244860291481,-0.04022277891635895,-0.01978193037211895,0.03588801994919777,-0.22702418267726898,-0.35030680894851685,-0.14713414013385773,0.06650324910879135,0.10397975891828537,0.11490241438150406,-0.12905363738536835,-0.012540299445390701,0.14355283975601196,-0.23499538004398346,-0.38494718074798584,-0.13651631772518158,0.08775779604911804,0.1831929087638855,0.033901363611221313,0.019982362166047096,-0.17266331613063812,-0.03766949847340584,-0.27183201909065247,0.13061203062534332,0.19803327322006226,0.05232233926653862,0.20682170987129211,-0.13225798308849335,-0.07682173699140549,-0.05663590878248215,-0.041568730026483536,-0.3337125778198242,0.12346094846725464,0.04491006210446358,0.17199324071407318,0.13255006074905396,-0.013993976637721062,0.018804317340254784,-0.17555081844329834,0.0691203624010086,-0.3414109945297241,0.1338445395231247,0.07440141588449478,0.07392635196447372,0.23294390738010406,-0.020214365795254707,-0.013139462098479271,-0.19026212394237518,0.16052083671092987,-0.01868099346756935,-0.29406851530075073,-0.21794161200523376,0.1329035609960556,0.05855719745159149,-0.1232239380478859,-0.09328713268041611,-0.17581519484519958,0.06307129561901093,-0.01403441559523344,-0.22534386813640594,-0.28374627232551575,0.058729175478219986,0.10467839241027832,-0.11786113679409027,-0.11487773805856705,-0.12709492444992065,-0.03857266157865524,0.03995712101459503,-0.2641621530056,-0.223171666264534,0.06524389237165451,0.17032648622989655,-0.16906380653381348,0.03357755020260811,-0.11067084968090057,0.03408295288681984,0.051570601761341095,-0.21580205857753754,-0.21632206439971924,0.25045046210289,0.04715774953365326,-0.06290680915117264,0.08542352169752121,-0.032989826053380966,-0.03702705726027489,-0.10194184631109238,-0.0947195291519165,-0.18638603389263153,0.3346366882324219,-0.07944497466087341,-0.03376125171780586,-0.09115277975797653,-0.029244041070342064,0.07886753231287003,0.05146271735429764,-0.19980376958847046,-0.23263151943683624,0.35424187779426575,0.002537954831495881,-0.12084934115409851,0.05391060560941696,0.12024695426225662,-0.025259461253881454,0.05455176532268524,-0.21873445808887482,-0.17054317891597748,-0.23029130697250366,-0.2612636983394623,-0.14052195847034454,0.1496092677116394,-0.04755394905805588,0.008926727809011936,0.005422412883490324,-0.2166805863380432,-0.26346921920776367,-0.15780088305473328,-0.34310463070869446,-0.15306131541728973,-0.0011687346268445253,0.0660630539059639,-0.04694821685552597,-0.02883356623351574,-0.1940576583147049,-0.23990187048912048,-0.12136013805866241,-0.29075613617897034,-0.1750020980834961,-0.05449919402599335,-0.17866629362106323,-0.08969054371118546,-0.13430668413639069,-0.3245914876461029,-0.13135623931884766,0.004506674129515886,-0.27410098910331726,-0.15291482210159302,-0.14367462694644928,-0.1294112652540207,-0.002707884181290865,-0.039713647216558456,-0.3370257616043091,-0.19684526324272156,-0.1343211978673935,-0.20910273492336273,-0.0818132609128952,0.03447548300027847,-0.23309500515460968,-0.04301106184720993,-0.08772201091051102,-0.26063722372055054,-0.1360994577407837,-0.07535862922668457,-0.23810115456581116,-0.17389963567256927,-0.15917201340198517,-0.05274595320224762,0.24336878955364227,-0.25635218620300293,0.03759860247373581,0.20544041693210602,-0.06872214376926422,-0.055259499698877335,0.08975131064653397,-0.1965310126543045,-0.05201327055692673,0.23042237758636475,-0.15351635217666626,-0.050492316484451294,0.2237088829278946,-0.020930834114551544,-0.12379865348339081,0.1470160037279129,-0.16472187638282776,-0.09444368630647659,0.24028219282627106,-0.22168970108032227,0.005973498802632093,0.19630008935928345,-0.04181928560137749,-0.0665060356259346,0.04812915623188019,-0.13259005546569824,0.21697410941123962,0.06977558135986328,-0.12800094485282898,0.12882792949676514,0.16716130077838898,-0.020263075828552246,0.03924930468201637,0.22193840146064758,-0.2852136790752411,0.22809022665023804,0.09470471739768982,0.02573455311357975,0.18797597289085388,0.08739054948091507,-0.11241959035396576,0.04014740139245987,0.22985614836215973,-0.1788862943649292,0.16337773203849792,0.01471966877579689,-0.08383594453334808,0.12952755391597748,0.17019881308078766,-0.05741192027926445,0.041863348335027695,0.17159844934940338,-0.09489858150482178,-0.17714783549308777,-0.05520963296294212,-0.03333648666739464,-0.06346996873617172,-0.18194733560085297,0.20975302159786224,0.254662424325943,0.08767590671777725,-0.08941899985074997,-0.15487496554851532,-0.16119036078453064,-0.03943938761949539,-0.10586195439100266,-0.11104974150657654,0.24842363595962524,0.25688377022743225,0.13805919885635376,-0.07518598437309265,-0.20044711232185364,-0.07397077232599258,-0.019426608458161354,-0.05309375002980232,-0.2083677053451538,0.15192414820194244,0.2725631594657898,0.12320655584335327,0.2639475464820862,-0.18775293231010437,-0.008555121719837189,0.11127196997404099,-0.1428329050540924,-0.2320014089345932,-0.04623137041926384,-0.056492190808057785,-0.228481262922287,0.18477511405944824,-0.14757873117923737,-0.021031517535448074,0.20563551783561707,-0.252996563911438,-0.19248399138450623,0.000570334610529244,0.007037437986582518,-0.25572624802589417,0.0004260907298885286,-0.08436131477355957,-0.0443306639790535,0.1209307536482811,-0.1365458369255066,-0.26317623257637024,0.11546992510557175,-0.10046570748090744,-0.13230329751968384,0.03508555889129639,-0.08199690282344818,0.1000690758228302,-0.1533956527709961,-0.15536166727542877,0.14209306240081787,-0.13088096678256989,-0.25233596563339233,0.12202052772045135,0.05411868914961815,-0.08794330060482025,0.04519527032971382,0.027509381994605064,-0.32885921001434326,0.07667004317045212,-0.25216302275657654,-0.1885712444782257,0.12089406698942184,0.19249166548252106,-0.1427665799856186,0.11861704289913177,-0.11391516029834747,-0.2856636047363281,0.07747587561607361,-0.20359331369400024,-0.11765269190073013,0.09901780635118484,0.024506188929080963,0.26281994581222534,0.15648147463798523,-0.10097381472587585,-0.02324894443154335,0.27724015712738037,-0.10427162796258926,-0.24859988689422607,0.28132230043411255,-0.08336780965328217,0.3222030699253082,0.08923070877790451,-0.18118302524089813,-0.027183400467038155,0.35165855288505554,-0.0037701097317039967,-0.10442427545785904,-0.014713963493704796,0.005772364791482687,0.309488445520401,0.14531826972961426,-0.16769643127918243,0.03417869284749031,0.09381715953350067,-0.21091589331626892,-0.049141138792037964,0.20366929471492767,-0.0003411544894333929,0.15802067518234253,0.08373134583234787,0.07654451578855515,0.12937743961811066,0.004032109398394823,-0.30715134739875793,-0.25184738636016846,-0.004589952994138002,0.10372287780046463,0.20993512868881226,0.19733339548110962,-0.1409318447113037,0.03779857978224754,0.08722002804279327,-0.15145987272262573,-0.22058837115764618,-0.0686836838722229,0.058264631778001785,0.1925218105316162,0.21514283120632172,0.003716501872986555,-0.02580813132226467,0.06606440991163254,-0.18751320242881775,-0.2428259551525116,-0.04827675595879555,-0.03208916634321213,0.24453629553318024,0.23278173804283142,0.06850443035364151,0.34438857436180115,-0.11851844936609268,0.027370862662792206,-0.0227653831243515,-0.16542871296405792,-0.04457634687423706,0.29659730195999146,0.2093353569507599,0.0862741768360138,0.15570375323295593,-0.05566198006272316,0.005266597960144281,0.09183041751384735,-0.21464872360229492,-0.031521447002887726,0.33272403478622437,0.2519070506095886,0.03901481255888939,0.1831507682800293,0.04278143495321274,-0.025214312598109245,0.037808217108249664,-0.28179362416267395,0.09137500822544098,-0.06452197581529617,-0.04786788299679756,0.08911815285682678,-0.37628987431526184,0.21653512120246887,-0.15248963236808777,0.09485188871622086,0.09544229507446289,0.13486769795417786,-0.1899939775466919,0.02617555484175682,0.04430251941084862,-0.3075323700904846,0.24631533026695251,-0.1556081473827362,0.18227988481521606,-0.00738138984888792,0.1321214884519577,-0.09594286978244781,-0.019313782453536987,-0.047185033559799194,-0.28099146485328674,0.20707422494888306,-0.08654072135686874,0.11560884118080139,0.005002351477742195,0.15876631438732147,-0.06973285973072052,-0.02738347463309765,-0.15074114501476288,0.07603184133768082,0.045373283326625824,-0.2738995850086212,-0.46830230951309204,-0.04163970798254013,-0.042130548506975174,0.10719330608844757,-0.07416161894798279,-0.09634383767843246,-0.0514819510281086,0.22614049911499023,-0.26405444741249084,-0.3790353834629059,-0.1273937225341797,0.07063566893339157,-0.08902788907289505,0.016558334231376648,0.0350138321518898,0.06400860100984573,0.11651118099689484,-0.3987436890602112,-0.31699755787849426,-0.13021375238895416,-0.018235832452774048,0.08025168627500534,-0.02908976748585701,0.2058175951242447,0.45140695571899414,0.3295879662036896,0.03298597037792206,0.09202360361814499,0.01698731631040573,-0.0895857885479927,0.09300266206264496,-0.0348522923886776,0.3039146363735199,0.43094712495803833,0.19116362929344177,0.04666658118367195,0.01269008219242096,0.028264187276363373,0.07542135566473007,0.05797998607158661,-0.041633255779743195,0.21234728395938873,0.3338484764099121,0.1375589668750763,-0.03153645247220993,0.17027276754379272,-0.006595732644200325,0.054746098816394806,0.002564677968621254,-0.0527225099503994,-0.16299642622470856,-0.2700054943561554,-0.17911671102046967,0.00019228868768550456,-0.282075971364975,-0.3499126136302948,0.03033563494682312,0.0736042857170105,0.0008125168969854712,-0.08035828918218613,-0.4123264253139496,-0.2289542257785797,-0.0563257597386837,-0.23384958505630493,-0.35734087228775024,-0.03194795548915863,-0.00886459182947874,0.036260321736335754,-0.14725328981876373,-0.30803143978118896,-0.15625272691249847,0.06764605641365051,-0.3086480498313904,-0.2805193066596985,0.027225982397794724,-0.31076985597610474,-0.10292132943868637,0.014485012739896774,0.024632222950458527,0.31601670384407043,0.06393549591302872,0.07371369004249573,0.09955553710460663,0.11163623631000519,-0.12624861299991608,-0.17547863721847534,-0.14075693488121033,0.08130931854248047,0.4044972062110901,0.12120112776756287,0.10501188039779663,-0.1474737524986267,-0.06567328423261642,-0.07104848325252533,-0.10705012828111649,-0.13252083957195282,0.09559300541877747,0.24900884926319122,0.1992848962545395,0.022911494597792625,0.030733685940504074,-0.18313659727573395,-0.040530625730752945,0.198783740401268,-0.10389215499162674,-0.07425429672002792,0.2882060706615448,0.04305398836731911,0.13131305575370789,0.22572319209575653,-0.09432466328144073,-0.08967301994562149,0.07537167519330978,-0.18367935717105865,0.04613484814763069,0.2816232442855835,0.049041748046875,0.09229017049074173,0.19932040572166443,-0.06873676180839539,-0.0770738273859024,0.19111843407154083,-0.18772929906845093,-0.050399575382471085,0.21149827539920807,-0.11562332510948181,0.28909584879875183,0.20743641257286072,-0.051520999521017075,-0.020579436793923378,0.2449100762605667,-0.15112441778182983,-0.3444456160068512,0.08720339834690094,0.025078536942601204,-0.21680298447608948,-0.04910871013998985,-0.13407675921916962,-0.03183950483798981,0.06322988122701645,-0.17230656743049622,-0.1534757763147354,0.03297543153166771,0.15684232115745544,-0.36819037795066833,0.09283977001905441,-0.08667057752609253,-0.050036393105983734,0.15717995166778564,-0.11020538955926895,-0.26725250482559204,0.11894317716360092,0.08829465508460999,-0.3060827851295471,-0.01427481696009636,-0.06417021155357361,-0.09007140249013901,0.05288228392601013,0.14656448364257812,-0.1098572164773941,-0.216422900557518,-5.997892003506422e-05,0.03171027824282646,-0.3960554599761963,0.005837381351739168,-0.06015206128358841,-0.012714003212749958,-0.052916329354047775,-0.10356548428535461,-0.3140610158443451,0.10612618178129196,0.014017841778695583,-0.33311060070991516,-0.13194863498210907,-0.08980100601911545,0.03928164392709732,0.017506681382656097,0.0220077745616436,-0.23423530161380768,0.11414530128240585,-0.17431612312793732,-0.40051034092903137,-0.2903481423854828,-0.025038253515958786,0.2795334458351135,-0.1733681857585907,0.004322333727031946,-0.029158249497413635,-0.05936498939990997,-0.09341089427471161,0.08286672830581665,-0.3222803473472595,0.03914673998951912,0.17434868216514587,-0.23504982888698578,-0.04392065852880478,0.006468369625508785,-0.11648135632276535,0.055394336581230164,0.017675958573818207,-0.39001888036727905,0.07185807824134827,0.2361004501581192,-0.25752002000808716,-0.1830352395772934,0.05408117547631264,-0.07613641023635864,0.11827100813388824,0.007333396468311548,-0.16261892020702362,0.08454928547143936,0.22541601955890656,-0.09751443564891815,-0.15992562472820282,0.04906247928738594,-0.1748095005750656,-0.20110918581485748,-0.11190209537744522,-0.11533568799495697,-0.004338572733104229,0.24463321268558502,-0.22143982350826263,-0.09953995794057846,0.2502630650997162,0.004398697055876255,-0.27985525131225586,-0.220908522605896,-0.20460182428359985,0.09107443690299988,0.11302808672189713,-0.19758601486682892,-0.06635432690382004,0.17081968486309052,-0.02538874000310898,-0.32260414958000183,-0.13741344213485718]},"features.1.weight":{"shape":[24],"data":[0.689716637134552,0.975418210029602,0.4024367332458496,0.7642661929130554,0.5201904773712158,0.40957728028297424,0.9942799806594849,0.6417090892791748,0.7101360559463501,0.6665549874305725,0.6074654459953308,0.6936008930206299,0.4495922029018402,0.2831610441207886,0.7120352387428284,1.0602713823318481,0.20399092137813568,1.2285239696502686,0.4558093845844269,0.8364654183387756,1.014404535293579,0.9859233498573303,0.9586216807365417,0.8950756788253784]},"features.1.bias":{"shape":[24],"data":[0.32391852140426636,0.057034820318222046,0.5040332674980164,-0.2003495991230011,0.413520872592926,0.4112568497657776,0.08855637907981873,0.32495731115341187,0.2716107666492462,0.35059717297554016,0.3932991325855255,0.2482471466064453,0.45037642121315,0.5962956547737122,-0.1714201420545578,-0.004337196704000235,0.594386637210846,0.021609926596283913,0.35718026757240295,0.16312512755393982,-0.058677151799201965,0.11567061394453049,0.11868509650230408,0.04109809920191765]},"features.1.running_mean":{"shape":[24],"data":[-1.107261061668396,0.032329607754945755,-1.5991532802581787,-0.44541600346565247,-2.5412416458129883,-3.318844795227051,-0.06898021697998047,1.2360315322875977,-0.09834232181310654,-1.3422447443008423,-1.1045081615447998,0.995887279510498,-0.0700271874666214,1.3755749464035034,-0.13443954288959503,-1.7975435256958008,2.675981283187866,-3.2040858268737793,0.6264315247535706,1.153276801109314,-1.2912533283233643,-1.9493428468704224,-0.9639183878898621,-1.3526681661605835]},"features.1.running_var":{"shape":[24],"data":[0.07958677411079407,0.04325169324874878,0.11047329008579254,0.062480855733156204,0.2397768348455429,0.3650444746017456,0.09718809276819229,0.10943330079317093,0.10923005640506744,0.1246735230088234,0.08782506734132767,0.16473577916622162,0.12520930171012878,0.19458338618278503,0.01892031542956829,0.15122461318969727,0.25415027141571045,0.3533835709095001,0.0677967518568039,0.12035742402076721,0.08967160433530807,0.14857588708400726,0.1479797512292862,0.13015377521514893]},"features.3.block.0.weight":{"shape":[24,1,3,3],"data":[0.17846891283988953,0.3083331882953644,0.17203661799430847,-0.22017811238765717,-0.39541032910346985,-0.10848488658666611,0.04021086171269417,0.07317149639129639,0.04575125500559807,0.10296925157308578,-0.05858146771788597,0.1875251680612564,-0.3135710060596466,0.007703088223934174,0.23025794327259064,0.2781412899494171,0.24660366773605347,0.13937748968601227,0.11728470772504807,-0.08386758714914322,-0.003626671154052019,0.18102730810642242,0.010281568393111229,-0.14178821444511414,-0.4154100716114044,0.38097089529037476,-0.13642355799674988,0.3003716766834259,0.08522355556488037,-0.016589608043432236,-0.15043428540229797,-0.23521333932876587,-0.23716625571250916,-0.31376850605010986,-0.4052310883998871,-0.16650931537151337,-0.1994706243276596,-0.30151885747909546,-0.0006424229359254241,0.18204723298549652,0.2960268557071686,0.2540527880191803,-0.007151859812438488,-0.01544555090367794,-0.2588651776313782,-0.13072887063026428,0.03699174150824547,0.05086711421608925,0.23129522800445557,-0.26371729373931885,-0.4067911207675934,-0.23073217272758484,0.27402907609939575,0.48130229115486145,0.09262385964393616,0.4996033012866974,0.2506951689720154,-0.04714982584118843,0.11627224087715149,0.11421094089746475,-0.08127027750015259,-0.1526058316230774,-0.16595518589019775,-0.025973256677389145,0.1522013396024704,-0.10215146839618683,0.026868900284171104,0.32600346207618713,-0.01619523949921131,-0.05225694552063942,-0.3098585605621338,-0.34855732321739197,-0.31329914927482605,0.011195964179933071,0.0022550474386662245,0.07340788841247559,-0.1304512470960617,-0.005364619195461273,0.623013973236084,0.280645489692688,-0.3470710813999176,0.23897196352481842,0.07769545167684555,-0.2648717761039734,0.265685498714447,0.12967433035373688,-0.4133997857570648,0.06832506507635117,0.21114079654216766,-0.19261686503887177,0.10310374945402145,-0.20383575558662415,0.12444847822189331,0.1384579837322235,-0.5456139445304871,0.31113582849502563,-0.16026432812213898,-0.0075879525393247604,0.4150637984275818,0.13675181567668915,-0.17444483935832977,-0.11246367543935776,-0.020196495577692986,-0.3479939103126526,-0.358545184135437,-0.13793621957302094,-0.2968878149986267,-0.06773653626441956,0.10093954205513,0.6357859373092651,0.3301059305667877,-0.014573555439710617,-0.19182153046131134,-0.19803902506828308,0.0011768487747758627,0.06972624361515045,0.00384226581081748,0.19546078145503998,0.13740274310112,-0.13821439445018768,0.30387070775032043,-0.29859909415245056,-0.1366046965122223,0.07322126626968384,-0.3025605380535126,0.22326841950416565,0.09124582260847092,0.341017484664917,-0.0481971837580204,0.33522921800613403,-0.4168105125427246,-0.021369218826293945,0.022089779376983643,0.10067366808652878,0.01010584644973278,0.4403584599494934,0.23597276210784912,0.1644839346408844,-0.35633742809295654,-0.2521830201148987,-0.2368907481431961,-0.09588541090488434,-0.12101451307535172,0.008607578463852406,0.12431058287620544,0.23461022973060608,-0.10289622843265533,-0.45445480942726135,-0.14138785004615784,0.010945959016680717,0.22334247827529907,0.06082364544272423,0.006665174383670092,0.09897997230291367,0.21686765551567078,0.15157081186771393,-0.38036206364631653,0.07942593097686768,0.2873792350292206,-0.2892703115940094,-0.27837616205215454,0.18815195560455322,0.07403724640607834,0.384335994720459,0.37259483337402344,-0.3049926459789276,-0.12165098637342453,0.046296700835227966,-0.21287700533866882,-0.18119175732135773,0.09852103888988495,-0.1308104693889618,-0.0006152857095003128,-0.06037496030330658,0.014441112987697124,-0.5324792265892029,-0.041613027453422546,0.15557092428207397,-0.08309200406074524,-0.32691308856010437,0.1857110559940338,0.029858484864234924,0.009522628039121628,0.1443956345319748,-0.2486179769039154,-0.16405221819877625,0.012966063804924488,0.3327822983264923,-0.2350570261478424,-0.012767702341079712,-0.10285332053899765,0.126237154006958,-0.06314825266599655,-0.19875779747962952,0.28959715366363525,-0.037128597497940063,-0.3119809031486511,0.35883551836013794,0.37476223707199097,-0.038047824054956436,-0.31485679745674133,-0.16083788871765137,0.02158964052796364,0.04641476273536682,-0.3043670058250427,0.07828866690397263,0.08469902724027634,-0.07490843534469604,0.19494213163852692,0.25585708022117615,-0.06448456645011902,-0.3122667968273163,-0.21718966960906982,0.09993976354598999,0.19725514948368073,-0.01487131230533123]},"features.3.block.1.weight":{"shape":[24],"data":[1.196150779724121,0.7673777937889099,1.018428921699524,1.1890472173690796,1.1027010679244995,1.2642700672149658,0.7943874001502991,0.7189445495605469,0.9360663294792175,1.1233373880386353,0.9337627291679382,0.8513985872268677,1.1002933979034424,1.0746368169784546,0.812028706073761,1.1714216470718384,0.9973878264427185,1.23283052444458,0.78416508436203,0.7567007541656494,1.0435073375701904,1.2181097269058228,0.8704070448875427,0.9431801438331604]},"features.3.block.1.bias":{"shape":[24],"data":[0.13594567775726318,0.30937522649765015,-0.26474907994270325,0.15660150349140167,-0.1431836485862732,-0.3284585773944855,0.643764317035675,-0.13545894622802734,0.1074383556842804,-0.015884047374129295,-0.06282628327608109,-0.08605451136827469,-0.18825013935565948,-0.21766303479671478,0.08346940577030182,-0.03413205221295357,-0.2133537232875824,0.37385937571525574,0.03480979800224304,0.0459633506834507,0.21681244671344757,0.15789516270160675,0.03227051720023155,0.2550908029079437]},"features.3.block.1.running_mean":{"shape":[24],"data":[0.021945098415017128,0.1434049755334854,-0.03370059281587601,-0.17101632058620453,-0.007603697944432497,-0.0011986755998805165,0.15641488134860992,-0.12313123047351837,-0.002477952977642417,0.04251549765467644,0.04981108009815216,-0.567130446434021,0.3501647710800171,0.02250475436449051,0.056409068405628204,-0.08511485904455185,-0.04610033705830574,0.02761710435152054,0.07553045451641083,-0.3560347855091095,0.024997705593705177,0.0210734773427248,-0.056282248347997665,0.014359138906002045]},"features.3.block.1.running_var":{"shape":[24],"data":[0.13331159949302673,0.10705678910017014,0.029566112905740738,0.131510391831398,0.05756533145904541,0.03475775569677353,0.1730034351348877,0.03222786635160446,0.12074869126081467,0.264006644487381,0.23193009197711945,0.08488843590021133,0.07570431381464005,0.018838439136743546,0.09567930549383163,0.3397863507270813,0.008207861334085464,0.5811569690704346,0.12893174588680267,0.07590924948453903,0.1734078824520111,0.29214179515838623,0.10440617054700851,0.08639219403266907]},"features.3.block.3.weight":{"shape":[32,24,1,1],"data":[-0.010194763541221619,0.1542786955833435,-0.22929270565509796,0.1479550153017044,0.06746760755777359,-0.13848261535167694,0.083929143846035,0.007850364781916142,-0.10895960032939911,0.32012826204299927,0.135174959897995,0.2375515252351761,-0.025474732741713524,0.3831963539123535,0.14150115847587585,0.09155982732772827,0.06073120981454849,-0.13073913753032684,-0.14517615735530853,-0.3326777219772339,-0.06569546461105347,-0.20434029400348663,-0.1312844455242157,-0.08333205431699753,-0.081407330930233,-0.20973439514636993,-0.015071612782776356,-0.3389818072319031,0.22786597907543182,0.43780744075775146,-0.18004176020622253,0.014433843083679676,0.21770291030406952,-0.14450864493846893,0.0594019815325737,-0.03269976004958153,0.06545966118574142,0.0342598482966423,-0.2352975755929947,0.10801126807928085,0.09927882999181747,-0.09304949641227722,0.1891794204711914,-0.05497941002249718,-0.1187143623828888,0.132352814078331,-0.18011124432086945,0.11052662134170532,-0.11163979768753052,-0.07476838678121567,-0.20953157544136047,-0.2540222704410553,-0.0349847674369812,-0.03935042768716812,0.03080294467508793,0.08359286189079285,-0.10437489300966263,0.025812506675720215,0.3047625422477722,0.020226603373885155,-0.16204048693180084,0.1394754946231842,-0.22571204602718353,-0.1670415699481964,0.06342712044715881,0.22422729432582855,-0.10238893330097198,-0.17941725254058838,-0.16543282568454742,0.38351306319236755,0.05156317353248596,0.02093389816582203,0.06956662982702255,-0.023945897817611694,-0.10483577102422714,-0.21954001486301422,0.135712668299675,-0.5040606260299683,-0.02029215544462204,0.09525138139724731,0.2991454601287842,-0.07910367101430893,-0.21747510135173798,0.17449326813220978,0.05754666030406952,0.06518401205539703,-0.011100862175226212,0.051282286643981934,0.13743597269058228,0.12591779232025146,0.09992224723100662,-0.15006420016288757,-0.13330313563346863,-0.29061359167099,-0.13708816468715668,-0.24525801837444305,-0.16770415008068085,0.19331929087638855,-0.23468032479286194,-0.089276023209095,0.07046372443437576,0.12659351527690887,-0.032786283642053604,0.14851513504981995,-0.14395087957382202,0.04551520571112633,0.03976046293973923,0.24136792123317719,-0.11739193648099899,0.18929678201675415,0.21194864809513092,-0.2978111803531647,-0.32850655913352966,-0.16707077622413635,-0.13123869895935059,-0.09961763024330139,-0.1491881161928177,-0.3217233419418335,0.04588911309838295,-0.1504225879907608,0.30970802903175354,-0.3372613191604614,0.05037698522210121,0.01209351047873497,-0.06869573891162872,-0.18790416419506073,-0.3057102859020233,0.1550186276435852,0.0835854634642601,-0.013442941941320896,0.17596499621868134,-0.1272258758544922,0.18398207426071167,-0.2630690038204193,-0.1692572683095932,0.14777584373950958,0.21795642375946045,0.15543796122074127,0.2856670916080475,0.029824895784258842,-0.03332633525133133,0.06278543174266815,0.18168768286705017,0.06233058124780655,-0.207302987575531,-0.11439578980207443,0.11186596751213074,-0.201017364859581,-0.2684096097946167,-0.04783609136939049,0.2419709861278534,0.008205614052712917,0.11614815145730972,0.08227068185806274,-0.17270338535308838,-0.15310382843017578,-0.407545804977417,-0.0750635489821434,0.09707623720169067,-0.2583997845649719,-0.31682291626930237,0.2410971075296402,-0.004128172993659973,0.08929280936717987,0.131001278758049,-0.2221907377243042,-0.1411052793264389,-0.09610766917467117,0.37816208600997925,-0.07118932902812958,0.11058506369590759,-0.061270423233509064,-0.33520597219467163,-0.1400124579668045,-0.15597955882549286,0.029789119958877563,-0.16129523515701294,-0.06509212404489517,-0.050371021032333374,-0.10442181676626205,0.21662481129169464,-0.16621287167072296,0.017930004745721817,0.19000601768493652,0.036625660955905914,0.07229875028133392,-0.07576967775821686,-0.0064032054506242275,-0.32219192385673523,-0.037833284586668015,0.06082869693636894,0.07008678466081619,0.16814863681793213,-0.017765918746590614,-0.11287777870893478,0.009348009712994099,0.31665363907814026,-0.22819551825523376,-0.40515732765197754,0.20136390626430511,-0.11165863275527954,0.05231645330786705,0.03523571789264679,0.057334110140800476,0.2993178367614746,0.06726577132940292,0.059528473764657974,0.0019638771191239357,-0.04394969716668129,-0.4579750597476959,0.022849859669804573,-0.05285040661692619,-0.011902283877134323,-0.2626391053199768,0.05846095830202103,-0.1017909124493599,-0.10559946298599243,0.0636403039097786,0.024703169241547585,-0.2314414083957672,-0.07894673943519592,-0.23350057005882263,0.03698863834142685,0.06309610605239868,-0.13470369577407837,0.26624682545661926,0.18651504814624786,0.09324706345796585,-0.06774751842021942,0.17492640018463135,0.07277565449476242,-0.2570111155509949,-0.1473734974861145,-0.15707038342952728,-0.050740551203489304,-0.0451057106256485,0.1479908525943756,-0.26400139927864075,-0.07672376185655594,-0.4039625823497772,-0.46821779012680054,0.10521991550922394,-0.12921689450740814,0.18950048089027405,-0.09466191381216049,0.11788622289896011,0.06992636620998383,0.03777344897389412,-0.11392169445753098,0.12242215871810913,0.17645497620105743,-0.0002325148379895836,-0.08924812078475952,0.1250142604112625,0.015117928385734558,-0.5080028772354126,-0.26465922594070435,-0.17985592782497406,-0.014897365123033524,0.07979235053062439,0.09983755648136139,-0.31624001264572144,-0.03726587072014809,-0.12111333012580872,-0.18153464794158936,0.0695105642080307,-0.21144914627075195,0.07409550994634628,-0.43442365527153015,-0.41652002930641174,-0.021220067515969276,0.016178563237190247,0.11308101564645767,-0.2385854423046112,-0.14616496860980988,0.012406580150127411,0.030468875542283058,-0.3621659576892853,0.09546203911304474,-0.1311977356672287,-0.0865020900964737,-0.3184810280799866,0.12609612941741943,0.24559703469276428,-0.03558008745312691,-0.04307116940617561,0.142818883061409,-0.18665529787540436,-0.023426014930009842,-0.021341471001505852,-0.11135942488908768,0.09763754904270172,-0.23865562677383423,-0.364256352186203,0.19992618262767792,0.029324838891625404,-0.016884803771972656,0.38591665029525757,0.1527586579322815,-0.058682650327682495,-0.26293283700942993,0.15366138517856598,0.0587780624628067,0.12013651430606842,-0.15494191646575928,0.19747792184352875,-0.08350839465856552,0.011653048917651176,0.07928894460201263,-0.01732066087424755,0.14698530733585358,-0.14142630994319916,-0.27321362495422363,-0.0649820938706398,0.14608952403068542,-0.21045354008674622,-0.18595609068870544,-0.001694041769951582,-0.3746703565120697,-0.09386998414993286,-0.10308659076690674,-0.04983791336417198,0.21632304787635803,-0.19435761868953705,-0.12125140428543091,0.2568643093109131,-0.1625935435295105,-0.20272168517112732,-0.19208382070064545,0.23168249428272247,-0.033857762813568115,0.14999380707740784,0.13731686770915985,0.001703876070678234,-0.06684508919715881,-0.011763148009777069,-0.27011966705322266,-0.11160458624362946,0.022413261234760284,0.12560388445854187,0.10934214293956757,-0.19606925547122955,0.16843128204345703,-0.0855185016989708,0.09041976928710938,0.27290523052215576,-0.05269135162234306,-0.2317506968975067,0.05608884245157242,-0.14315061271190643,-0.09101265668869019,-0.22255243360996246,0.052674390375614166,-0.24546153843402863,-0.022266406565904617,0.09700333327054977,0.27631324529647827,-0.10725196450948715,0.13266350328922272,-0.02117391861975193,0.4606599807739258,0.0007816667784936726,-0.07059800624847412,0.06076887995004654,-0.13156937062740326,0.008499096147716045,-0.0647256150841713,0.06125936284661293,-0.09855908900499344,0.011341838166117668,-0.08262364566326141,0.1344136744737625,0.13471926748752594,-0.16784431040287018,-0.02233804389834404,0.302093505859375,-0.0979381576180458,0.03241772577166557,0.02882017008960247,-0.14362341165542603,-0.04532673582434654,-0.2552107274532318,-0.1468212753534317,0.17861728370189667,0.09804189205169678,0.07686290889978409,-0.2333712875843048,-0.13956396281719208,0.19764189422130585,0.30965396761894226,0.068963423371315,0.1709417998790741,0.024306535720825195,-0.07386144995689392,-0.0027742295060306787,0.2577119767665863,-0.22437824308872223,0.014067922718822956,0.23933999240398407,-0.141628235578537,-0.19680097699165344,-0.18573401868343353,-0.059954218566417694,-0.10930292308330536,-0.3782746195793152,-0.007106731180101633,-0.14080797135829926,0.20898030698299408,-0.07013548910617828,-0.05067065730690956,0.05697811767458916,-0.10961751639842987,-0.05103643238544464,-0.10899482667446136,-0.07343590259552002,0.22424933314323425,0.08790040016174316,-0.018404344096779823,0.16679729521274567,0.19010382890701294,-0.130941703915596,0.12622085213661194,-0.05540627986192703,-0.340227335691452,-0.1473456174135208,-0.2523850202560425,-0.16431748867034912,-0.223268061876297,0.050958726555109024,0.25562599301338196,-0.10089525580406189,0.13083019852638245,0.2590080499649048,-0.0031079843174666166,0.16248708963394165,0.09681086987257004,0.3951463997364044,0.2961824834346771,0.0944150984287262,0.012505446560680866,0.1880633533000946,0.008777948096394539,-0.176127627491951,0.0005620441515929997,0.09118974953889847,0.12570273876190186,0.07497968524694443,0.11573677510023117,0.21998219192028046,0.1152358427643776,0.02636868692934513,0.03938603028655052,-0.03290391340851784,0.012337969616055489,0.17360642552375793,0.23726093769073486,-0.14998309314250946,-0.30356931686401367,0.3488551676273346,0.18771839141845703,-0.10703709721565247,0.08574774116277695,-0.08696240931749344,0.034580882638692856,0.0561063326895237,0.20605453848838806,-0.20602066814899445,-0.04866897314786911,-0.05871742218732834,-0.002335062948986888,-0.13935592770576477,-0.24918021261692047,-0.2391810566186905,-0.03715844079852104,0.13768154382705688,0.002277004299685359,0.24863481521606445,-0.0814504623413086,0.08680953830480576,-0.12569360435009003,0.020950105041265488,0.1594356745481491,0.2868644893169403,-0.12954629957675934,-0.04887298122048378,0.12185100466012955,0.17866793274879456,-0.11964314430952072,-0.15555845201015472,0.023020898923277855,-0.0009441478177905083,0.17430128157138824,0.01175593864172697,0.3985351324081421,0.0351017490029335,-0.27627670764923096,-0.12001015990972519,0.1814194917678833,-0.11773951351642609,-0.06811822205781937,-0.27718162536621094,0.2149008810520172,0.17976835370063782,0.10625740885734558,0.2780780792236328,-0.04953116551041603,-0.03639489412307739,-0.42549529671669006,0.23480476438999176,0.1287718415260315,0.048548635095357895,-0.05276133492588997,0.1279696226119995,-0.08868808299303055,-0.2857677638530731,0.057171352207660675,0.22005124390125275,-0.1212683618068695,0.039774227887392044,-0.19381660223007202,0.0877617821097374,-0.5428711771965027,0.015521136112511158,-0.0116726728156209,-0.00498230429366231,-0.10293684899806976,-0.3131568729877472,0.19494125247001648,0.028499096632003784,0.1913796067237854,-0.23275525867938995,-0.0033989434596151114,0.36382734775543213,0.030111437663435936,-0.16775646805763245,-0.02134988084435463,0.21448826789855957,-0.2005326747894287,-0.10068871080875397,0.09118828922510147,0.37956151366233826,0.2574266195297241,-0.12721006572246552,-0.15850546956062317,-0.20434899628162384,-0.08024577796459198,-0.05092044547200203,0.004415626637637615,-0.08345074206590652,-0.05093982070684433,-0.05614474415779114,-0.14001019299030304,0.056467704474925995,-0.14995643496513367,0.15748372673988342,0.03311258554458618,0.015731003135442734,0.0431247316300869,-0.12204039096832275,-0.04184480011463165,0.10315386205911636,-0.412069171667099,-0.4423430860042572,-0.1299511194229126,-0.006396987941116095,-0.20575222373008728,-0.09052594006061554,0.04592704027891159,0.020951511338353157,-0.06532786041498184,0.07119666039943695,0.26767101883888245,-0.024947697296738625,-0.3425298035144806,-0.0381305105984211,0.07138356566429138,0.19974663853645325,0.28175345063209534,-0.13732174038887024,-0.08739139139652252,0.2190808355808258,0.03335202485322952,-0.07417462766170502,0.114890456199646,-0.04362248256802559,-0.08757458627223969,0.02472837083041668,0.4762553870677948,0.17127612233161926,0.14007391035556793,0.15012980997562408,0.1105363592505455,0.19538962841033936,0.08217264711856842,-0.03609770908951759,-0.3593418002128601,-0.3191621005535126,0.06440145522356033,-0.03931579366326332,0.065738245844841,0.049602583050727844,-0.10419099777936935,0.14507967233657837,0.012923588044941425,0.11660941690206528,-0.08442625403404236,0.09408938884735107,0.13583703339099884,0.29270628094673157,-0.586086630821228,0.06909506767988205,0.3154301643371582,0.004411537665873766,-0.2062247395515442,-0.10483206063508987,0.08310134708881378,0.2411050796508789,-0.20281237363815308,-0.01180476788431406,0.045569006353616714,-0.05764629691839218,0.12794801592826843,0.23500102758407593,-0.09340763092041016,-0.16689641773700714,0.16671797633171082,-0.16241499781608582,-0.493074893951416,0.22301249206066132,0.11017277836799622,-0.03898610174655914,-0.011529169045388699,-0.043074704706668854,0.1665530651807785,0.08183082193136215,-0.023606013506650925,0.0784304291009903,0.15835128724575043,0.2862943410873413,-0.4952095150947571,-0.3815895617008209,-0.19877086579799652,0.031546805053949356,-0.014097711071372032,-0.10254015773534775,0.19422729313373566,-0.06855657696723938,-0.05882063880562782,0.05565150827169418,-0.14443467557430267,0.061469532549381256,-0.0038728411309421062,0.4074481427669525,0.5820366740226746,0.029744215309619904,0.08603557199239731,0.30484962463378906,-0.09365401417016983,-0.04260138422250748,0.11730048805475235,-0.28065934777259827,0.028576748445630074,-0.1853865683078766,-0.03368757665157318,0.011567275039851665,-0.2862577438354492,0.19915388524532318,0.004573887679725885,-0.07725576311349869,-0.07441718876361847,-0.23625963926315308,0.03870280832052231,0.21100082993507385,-0.059509750455617905,-0.003280303906649351,-0.01692032255232334,0.28682613372802734,0.5077331066131592,-0.19064858555793762,0.06377808749675751,0.04214463382959366,-0.23639331758022308,-0.048344481736421585,0.1527899205684662,0.26888060569763184,-0.07130248099565506,-0.01758117973804474,0.07673291116952896,-0.05220422148704529,0.24999947845935822,0.05503492057323456,-0.19119390845298767,-0.0844530314207077,0.01860278658568859,-0.15059804916381836,0.2191331535577774,0.10369922965765,0.03341392055153847,-0.36362892389297485,0.03516538441181183,0.0022893217392265797,0.2133212387561798,0.036643948405981064,0.08637771010398865,0.10584147274494171,-0.24512456357479095,0.15062078833580017,0.06899876892566681,-0.23738035559654236,-0.3052581548690796,0.07395270466804504,-0.2269824892282486,0.05829712003469467,-0.17222149670124054,-0.2707130014896393,-0.1548759788274765,-0.18773996829986572,0.15159247815608978,-0.23282800614833832,0.06302721053361893,-0.03792095184326172,0.13773706555366516,-0.17392833530902863,0.21608395874500275,-0.14501243829727173,-0.18165519833564758,0.21743299067020416,0.04155249893665314,0.20023731887340546,0.08709218353033066,-0.047989968210458755,0.1033867746591568,-0.174050971865654,0.059270475059747696,0.020755484700202942,0.3035562336444855,0.18372023105621338,-0.07860228419303894,-0.5129613876342773,-0.05970984324812889,-0.06163670867681503,-0.2368995100259781,0.2077505737543106,-0.11326469480991364,0.1146470457315445,0.10606173425912857,0.18228071928024292,-0.27574315667152405,-0.14693139493465424,-0.25237515568733215,0.17811723053455353,-0.12029309570789337,-0.3509804904460907,0.197051003575325,0.16017504036426544,-0.092729851603508,-0.08321994543075562,0.043372638523578644,-0.15098872780799866,-0.05525152385234833,-0.26263129711151123,0.20168569684028625,-0.04320431873202324,0.03629720211029053,-0.33829668164253235,-0.07386594265699387,-0.26795196533203125,0.13454270362854004]},"features.3.block.4.weight":{"shape":[32],"data":[0.969154417514801,1.1221288442611694,1.0535484552383423,0.661038339138031,0.8886055946350098,0.7228248119354248,0.660631537437439,1.1214736700057983,1.176002860069275,0.7984200119972229,0.9082962870597839,0.8136920928955078,0.40905115008354187,1.1403096914291382,0.8290765881538391,0.8861267566680908,1.1191613674163818,0.8168181777000427,0.7107922434806824,1.0542739629745483,0.5617181062698364,0.9222655892372131,0.7132939696311951,0.42644330859184265,1.0176856517791748,0.5516177415847778,0.7837195992469788,1.0183658599853516,0.8413830399513245,0.9553607702255249,0.9259874820709229,0.7900398373603821]},"features.3.block.4.bias":{"shape":[32],"data":[-0.06004830822348595,-0.022784780710935593,0.015148529782891273,-0.33033329248428345,-0.11857203394174576,0.26136040687561035,-0.32261860370635986,0.049251798540353775,-0.13647782802581787,-0.21085606515407562,0.149245485663414,0.2018582969903946,0.48218825459480286,0.01324984710663557,-0.22783006727695465,-0.15788865089416504,-0.0529293529689312,-0.19331155717372894,0.26605135202407837,0.07440505176782608,0.38465386629104614,-0.11410674452781677,0.2838382422924042,0.45462843775749207,0.07346446067094803,-0.3715946078300476,0.23776303231716156,-0.07493782043457031,0.17328311502933502,-0.17290335893630981,0.1006980836391449,-0.2170739322900772]},"features.3.block.4.running_mean":{"shape":[32],"data":[0.06074059382081032,-0.21318809688091278,-0.10347335785627365,-0.3439791798591614,-0.46878427267074585,0.0868142768740654,-0.3263746201992035,-0.22869835793972015,-0.4947088062763214,-0.49895361065864563,-0.37240374088287354,-0.6151610612869263,0.2274092435836792,-0.48078805208206177,-0.09067347645759583,0.07510385662317276,-0.12545065581798553,-0.27800047397613525,0.8190353512763977,-0.1563287228345871,0.3039350211620331,-0.4629737436771393,-0.1086922362446785,-0.4227258563041687,0.27585285902023315,0.0695306807756424,-0.421065092086792,0.014742530882358551,0.30666929483413696,-0.3238829970359802,0.10944735258817673,-0.2767218351364136]},"features.3.block.4.running_var":{"shape":[32],"data":[0.3280581831932068,0.4210522174835205,0.5064558982849121,0.34777015447616577,0.4175664484500885,0.3132265508174896,0.37478014826774597,0.38235053420066833,0.4474043548107147,0.39632853865623474,0.6736803650856018,0.7776256203651428,0.2808866500854492,0.36839547753334045,0.45194053649902344,0.3614519536495209,0.3023120164871216,0.2258176952600479,0.5582183003425598,0.3678677976131439,0.430584579706192,0.37509483098983765,0.3495713174343109,0.39183592796325684,0.41839662194252014,0.2819025218486786,0.44500795006752014,0.5934463739395142,0.47110408544540405,0.4418448805809021,0.34924522042274475,0.44715940952301025]},"features.4.block.0.weight":{"shape":[32,1,3,3],"data":[-0.4992499351501465,-0.29910188913345337,-0.1496099978685379,-0.29342272877693176,-0.3669465184211731,-0.22622130811214447,-0.012092492543160915,-0.14635449647903442,-0.14551855623722076,0.18296261131763458,0.2519066035747528,0.158103346824646,0.29699474573135376,0.2700214087963104,0.07914525270462036,0.1342349648475647,0.08746075630187988,-0.0027560400776565075,-0.21201224625110626,0.057822730392217636,0.3827210068702698,-0.012762414291501045,-0.24644336104393005,0.0757526308298111,0.14070038497447968,0.04719086363911629,-0.4175609052181244,-0.03515215963125229,0.09373050183057785,0.12950563430786133,0.08436687290668488,0.3415263593196869,0.3747323155403137,0.09066826105117798,0.31584978103637695,0.33125776052474976,0.09703268110752106,0.19115996360778809,0.18244637548923492,0.155135840177536,0.3462229073047638,0.3453262448310852,0.12045267224311829,0.2499975860118866,0.22758661210536957,0.3428591191768646,0.22946970164775848,-0.10894270241260529,0.3117007911205292,0.04516603425145149,-0.4425756335258484,0.0118484515696764,-0.1983858048915863,-0.18784213066101074,0.13882116973400116,0.19279135763645172,0.1287107914686203,0.3010604977607727,0.352568119764328,0.14835049211978912,0.2116851955652237,0.2291860729455948,0.06830395758152008,-0.12424058467149734,-0.18391574919223785,-0.34819549322128296,0.41886863112449646,0.20687736570835114,0.0005149975186213851,0.41135650873184204,0.15194842219352722,0.040197908878326416,0.22637420892715454,-0.06684824079275131,0.06385806947946548,0.20163677632808685,0.21410484611988068,0.3255840241909027,0.020248983055353165,0.3346831798553467,0.4382665455341339,0.03735880181193352,0.057771917432546616,0.01928648352622986,0.07998280972242355,0.3170062303543091,0.25488802790641785,0.06985361874103546,0.26288726925849915,0.23602965474128723,-0.28555828332901,-0.4188220500946045,-0.13490746915340424,-0.30736514925956726,-0.3200817108154297,-0.07275885343551636,-0.32258516550064087,-0.32320186495780945,-0.24664458632469177,-0.06842844188213348,-0.21633248031139374,-0.015433329157531261,-0.22423656284809113,-0.3739907443523407,-0.24535968899726868,-0.18722021579742432,-0.39041706919670105,-0.3261067867279053,0.043194688856601715,0.2927530109882355,0.4085269272327423,0.15848080813884735,0.2202170193195343,0.24855485558509827,-0.15045614540576935,-0.23403967916965485,-0.1019047349691391,0.27889272570610046,0.2686381936073303,0.11299169063568115,0.19730550050735474,0.15268760919570923,-0.07463210076093674,-0.021395767107605934,-0.11936120688915253,-0.2585614323616028,0.2971503436565399,0.2980826795101166,0.1883348524570465,0.21434783935546875,0.2524968087673187,0.1599903553724289,0.02432742342352867,0.09675223380327225,-0.0022483626380562782,0.20844966173171997,0.32763946056365967,0.24934352934360504,0.09562792629003525,0.3145703673362732,0.26204708218574524,-0.05604349821805954,0.05478670075535774,0.09635677933692932,0.13650181889533997,0.11746232211589813,-0.02673761360347271,0.2504103481769562,0.3181987702846527,0.1264364868402481,0.22002796828746796,0.30191847681999207,0.17541512846946716,0.13706834614276886,0.1817677915096283,0.06309083104133606,0.20726662874221802,0.31130388379096985,0.1451895833015442,0.1252012848854065,0.231522798538208,0.18952174484729767,-0.278552383184433,-0.43263736367225647,-0.34212493896484375,0.045994456857442856,0.05590318515896797,0.09869399666786194,0.2908172905445099,0.3067605197429657,0.2508961856365204,-0.037817806005477905,-0.16511490941047668,-0.10271602869033813,-0.2458016276359558,-0.24224013090133667,-0.2489880621433258,-0.31354770064353943,-0.3740798234939575,-0.2312089204788208,-0.058160364627838135,-0.44453614950180054,-0.3093028664588928,0.0807066559791565,-0.3888642191886902,-0.2792263329029083,0.1373148411512375,-0.0874142050743103,-0.1762559413909912,0.1618603616952896,0.2527254819869995,0.13564607501029968,0.3381824791431427,0.3851412534713745,0.18785983324050903,0.22155575454235077,0.233070969581604,0.15066508948802948,-0.3255762755870819,-0.2221958041191101,0.1018015518784523,-0.3647884130477905,-0.4179532825946808,0.012182962149381638,-0.20969262719154358,-0.20627433061599731,0.0024681519716978073,0.09530944377183914,0.17549966275691986,0.19784358143806458,0.10420197248458862,-0.09553214907646179,-0.24921751022338867,0.028318915516138077,-0.34650227427482605,-0.44181394577026367,-0.32216936349868774,-0.22737523913383484,-0.32927483320236206,0.1623830795288086,0.0028031032998114824,-0.23258091509342194,0.23627039790153503,0.09839124232530594,-0.05067558214068413,-0.06333944946527481,-0.12028871476650238,-0.2315690666437149,0.2974999248981476,0.31304362416267395,0.10670080780982971,0.21904996037483215,0.28592655062675476,0.13722513616085052,0.3094537556171417,0.2149353325366974,0.0031930115073919296,0.3331756889820099,0.30750772356987,0.10369829088449478,0.10289599746465683,0.1324911117553711,0.07506858557462692,-0.004026161972433329,-0.048101965337991714,-0.07230028510093689,-0.17020298540592194,-0.31348559260368347,-0.34172582626342773,-0.3371291160583496,-0.3137466311454773,-0.12871359288692474,0.10028526932001114,0.00010848033707588911,-0.33553817868232727,0.16479405760765076,0.0500250943005085,-0.592914342880249,0.050876300781965256,0.030391205102205276,-0.3303825855255127,0.004417866934090853,0.07732415199279785,0.094467893242836,0.11968247592449188,0.24577856063842773,0.27965062856674194,0.22829501330852509,0.3957034945487976,0.29109159111976624,0.18534205853939056,0.1652541607618332,0.16287121176719666,0.25549769401550293,0.20975971221923828,0.1673852503299713,0.27782127261161804,0.25674495100975037,0.0740341991186142,0.17871738970279694,0.3462194502353668,0.34817153215408325,0.15521636605262756,0.25738540291786194,0.23495320975780487,0.02630353532731533,0.0017479521920904517,0.0007582634571008384]},"features.4.block.1.weight":{"shape":[32],"data":[1.384059190750122,1.0578449964523315,0.7454228401184082,0.8651727437973022,1.0165760517120361,0.8113435506820679,1.019966959953308,0.7903583645820618,0.8116432428359985,0.9744853377342224,0.7192275524139404,1.3755580186843872,0.7372419834136963,0.7878527045249939,0.9479149580001831,1.111809492111206,0.9873391389846802,0.9374734163284302,0.8645520806312561,1.052168607711792,1.0431102514266968,1.1314489841461182,0.9103529453277588,0.9082062244415283,1.003889799118042,0.757408857345581,0.9358867406845093,1.2037512063980103,1.037337064743042,0.8089635968208313,1.1618781089782715,0.8400232791900635]},"features.4.block.1.bias":{"shape":[32],"data":[0.5567254424095154,0.37680134177207947,-0.19455571472644806,0.017476527020335197,0.2086203545331955,-0.04711267724633217,0.33245429396629333,0.19068077206611633,-0.10538774728775024,0.35201895236968994,0.14702057838439941,0.3849574327468872,0.4953489899635315,0.034709833562374115,0.10764355212450027,0.49544042348861694,0.34882450103759766,0.27586910128593445,0.17662617564201355,-0.00993497483432293,0.3462500274181366,0.30307701230049133,0.6053038835525513,0.37187686562538147,-0.18889133632183075,0.07239894568920135,0.04818097874522209,0.5561308264732361,0.4669991135597229,0.09056495130062103,0.22896961867809296,0.6098305583000183]},"features.4.block.1.running_mean":{"shape":[32],"data":[-0.5819518566131592,0.5010913014411926,-0.06874942034482956,0.10446687042713165,0.3421884775161743,-0.029128793627023697,0.06779894977807999,0.23425406217575073,0.49372559785842896,0.16063068807125092,-0.9314287900924683,-0.9292190670967102,0.40778008103370667,0.20114417374134064,0.2088984102010727,0.28132882714271545,0.48810330033302307,0.21398374438285828,0.009376754984259605,-0.7799237966537476,-0.6178402304649353,0.4457792341709137,-0.6049533486366272,-0.31359633803367615,-0.23393766582012177,0.049772318452596664,0.5901092290878296,-0.45273661613464355,-0.29249662160873413,0.3432551920413971,0.623964250087738,0.20367172360420227]},"features.4.block.1.running_var":{"shape":[32],"data":[0.8885725140571594,0.5591967701911926,0.14874209463596344,0.06280535459518433,0.1040479764342308,0.21358105540275574,0.027372490614652634,0.4680395722389221,0.20667868852615356,0.08306688815355301,0.154693141579628,0.3032790422439575,0.0991346463561058,0.12226182967424393,0.1338440477848053,0.399202436208725,0.47150933742523193,0.06675582379102707,0.30576130747795105,0.25736284255981445,0.4466557800769806,0.4664943516254425,0.30360209941864014,0.05491649731993675,0.3905452489852905,0.031139181926846504,0.3045073449611664,0.6091917157173157,0.49278712272644043,0.10061406344175339,0.33854830265045166,0.13896095752716064]},"features.4.block.3.weight":{"shape":[48,32,1,1],"data":[-0.3625164031982422,-0.10431288182735443,0.02427303045988083,0.07647871226072311,-0.041270725429058075,0.07164622843265533,0.2786898612976074,-0.06701453775167465,-0.18081550300121307,-0.10012179613113403,0.0524478517472744,0.14137594401836395,-0.400667667388916,0.1259908825159073,-0.26502078771591187,-0.0074943434447050095,-0.05733006075024605,0.036097001284360886,-0.3459872901439667,-0.1868995577096939,-0.1166035532951355,0.010917829349637032,0.08697202056646347,-0.09924125671386719,-0.24190838634967804,-0.05736216902732849,0.08006899058818817,0.03870097175240517,-0.2767260670661926,-0.07753212004899979,-0.13784871995449066,-0.06482452154159546,0.21862074732780457,-0.006608355324715376,0.10117743909358978,-0.02535351738333702,0.17368486523628235,-0.01967812515795231,-0.36310282349586487,0.19707737863063812,-0.2089766263961792,-0.13116338849067688,-0.11689738929271698,0.09678792953491211,0.13373428583145142,-0.055404145270586014,-0.2797488272190094,0.11520708352327347,0.1421462595462799,-0.26777565479278564,0.21184854209423065,-0.0768413096666336,0.27213019132614136,-0.10948634892702103,-0.06910703331232071,-0.030253291130065918,0.04024377092719078,0.1458340287208557,0.12230915576219559,-0.11895044893026352,-0.3103153705596924,0.1965719610452652,-0.14581972360610962,-0.11569365113973618,-0.2880091071128845,-0.26524221897125244,-0.01548557635396719,-0.21487349271774292,0.0367380790412426,0.06923321634531021,-0.02595905214548111,-0.07523562759160995,-0.11139868944883347,-0.11042607575654984,0.06606566160917282,0.30508580803871155,-0.3417474627494812,0.07547368109226227,0.04518599435687065,0.05756741762161255,0.11202576756477356,-0.10187095403671265,-0.16327200829982758,-0.2045092135667801,0.15477998554706573,0.14660704135894775,-0.21385301649570465,-0.04361060634255409,-0.18267489969730377,0.1615045666694641,0.23372073471546173,-0.12888944149017334,-0.0030908924527466297,-0.08581051230430603,-0.3719715178012848,-0.02731378935277462,0.20263436436653137,-0.06152928248047829,-0.020509855821728706,-0.16923081874847412,-0.23366986215114594,-0.07684777677059174,0.12642334401607513,0.10575727373361588,-0.14798572659492493,0.2988548278808594,-0.2544853389263153,0.26670610904693604,-0.09036527574062347,-0.15178479254245758,0.011130006983876228,-0.3891187310218811,0.12412621080875397,-0.01089825015515089,-0.044462647289037704,-0.11848378926515579,0.07717456668615341,0.04515562579035759,-0.01930781826376915,0.1368272602558136,0.08639337867498398,0.27788448333740234,-0.0260343998670578,-0.1768771857023239,0.25673341751098633,0.01505944412201643,-0.22441673278808594,0.04742313176393509,0.15497812628746033,0.02663138136267662,-0.05370287597179413,-0.11678052693605423,0.2121797502040863,0.059648118913173676,-0.026282338425517082,-0.10540411621332169,-0.027918554842472076,-0.1056465432047844,-0.010027267038822174,0.23180259764194489,-0.034519948065280914,0.030697135254740715,0.053225092589855194,0.008922272361814976,0.3163563013076782,-0.30572137236595154,-0.18150196969509125,0.29726114869117737,-0.3895476162433624,0.2125541865825653,-0.12680882215499878,0.12496387958526611,-0.006631095428019762,-0.16476179659366608,-0.18858888745307922,-0.33952611684799194,0.0869176909327507,-0.12633326649665833,-0.09101630002260208,-0.19364888966083527,-0.44359126687049866,0.008455071598291397,0.1268623024225235,-0.07211609184741974,-0.09018383920192719,0.10449622571468353,-0.04489973559975624,-0.0016467159148305655,0.042657602578401566,0.0373152494430542,-0.021656574681401253,0.050498541444540024,0.24129943549633026,-0.07644633203744888,-0.01437999214977026,-0.1477239429950714,0.27538055181503296,0.2643490135669708,-0.2669530212879181,0.17399273812770844,-0.1333731710910797,0.143646240234375,-0.1085735410451889,-0.1416260302066803,-0.33510029315948486,0.08722808957099915,0.02342870831489563,-0.6170958876609802,0.013918310403823853,-0.02679276093840599,0.08204607665538788,0.11019758135080338,-0.2297346591949463,0.11420053243637085,-0.012445825152099133,-0.09659126400947571,-0.15888328850269318,0.06324754655361176,-0.17229194939136505,-0.3685034215450287,-0.06056421622633934,0.12964209914207458,-0.06663057953119278,-0.10030654817819595,-0.11279643326997757,-0.09084075689315796,0.1446872055530548,-0.2658591866493225,0.4014998972415924,-0.13512220978736877,-0.05860396847128868,-0.01597643829882145,-0.05460083857178688,-0.28432488441467285,0.12599074840545654,0.05375947803258896,0.20415523648262024,-0.20670853555202484,-0.05266823247075081,-0.03467685356736183,0.217502161860466,-0.06185911223292351,0.18402963876724243,0.15763957798480988,-0.08046779036521912,-0.10769448429346085,0.2501048743724823,0.1396580934524536,0.25462254881858826,0.08065295219421387,0.18153110146522522,-0.4407895505428314,-0.02113724686205387,0.12142051756381989,-0.16566041111946106,0.0112393693998456,-0.004175994545221329,-0.10540928691625595,0.059151243418455124,-0.15799488127231598,-0.05031329765915871,0.1520654559135437,-0.05359860137104988,-0.04199288412928581,-0.022020168602466583,-0.15978558361530304,0.28305333852767944,-0.05370233952999115,-0.19775421917438507,0.12823475897312164,-0.4079504609107971,-0.07227133959531784,0.12342464923858643,-0.05820465087890625,-0.11429799348115921,0.2793823182582855,0.038185324519872665,-0.11565224081277847,-0.054710499942302704,0.2552895247936249,-0.09766576439142227,-0.05046742036938667,-0.25856897234916687,-0.05169166252017021,0.09163909405469894,-0.022492405027151108,-0.017026815563440323,0.3230587840080261,-0.22426803410053253,0.2086430788040161,-0.21328197419643402,0.13153018057346344,0.19751477241516113,-0.13935786485671997,-0.14332087337970734,0.2126452475786209,0.3411496579647064,0.0008587606134824455,-0.20424066483974457,0.3246758282184601,-0.07947763055562973,-0.0640123263001442,-0.31949031352996826,-0.13712094724178314,0.11095123738050461,-0.1742262989282608,-0.17644275724887848,-0.0074778953567147255,-0.1906631886959076,-0.2633238434791565,-0.08530225604772568,0.24139608442783356,-0.06326910853385925,-0.29049956798553467,0.11725131422281265,0.15331479907035828,0.1927879899740219,0.14465707540512085,-0.2524433434009552,0.0318061038851738,-0.04543901979923248,0.027220603078603745,-0.06328564882278442,0.3584456145763397,-0.12452306598424911,0.032923560589551926,0.29823198914527893,-0.01145878154784441,0.11612973362207413,-0.2236209511756897,-0.23033030331134796,-0.010128732770681381,0.14660023152828217,-0.08804669976234436,0.0715172216296196,0.12019923329353333,0.16979016363620758,0.04298105835914612,-0.29093849658966064,0.06739582121372223,0.14186714589595795,-0.02146366983652115,-0.09495385736227036,0.05709581822156906,-0.2052033394575119,-0.10311084240674973,0.08801580220460892,-0.16291701793670654,-0.08273757994174957,0.06634058803319931,0.18052849173545837,-0.420367032289505,0.1924973875284195,-0.009484701789915562,-0.055432699620723724,-0.23995468020439148,0.057596974074840546,0.04193115234375,0.08075370639562607,0.3239937126636505,-0.19496148824691772,-0.2636414170265198,-0.3317509591579437,-0.0549633726477623,-0.039824895560741425,-0.04799219220876694,-0.021102339029312134,0.05578675493597984,0.044523246586322784,0.13218405842781067,-0.2861465513706207,-0.11994964629411697,-0.16023999452590942,0.008636555634438992,-0.03257843106985092,0.2389899492263794,-0.27401724457740784,-0.038711559027433395,-0.07810388505458832,0.01944575272500515,-0.11786013096570969,0.2579333186149597,-0.03191325441002846,0.08668050169944763,-0.07710708677768707,-0.13810774683952332,-0.0658055916428566,-0.23397737741470337,0.18316808342933655,-0.08063282817602158,-0.06380650401115417,0.05988789722323418,0.05801799148321152,-0.640731930732727,-0.23629719018936157,0.2976921796798706,0.03094612807035446,0.019258219748735428,-0.09331842511892319,-0.034425877034664154,0.10097654163837433,0.0767868161201477,-0.09235256910324097,0.12311110645532608,-0.10779252648353577,-0.31700530648231506,-0.07069035619497299,-0.16707591712474823,-0.04044552147388458,-0.024540578946471214,0.18461161851882935,-0.03317231312394142,0.07462522387504578,-0.08480287343263626,-0.11537138372659683,0.35692837834358215,-0.21503187716007233,0.14471185207366943,-0.4422094225883484,-0.13831761479377747,0.11447814106941223,0.0827934741973877,-0.09127327799797058,-0.0683162584900856,0.1533222645521164,-0.027261856943368912,-0.17031754553318024,-0.02024802193045616,-0.3117254376411438,0.19739925861358643,-0.03099186159670353,-0.41413530707359314,-0.09574612230062485,-0.06571295857429504,-0.09208463877439499,-0.034367624670267105,-0.012239116244018078,-0.1572163999080658,-0.005542595870792866,0.3978242576122284,0.2820139229297638,-0.26005443930625916,-0.23767249286174774,-0.13858576118946075,0.182585209608078,-0.07865580171346664,0.013352008536458015,0.017275091260671616,-0.06857258826494217,-0.0381644181907177,-0.07997776567935944,-0.3584984242916107,-0.014997783116996288,-0.0121542913839221,0.11783415079116821,0.11094371974468231,-0.13431741297245026,0.0517813041806221,0.20656146109104156,0.07478750497102737,-0.17387589812278748,0.004206348210573196,-0.16498863697052002,-0.15485797822475433,0.16008202731609344,0.17807337641716003,0.1206156313419342,0.11284558475017548,-0.19891975820064545,-0.02737523801624775,0.03141716495156288,-0.07249519228935242,0.15832549333572388,0.18000280857086182,0.14894774556159973,0.17429853975772858,0.027482813224196434,-0.4690452218055725,-0.000950982968788594,0.25006312131881714,0.23492760956287384,0.03478410094976425,-0.18937060236930847,0.11822886019945145,0.05588441714644432,0.11089891940355301,-0.11324278265237808,-0.09768310934305191,0.09494200348854065,0.1623195856809616,-0.1675509214401245,-0.11708974093198776,-0.024198248982429504,0.10353997349739075,-0.04074828699231148,-0.15286888182163239,-0.30203720927238464,-0.03644511476159096,-0.15959016978740692,0.0970267504453659,-0.29129651188850403,-0.21500542759895325,-0.23941905796527863,0.057885561138391495,-0.23796167969703674,-0.016022874042391777,0.3486208915710449,0.09359513968229294,0.024871811270713806,0.05630847066640854,-0.11217581480741501,0.38207313418388367,0.0686083734035492,0.18308208882808685,0.10746731609106064,-0.006540330592542887,0.10846434533596039,0.1656658947467804,0.14456075429916382,-0.09034222364425659,0.17159707844257355,-0.0022306565660983324,0.017041541635990143,-0.03788885474205017,0.013474983163177967,0.12163936346769333,0.1269868016242981,-0.14725221693515778,0.06575610488653183,0.12306474894285202,-0.11161050945520401,0.10735510289669037,-0.31775975227355957,-0.12560133635997772,-0.022249097004532814,-0.15236683189868927,0.0048598311841487885,-0.021231211721897125,0.14489218592643738,-0.03979731351137161,0.04086381569504738,0.2037157267332077,-0.05998821556568146,0.1780792623758316,0.009994943626224995,0.008490950800478458,-0.45083528757095337,0.0923571065068245,-0.293791800737381,0.07703530788421631,0.015095771290361881,-0.26143184304237366,-0.17538629472255707,-0.041487500071525574,0.12118981033563614,0.09535535424947739,-0.13056153059005737,0.19231624901294708,0.1628093421459198,0.06348855793476105,-0.14431557059288025,-0.035450857132673264,-0.2160331904888153,-0.14833873510360718,-0.2785952687263489,-0.051937658339738846,-0.12022336572408676,-0.07075711339712143,0.20283739268779755,0.03557196259498596,-0.28997278213500977,-0.13125337660312653,-0.14172929525375366,0.0917142853140831,-0.1569114476442337,0.25843867659568787,-0.006362380459904671,0.069486103951931,-0.1254235804080963,-0.12109263241291046,0.07282097637653351,-0.22557780146598816,0.04069287329912186,0.23487558960914612,-0.2719387114048004,-0.18202222883701324,-0.19601577520370483,-0.028546003624796867,0.0068504116497933865,0.05836411193013191,0.12070411443710327,0.17335303127765656,-0.20652951300144196,0.06885399669408798,-0.3490888774394989,-0.18498384952545166,-0.07024183869361877,0.02624037303030491,-0.087826207280159,0.0016995915211737156,0.017440155148506165,-0.12930119037628174,0.288419246673584,-0.0003398904809728265,0.03148986026644707,0.23947136104106903,-0.15241308510303497,0.13120463490486145,0.04922676458954811,-0.05235541611909866,0.04520077258348465,-0.3047243058681488,-0.18465808033943176,0.118986114859581,0.006511400453746319,0.010968729853630066,0.09570010006427765,-0.34527406096458435,-0.04292603209614754,0.032688871026039124,-0.07610808312892914,0.34523576498031616,0.2669323980808258,0.22481778264045715,0.007470658980309963,0.23579739034175873,-0.12417078018188477,-0.13243041932582855,0.16496460139751434,-0.21365340054035187,0.008521837182343006,0.07233846187591553,-0.0888972356915474,-0.26944565773010254,-0.004925103858113289,-0.21105754375457764,0.027565397322177887,0.021268408745527267,-0.22200311720371246,0.25429725646972656,0.01802460104227066,-0.0006500654853880405,0.14289171993732452,-0.7488832473754883,0.16134963929653168,0.10043063759803772,-0.19498249888420105,0.04235285893082619,0.04856003075838089,-0.17892809212207794,-0.18658870458602905,0.05267170071601868,-0.0637742355465889,0.1418335735797882,0.1506439745426178,0.06079743430018425,0.13532643020153046,0.1095556765794754,-0.3291422724723816,0.08630465716123581,-0.13729389011859894,-0.12028010189533234,-0.16281570494174957,0.01577424816787243,-0.2027224749326706,-0.08003479987382889,0.2875491976737976,0.0074816495180130005,-0.1574074625968933,-0.0737266018986702,-0.0654831975698471,0.31259602308273315,0.14724917709827423,0.19474844634532928,-0.11574217677116394,0.019839759916067123,-0.053544774651527405,0.05152479559183121,0.11233088374137878,-0.27265238761901855,0.040855780243873596,0.1451217085123062,0.00015623866056557745,-0.13528576493263245,-0.12512964010238647,0.16205495595932007,0.00669979490339756,-0.5112544298171997,-0.1030678004026413,-0.0598810575902462,-0.2951488196849823,-0.08439718186855316,-0.24848975241184235,-0.048942938446998596,-0.025860581547021866,-0.11398084461688995,-0.24822503328323364,-0.04627351835370064,-0.09900786727666855,-0.1982094943523407,-0.1518200784921646,-0.13684715330600739,0.14091122150421143,0.14511609077453613,-0.11029233038425446,-0.21414248645305634,0.1294824630022049,-0.008874461054801941,0.3075863718986511,-0.2911183834075928,-0.13101840019226074,0.005754404701292515,-0.08824875205755234,-0.23731869459152222,-0.3062596917152405,0.1671748012304306,0.08906731009483337,-0.013066750019788742,0.16265670955181122,-0.1668710559606552,0.10443638265132904,-0.1332215964794159,-0.3089933693408966,-0.09447956830263138,-0.5663371086120605,0.022124281153082848,-0.0006321113905869424,-0.14263884723186493,0.02398805133998394,0.1229468360543251,0.002800517249852419,-0.36378854513168335,-0.08440937101840973,0.09272260963916779,-0.32802483439445496,0.16703997552394867,0.022552357986569405,0.027006585150957108,-0.07663781940937042,-0.3472624123096466,0.23881380259990692,0.018969139084219933,-0.08106821775436401,-0.1909319907426834,0.17322784662246704,-0.05460900068283081,-0.0023618575651198626,0.012744859792292118,0.12001072615385056,0.22735421359539032,-0.10066501051187515,-0.0866653248667717,0.04426165670156479,0.11283010989427567,-0.005439550615847111,0.15258780121803284,-0.23949986696243286,-0.17010971903800964,-0.23613198101520538,0.15248772501945496,0.27487578988075256,-0.05899282544851303,0.15128052234649658,-0.12445705384016037,0.06698190420866013,0.2272832840681076,-0.03729512542486191,-0.010907821357250214,0.12991830706596375,-0.05065649375319481,-0.2501245439052582,-0.026160862296819687,-0.04891872778534889,-0.19063156843185425,-0.20407943427562714,0.16834793984889984,-0.009370080195367336,-0.14888541400432587,0.1622203141450882,-0.1784568727016449,-0.21829073131084442,-0.15333059430122375,0.00891518872231245,0.3494434058666229,0.27035126090049744,-0.034036681056022644,0.034399520605802536,-0.1041659340262413,-0.19718056917190552,0.004914913326501846,0.16674943268299103,0.1399555504322052,-0.10111668705940247,-0.27907511591911316,-0.15222613513469696,-0.2152239829301834,0.01022634468972683,0.24582333862781525,0.06447253376245499,0.037507932633161545,-0.1585364192724228,-0.09381244331598282,0.01509809773415327,-0.011546008288860321,0.13469670712947845,-0.10052753239870071,0.16566812992095947,-0.13297705352306366,0.03969747945666313,-0.47224974632263184,-0.031194312497973442,0.17619666457176208,0.3893464207649231,-0.16871996223926544,-0.0693424865603447,0.32889971137046814,0.22665536403656006,0.16598156094551086,-0.15022213757038116,0.2617517411708832,-0.020891644060611725,-0.19414982199668884,-0.4598880708217621,0.011086288839578629,-0.2044379711151123,-0.13017085194587708,-0.14035367965698242,-0.01633528247475624,-0.07542035728693008,-0.21299725770950317,-0.00674578407779336,0.24551956355571747,0.2835087776184082,0.11344482004642487,-0.19363917410373688,-0.07713250815868378,0.14485812187194824,-0.16329115629196167,-0.0075476812198758125,0.09111470729112625,0.19177812337875366,0.22501544654369354,-0.22924083471298218,-0.0017462465912103653,0.3658183515071869,0.026611609384417534,0.0784035474061966,-0.1253889501094818,0.08441906422376633,-0.13545569777488708,-0.09396498650312424,-0.4845488965511322,0.048390720039606094,-0.45492756366729736,-0.02088305912911892,0.20299525558948517,0.11454981565475464,-0.05544046312570572,0.13088823854923248,0.05411206930875778,0.029566626995801926,0.023592326790094376,0.09796664118766785,0.23329658806324005,-0.030577674508094788,-0.08403173089027405,-0.16631969809532166,-0.19492237269878387,-0.44357866048812866,0.1270863115787506,0.037605464458465576,-0.20617803931236267,-0.15924867987632751,0.11591485887765884,0.17369455099105835,-0.12076839059591293,-0.30712032318115234,0.031198279932141304,-0.09340065717697144,-0.005500788800418377,-1.4723875210620463e-05,-0.3268668055534363,-0.15170922875404358,0.23301443457603455,-0.14512445032596588,0.1435454934835434,0.027179444208741188,0.14360001683235168,-0.04103958606719971,0.09400409460067749,-0.06961862742900848,0.03102763183414936,-0.23673740029335022,0.08058874309062958,0.14782744646072388,0.20013554394245148,-0.0015264945104718208,-0.005052016582340002,0.19481214880943298,0.24253883957862854,0.004158558323979378,-0.06199605017900467,-0.027053210884332657,0.055107515305280685,0.16823095083236694,-0.45451027154922485,-0.2277606725692749,0.22182588279247284,0.2562119960784912,-0.19535917043685913,-0.0913180261850357,0.09468984603881836,-0.08013606071472168,-0.013497842475771904,-0.22196392714977264,0.22198937833309174,-0.3602890074253082,-0.2513258755207062,0.04631945490837097,0.22220982611179352,0.17185452580451965,0.059852484613657,0.011407536454498768,-0.1879766285419464,0.21039597690105438,-0.07559997588396072,-0.1020350307226181,0.17765168845653534,0.25797921419143677,-0.2517243027687073,0.004658505320549011,-0.23254811763763428,0.18895699083805084,-0.171126589179039,-0.23242123425006866,0.02959381230175495,-1.9830375094898045e-05,-0.012041762471199036,-0.04953758046030998,-0.1813819706439972,-0.1475841999053955,-0.10305266827344894,-0.08020681887865067,-0.025057341903448105,0.28225865960121155,-0.039801064878702164,-0.09379586577415466,0.013486327603459358,0.05048893019556999,-0.2760447859764099,0.0911659523844719,0.034706491976976395,-0.28557100892066956,-0.08876627683639526,-0.30957895517349243,-0.07144598662853241,0.025969911366701126,-0.33501678705215454,0.23283018171787262,0.2747877538204193,-0.014331942424178123,0.14963269233703613,0.15980270504951477,0.026150234043598175,-0.0024049219209700823,-0.07866907119750977,0.210782989859581,-0.1798759400844574,-0.14378491044044495,-0.13356266915798187,-0.0676499456167221,-0.19463405013084412,-0.1590804159641266,-0.09907367825508118,0.07633595168590546,-0.5083109140396118,-0.1453392058610916,-0.2593989968299866,-0.01648762635886669,0.0332535058259964,-0.30326372385025024,-0.07769706845283508,0.1825471669435501,-0.141428604722023,-0.06221660226583481,0.01446372177451849,-0.27444201707839966,-0.05433472990989685,-0.17285799980163574,0.12980273365974426,0.0030046345200389624,0.17008410394191742,-0.02446560375392437,0.08603201061487198,0.13044092059135437,-0.04528982937335968,0.036169759929180145,0.21234029531478882,-0.10145749151706696,-0.3690441846847534,-0.17724646627902985,0.2427554428577423,0.20568516850471497,0.24668599665164948,-0.09189746528863907,0.12433623522520065,-0.02430039271712303,-0.3588894009590149,0.12382321059703827,-0.11825200915336609,0.07238765060901642,0.17101167142391205,-0.2048647701740265,-0.16710339486598969,-0.017167430371046066,-0.0009583823848515749,0.09952584654092789,0.01593422330915928,0.2921811044216156,0.10767874866724014,0.09207027405500412,-0.08295774459838867,-0.04021478816866875,0.47186279296875,0.013602492399513721,-0.05453668162226677,-0.48240432143211365,0.10997825115919113,-0.018115825951099396,0.02524535544216633,0.04645669832825661,-0.07136578112840652,-0.28238606452941895,0.09382139146327972,0.0931183397769928,0.03582609072327614,-0.22898058593273163,0.16297394037246704,0.2482532560825348,-0.1386854201555252,-0.4107756018638611,0.10283520072698593,-0.10810094326734543,0.09126905351877213,-0.22686828672885895,-0.14240697026252747,0.04800666123628616,-0.11907848715782166,0.1753431260585785,-0.15140041708946228,0.16985899209976196,-0.3651069402694702,0.14195148646831512,0.20863085985183716,-0.003910558298230171,-0.004041781183332205,0.10629678517580032,0.0744154155254364,-0.12030121684074402,-0.22890767455101013,-0.19466277956962585,0.09465307742357254,0.03732645511627197,-0.17000426352024078,-0.029834559187293053,-0.1280902922153473,0.2669149339199066,0.2362067699432373,-0.39706873893737793,-0.02472621016204357,0.05338422581553459,0.01366012915968895,-0.2748439908027649,0.036131758242845535,-0.2068098783493042,0.016265301033854485,-0.2935481667518616,-0.21762815117835999,0.033493999391794205,0.004180837422609329,-0.049050621688365936,-0.28315067291259766,0.2243305742740631,-0.06158166378736496,0.0974854901432991,-0.003975998144596815,-0.18269680440425873,0.41350412368774414,0.021485773846507072,0.01697746478021145,-0.0619596466422081,-0.20460546016693115,0.3320818543434143,-0.0003053226100746542,-0.016035156324505806,0.004427035804837942,-0.15480728447437286,-0.040948592126369476,-0.045215755701065063,-0.04091945290565491,-0.41227495670318604,-0.048394422978162766,-0.07087411731481552,-0.28505948185920715,-0.3863430917263031,-0.047118376940488815,-0.1762857884168625,0.01228337362408638,-0.2635746896266937,0.020851388573646545,-0.20794078707695007,-0.05034102126955986,0.20214270055294037,-0.041561309248209,0.16666720807552338,-0.033490583300590515,0.1570172905921936,-0.10125856846570969,0.038645464926958084,0.3252626657485962,0.015131056308746338,0.056618303060531616,0.025180518627166748,0.19865868985652924,0.05137883499264717,-0.014462941326200962,0.36027219891548157,-0.0979660376906395,-0.2619013786315918,0.07595394551753998,0.0712481364607811,-0.2106064409017563,0.02965182065963745,0.1244623064994812,0.060241494327783585,-0.4234444499015808,-0.35779595375061035,0.03539106994867325,-0.23090602457523346,-0.15171942114830017,-0.13110390305519104,0.0021310504525899887,-0.13460911810398102,0.04383771866559982,-0.19831140339374542,-0.009026264771819115,-0.03433280810713768,0.2752494513988495,0.059558767825365067,-0.22657527029514313,-0.038383468985557556,0.1967688947916031,0.07400438189506531,0.10088115185499191,-0.11691473424434662,-0.17684324085712433,0.22220593690872192,0.09850963205099106,0.5184853076934814,-0.15150365233421326,0.055968672037124634,0.13782444596290588,-0.04655434191226959,-0.13956868648529053,0.22171971201896667,-0.042946264147758484,0.22245755791664124,-0.280565470457077,0.12795135378837585,-0.1755453497171402,0.08805906772613525,-0.3297540843486786,-0.19283725321292877,-0.33185991644859314,-0.007707817479968071,0.04210801050066948,0.06391260027885437,-0.07238643616437912,-0.1751995086669922,-0.191025048494339,0.03786793723702431,0.008989628404378891,-0.08655016124248505,0.20518448948860168,-0.30492180585861206,0.2113555371761322,0.05751854181289673,0.036170028150081635,0.00444416468963027,-0.17627128958702087,0.059722159057855606,0.18987064063549042,0.329807847738266,0.005843786522746086,0.0896042063832283,-0.0006022575544193387,-0.1020696833729744,-0.24405935406684875,0.28750619292259216,-0.18481341004371643,0.40559789538383484,-0.009197277016937733,-0.185909241437912,-0.21736790239810944,-0.1554144024848938,-0.019493579864501953,0.14286264777183533,0.06264922767877579,0.0038655083626508713,0.17109178006649017,0.23461297154426575,-0.13960908353328705,0.038328561931848526,0.06630123406648636,-0.004398381803184748,0.1577131152153015,0.272986501455307,-0.1171642318367958,-0.03856505826115608,-0.27216243743896484,-0.15171080827713013,0.15471583604812622,-0.14120420813560486,-0.2950321435928345,-0.2467183917760849,-0.10726457834243774,0.2632456123828888,0.12824754416942596,-0.12445839494466782,0.12902233004570007,-0.03045484982430935,0.10361747443675995,0.10893744230270386,0.03557742014527321,-0.040340274572372437,0.39331722259521484,-0.7080261707305908,-0.15904034674167633,0.018487071618437767,-0.11551081389188766,-0.22116133570671082,0.14324985444545746,0.20403163135051727,0.02104484848678112,0.13145038485527039,-0.1768341362476349,0.004468938335776329,0.2208329737186432,0.00933701079338789,-0.035213910043239594,0.031499505043029785,-0.06827105581760406,0.14200915396213531,0.06239856407046318,-0.05324842035770416,-0.40262937545776367,0.05412077531218529,0.08852846920490265,-0.07235104590654373,-0.040494345128536224,-0.018088845536112785,0.06364443898200989,0.12800292670726776,-0.07348936051130295,0.3308044970035553,-0.2549603283405304,-0.12738443911075592,0.0359526127576828,-0.2507793605327606,-0.28762683272361755,-0.09360154718160629,0.02707543782889843,-0.17671433091163635,-0.09588566422462463,0.057543303817510605,-0.16805605590343475,0.08398918062448502,0.1630743443965912,-0.18791906535625458,0.32461822032928467,-0.00012909757788293064,-0.04912742227315903,0.047974780201911926,-0.11048531532287598,-0.07590558379888535,0.21232403814792633,-0.13899342715740204,-0.25887352228164673,0.10790464282035828,-0.07374916225671768,-0.1803697794675827,0.23535335063934326,0.07546649128198624,0.3009077310562134,0.3576620817184448,0.11220704019069672,0.062182385474443436,0.1114858090877533,-0.2731538414955139,0.0013049824628978968,0.002504924312233925,0.08922308683395386,0.2982659935951233,0.16442495584487915,-0.20221902430057526,0.1233547255396843,-0.4300825595855713,0.10978719592094421,0.01132288295775652,-0.047463979572057724,0.13974091410636902,-0.17705057561397552,0.10280875861644745,0.07542239129543304,0.03201564773917198,0.30627214908599854,-0.03601503744721413,-0.055474378168582916,0.013302595354616642,0.196254700422287,-0.017641231417655945,0.06329032778739929,-0.08613166213035583,-0.3359874486923218,0.12705959379673004,-0.08369269222021103,-0.16209422051906586,0.06878574937582016,0.17155401408672333,-0.1103685051202774,-0.165833979845047,-0.03692721948027611,-0.18811725080013275,-0.23666830360889435,-0.2599741220474243,-0.06258129328489304,0.18809257447719574,0.04190787300467491,-0.2243126481771469,0.06187329441308975,0.0962689071893692,0.21870729327201843,-0.32631057500839233,-0.013772070407867432,-0.1201135441660881,0.07438795268535614,-0.15829598903656006,-0.09454921633005142,0.06714460253715515,-0.02623586915433407,-0.2354021817445755,0.26234036684036255,0.208327978849411,0.021864231675863266,-0.1110786572098732,0.13204652070999146,0.06983437389135361,-0.05591617524623871,0.24941959977149963,0.2536681890487671,-0.03779260441660881,0.1191815584897995,0.028727689757943153,-0.4298190474510193,0.11431322246789932,-0.35848936438560486,0.33571314811706543,0.07501418888568878,0.016035007312893867,0.3248704671859741,0.06815176457166672,0.003932294435799122,0.23145940899848938,-0.02484270930290222,0.05447253957390785,-0.22942505776882172,0.0042277853935956955,-0.05304079130291939,-0.2407335489988327,-0.3685888648033142,-0.15144331753253937,-0.21777503192424774,-0.16520442068576813,0.17837996780872345,-0.11721326410770416,0.26621294021606445,0.05506627634167671,0.07263217121362686,-0.17906704545021057,0.1824941486120224,0.06677316874265671,-0.0373668409883976,0.27693283557891846,-0.05214294046163559,0.12199188023805618,-0.04941054806113243,-0.3539960980415344,0.08947150409221649,0.0005394181935116649,0.01842457801103592,0.20949624478816986,0.07443561404943466,-0.11191117763519287,-0.1631024181842804,0.20496127009391785,0.2548309862613678,0.12190649658441544,0.16429497301578522,-0.06466871500015259,-0.03728116303682327,0.19712653756141663,-0.03053468093276024,-0.0775272399187088,-0.46201181411743164,-0.24710127711296082,-0.038180653005838394,-0.15056926012039185,0.030233563855290413,-0.12410271167755127,0.19896912574768066,0.1801835596561432,-0.044461607933044434,-0.030324159190058708,0.23075060546398163,0.029570454731583595,0.026010269299149513,-0.10683419555425644,0.0467166006565094,-0.18832065165042877,-0.16878247261047363,0.15632326900959015,0.018296582624316216,0.07460414618253708,-0.12694033980369568,-0.2324531525373459,-0.02694069594144821,0.08251138776540756,-0.06108566373586655,0.2779299020767212,0.3089914619922638,0.04463043436408043,0.34739553928375244,-0.0004797896835952997,0.06735970824956894,0.053523264825344086,-0.29267969727516174,-0.017802856862545013,-0.21189256012439728,0.2859842777252197,0.15421690046787262,-0.08426462113857269,-0.29291000962257385,-0.22003379464149475,-0.07250708341598511,-0.04663827270269394,-0.5053105354309082,0.11789078265428543,-0.19553489983081818,-0.12915825843811035,-0.08150386065244675,-0.06439977884292603,-0.166873037815094,0.02660474181175232,-0.15077847242355347,-0.05863846838474274,-0.10654453933238983,-0.04809445142745972,-0.08988204598426819,-0.14704743027687073,-0.19852612912654877,0.24637210369110107,0.25251504778862,0.036596864461898804,0.03751992806792259,-0.07246003299951553,0.1628960371017456,-0.07981158792972565,0.06051938980817795,-0.0008201032178476453,-0.13620981574058533,-0.04764646664261818,0.2972070276737213,-0.09791694581508636,-0.2193467617034912,0.035513054579496384,-0.061826273798942566,0.13734887540340424,-0.08704977482557297,0.25328657031059265,-0.3078252971172333,-0.060431044548749924,-0.3643481433391571,-0.3848525285720825,0.14826561510562897,0.053902190178632736,0.06359217315912247,0.10809754580259323,0.057399898767471313,0.24736270308494568,-0.022170186042785645,-0.11693800985813141,-0.37804123759269714,0.11102400720119476,0.1834370642900467,0.02493097074329853,-0.013012752868235111,0.03433502838015556,0.16732695698738098,0.06933589279651642,0.10249903798103333,0.05096954479813576,-0.12084150314331055,0.12091507017612457,0.189164400100708,-0.1139606162905693,-0.02919735200703144,0.07654334604740143,-0.015780223533511162,0.15252985060214996,-0.2671785354614258,-0.230814591050148,-0.18503785133361816,-0.11451621353626251,0.0683424100279808,-0.20023512840270996,-0.12107963114976883,0.06061236560344696,0.01895916648209095,-0.31747904419898987,0.02039187029004097,-0.11292610317468643,-0.08445768058300018,0.011767478659749031,0.10048671811819077,0.1491478830575943,0.20249351859092712,-0.021035823971033096,-0.1982177495956421,0.08784274756908417,-0.061012834310531616,0.25264328718185425,-0.06748677790164948,-0.20006003975868225,-0.0036834198981523514,-0.29778823256492615,-0.19499166309833527,-0.5462610721588135,0.14569874107837677,-0.16091716289520264,0.15127608180046082,0.009460574015974998,-0.6895398497581482,0.26303631067276,0.01993703842163086,-0.08023250102996826,0.014488252811133862]},"features.4.block.4.weight":{"shape":[48],"data":[0.44588446617126465,0.6133406162261963,0.5305770635604858,0.8300250172615051,0.6796321272850037,0.8322755098342896,0.8040345311164856,0.6253708004951477,0.5771066546440125,0.5881919860839844,0.43724483251571655,0.7937843799591064,0.6280534863471985,0.9907054305076599,1.021103858947754,0.7311753630638123,0.961356520652771,0.7679622173309326,0.8280662894248962,0.6740548014640808,0.9176735281944275,0.5592467188835144,1.0092626810073853,0.7978149056434631,0.6217067837715149,0.5613440871238708,0.8180847764015198,0.7336888909339905,0.5245627164840698,0.8448860049247742,0.8152351975440979,0.9998313188552856,0.9907076358795166,0.9110842347145081,0.6594573855400085,0.9398179054260254,0.5988815426826477,0.9989082217216492,0.6654683351516724,0.7930089235305786,0.7447617650032043,0.7838740348815918,0.38743141293525696,1.1123868227005005,0.5579689145088196,0.8175257444381714,0.7388439774513245,0.38508155941963196]},"features.4.block.4.bias":{"shape":[48],"data":[-0.466257244348526,0.3464333713054657,-0.4351712167263031,0.18901364505290985,-0.22172202169895172,-0.15269352495670319,-0.23493051528930664,-0.3019896149635315,-0.33820870518684387,0.40316715836524963,0.4177776873111725,0.1835596114397049,-0.33364951610565186,-0.038019176572561264,0.11701089888811111,-0.19447560608386993,-0.1609785407781601,-0.17737601697444916,-0.15974672138690948,-0.3392954468727112,0.13759475946426392,-0.35742735862731934,0.04860040917992592,-0.20223240554332733,0.32835960388183594,-0.4013633728027344,-0.1872873604297638,-0.2682054936885834,-0.4193153381347656,0.13494177162647247,0.18199677765369415,0.0932827815413475,0.07708735764026642,-0.06091950088739395,0.3159453570842743,-0.10704662650823593,-0.3338726758956909,0.09785661846399307,-0.30409643054008484,-0.243476003408432,0.23646637797355652,-0.12448050826787949,0.47111275792121887,-0.05638473108410835,-0.44188109040260315,-0.2278107851743698,0.21051743626594543,-0.5024946331977844]},"features.4.block.4.running_mean":{"shape":[48],"data":[-1.12690007686615,-0.1406148076057434,-0.7946774363517761,0.16644349694252014,-0.33809638023376465,-0.7589033842086792,-0.325585275888443,-0.039814092218875885,0.002718389267101884,-0.07107974588871002,-0.7668941617012024,-0.5061555504798889,-0.9241759181022644,-0.01912429928779602,-0.2851015031337738,0.39257997274398804,-0.6094996333122253,-0.9285061955451965,0.18989095091819763,-0.24592289328575134,-0.6680327653884888,-1.1049110889434814,-0.5368799567222595,0.056410592049360275,0.17095930874347687,-0.412566214799881,-0.32317158579826355,0.16361157596111298,-0.443379282951355,-1.0552185773849487,-0.1623522937297821,-0.21466146409511566,-0.45550358295440674,-0.9714303016662598,-0.5687469244003296,-0.09616826474666595,-0.14697527885437012,0.3887053430080414,-0.5705173015594482,-0.09466270357370377,-0.1306336373090744,-0.2593778669834137,-0.13341762125492096,-0.12475868314504623,-0.5780410170555115,-0.33685240149497986,-0.2773039638996124,-1.2740974426269531]},"features.4.block.4.running_var":{"shape":[48],"data":[0.3147459924221039,0.7675731182098389,0.2557070851325989,0.5841311812400818,0.46261557936668396,0.8012356162071228,0.41463014483451843,0.6262938380241394,0.5126345157623291,0.21440860629081726,0.7120123505592346,0.44286760687828064,0.3032591938972473,0.5023065805435181,0.5531508326530457,0.9571998715400696,0.3106769919395447,0.5403212308883667,0.613259494304657,1.1843607425689697,0.4500975012779236,0.25239720940589905,0.49667808413505554,0.6102014183998108,0.34413251280784607,0.6110882759094238,0.5733453035354614,0.4723798334598541,0.25680601596832275,0.40733474493026733,0.5320668816566467,1.1686054468154907,0.8183375000953674,0.5472668409347534,1.1139146089553833,0.8257967829704285,0.3368188440799713,0.8118800520896912,0.412773460149765,0.5128487944602966,0.7338658571243286,0.5545107126235962,0.4397541880607605,0.39591991901397705,0.36323240399360657,0.3305952847003937,0.8733968138694763,0.39907974004745483]},"features.5.block.0.weight":{"shape":[48,1,3,3],"data":[-0.1893560290336609,0.16678117215633392,0.06368774175643921,-0.3046906888484955,0.3281114101409912,-0.23267093300819397,-0.29909637570381165,0.040930189192295074,0.2248750627040863,-0.15941128134727478,0.2366546392440796,-0.17200630903244019,-0.23410268127918243,0.0013101910008117557,-0.3733561933040619,-0.4199720621109009,-0.12124598771333694,-0.2378665804862976,0.15727360546588898,0.26119956374168396,0.15267011523246765,0.1312693953514099,0.33393019437789917,0.267551988363266,0.16337350010871887,0.33736085891723633,0.2732164263725281,-0.10875546187162399,0.023162048310041428,0.16081155836582184,0.1407409906387329,0.3246404230594635,0.27853232622146606,-0.17546327412128448,0.16436658799648285,0.2943791449069977,0.08381891250610352,0.24279776215553284,0.142155721783638,-0.2668827176094055,-0.3326796591281891,-0.43804702162742615,0.04836883395910263,0.31759709119796753,0.13541118800640106,-0.11406933516263962,-0.05306151136755943,-0.4979363679885864,0.020800743252038956,0.288878470659256,0.3597675859928131,-0.07838662713766098,-0.25305622816085815,-0.21514521539211273,-0.1502932906150818,-0.03766173496842384,-0.4202348589897156,0.02603127248585224,0.20643486082553864,0.26416799426078796,-0.02103813923895359,0.38564130663871765,0.33968114852905273,-0.0736842080950737,0.1195448487997055,0.17193259298801422,-0.2582365572452545,0.2217707633972168,0.5066651105880737,-0.21141980588436127,0.24875269830226898,-0.007819557562470436,-0.34233587980270386,0.07962066680192947,0.23768548667430878,0.11906520277261734,0.4108819365501404,0.28396737575531006,0.17150789499282837,0.2842842936515808,0.26520150899887085,-0.47624528408050537,0.04707443341612816,0.12195082008838654,-0.23217570781707764,0.08367504179477692,0.21776367723941803,-0.2117617130279541,0.20817512273788452,0.05887877941131592,0.2680639922618866,0.2689861059188843,0.1661740392446518,-0.19163335859775543,-0.24424180388450623,-0.17873750627040863,-0.032061606645584106,-0.09048986434936523,-0.06705112010240555,0.040348492562770844,0.33268821239471436,0.22076383233070374,0.17171978950500488,0.36432528495788574,0.09004225581884384,0.2118641585111618,0.33988943696022034,0.08145616948604584,0.1386132389307022,0.15436382591724396,-0.09317954629659653,0.27876415848731995,0.2586485743522644,-0.24503003060817719,0.3773379623889923,0.27378371357917786,-0.31028616428375244,0.08724832534790039,-0.3293980658054352,0.28123414516448975,-0.013186921365559101,-0.3093021810054779,0.2388661503791809,-0.0893736481666565,-0.23431605100631714,0.2202763557434082,-0.29086244106292725,-0.14760561287403107,-0.4815354645252228,-0.2577465772628784,0.06536020338535309,-0.22176378965377808,-0.23141738772392273,-0.14214950799942017,-0.32415929436683655,0.09631481021642685,-0.215526282787323,-0.467769056558609,0.25895217061042786,0.04895497113466263,0.017287882044911385,-0.17146159708499908,-0.3106841444969177,-0.2988625466823578,-0.35978659987449646,-0.39182472229003906,-0.24305152893066406,0.010249988175928593,0.015573573298752308,-0.05292705446481705,0.1997695416212082,0.23010306060314178,0.04368274658918381,0.2701858878135681,0.29734599590301514,-0.05287427455186844,0.32883259654045105,0.33387598395347595,0.08742547780275345,0.15504027903079987,0.3137359023094177,0.009276516735553741,0.271721750497818,-0.13104967772960663,-0.34435656666755676,0.0788649469614029,-0.22997364401817322,-0.35292893648147583,-0.17165805399417877,-0.5125938057899475,-0.27134305238723755,-0.2565564513206482,-0.04282842203974724,0.13426180183887482,0.2952573299407959,0.40218910574913025,0.2518671154975891,0.1370219588279724,0.3371630012989044,0.1697101593017578,-0.3076836168766022,0.0005805163527838886,0.21336610615253448,-0.277034193277359,0.24413730204105377,0.2018788903951645,0.06335072219371796,0.3167492151260376,0.16579791903495789,0.0039085703901946545,0.18756650388240814,-0.27770400047302246,0.18730401992797852,0.21396170556545258,0.20727407932281494,0.24847345054149628,0.27485591173171997,0.13224747776985168,-0.05587244778871536,-0.23022858798503876,-0.13732776045799255,-0.010046768002212048,-0.280976802110672,-0.26141586899757385,0.03425305336713791,-0.24228426814079285,-0.38465678691864014,-0.39428532123565674,0.10887576639652252,0.27420270442962646,-0.03551242873072624,0.25849735736846924,0.38134968280792236,-0.07080913335084915,0.23631338775157928,0.3707484006881714,0.335945725440979,0.02872653491795063,-0.30059757828712463,0.41081997752189636,-0.004867411218583584,-0.21417616307735443,0.2543816566467285,0.07440374046564102,-0.42965781688690186,-0.24336262047290802,-0.0762176364660263,0.187437042593956,-0.04716216400265694,0.21676909923553467,0.26683518290519714,0.040359016507864,0.2656545042991638,0.2280639111995697,0.1456434726715088,0.047472257167100906,-0.09674335271120071,0.24570250511169434,0.30967283248901367,0.08983541280031204,0.2414737343788147,0.315929651260376,-0.19100342690944672,-0.08190413564443588,-0.17715591192245483,-0.4514749050140381,-0.2916790843009949,-0.07766994088888168,-0.2222050130367279,-0.2960595190525055,-0.1479654312133789,-0.20027907192707062,-0.21498467028141022,0.08275250345468521,0.13183483481407166,0.032075975090265274,0.35558444261550903,0.39571186900138855,-0.2081485390663147,0.1510888636112213,0.33884143829345703,0.13485322892665863,0.07993066310882568,-0.08334274590015411,0.210576593875885,0.0914546549320221,-0.266292929649353,0.3191438913345337,-0.05021671578288078,-0.332276850938797,0.01796727254986763,0.18898075819015503,0.3906674385070801,0.040567316114902496,-0.11968430131673813,-0.05264068394899368,-0.4609251618385315,-0.39819929003715515,-0.19446901977062225,0.1276918351650238,0.3099169135093689,0.10228701680898666,0.1253809630870819,0.16207152605056763,0.08037545531988144,-0.40821725130081177,-0.292330801486969,-0.400614857673645,-0.06864389777183533,0.2818564176559448,0.24234232306480408,0.16473017632961273,0.23515336215496063,0.3148898482322693,0.2032131552696228,0.13499008119106293,0.11046609282493591,-0.02050408162176609,-0.104607492685318,-0.16121764481067657,-0.45155689120292664,-0.4435388147830963,-0.17963798344135284,-0.015605396591126919,-0.032051097601652145,0.14616352319717407,0.08703085035085678,-0.296711802482605,0.21187849342823029,0.24459029734134674,-0.31614720821380615,0.2147795855998993,0.24301043152809143,-0.3562858998775482,0.19827277958393097,0.01184218842536211,-0.3192664682865143,-0.38432079553604126,-0.08882679045200348,-0.28086695075035095,-0.039662059396505356,-0.17021314799785614,-0.5481687188148499,-0.3332262635231018,-0.3672618865966797,0.15774254500865936,0.17984916269779205,0.045918580144643784,0.2233739197254181,0.15604044497013092,0.0349741093814373,0.32704460620880127,0.3023373782634735,0.06807179749011993,0.21709196269512177,0.03015735186636448,0.11781778931617737,0.011017488315701485,-0.053507715463638306,-0.39265647530555725,-0.6060210466384888,-0.4506390690803528,-0.1743280589580536,0.19008998572826385,0.3088175058364868,-0.12778827548027039,0.20908118784427643,0.2634047567844391,-0.10215162485837936,0.05629320815205574,0.18552373349666595,0.036515720188617706,0.27852874994277954,0.22818481922149658,-0.32927533984184265,-0.11326748877763748,0.11102264374494553,-0.14881211519241333,-0.4680638611316681,-0.4746730625629425,-0.39715471863746643,-0.3992546498775482,-0.2223491370677948,-0.2841126620769501,-0.3956855237483978,-0.15803316235542297,-0.0838899090886116,-0.21836726367473602,-0.17535623908042908,0.3638369143009186,0.21105611324310303,-0.21979354321956635,0.30716949701309204,0.21859204769134521,-0.22583812475204468,0.30860838294029236,0.1731613576412201,-0.038575027137994766,0.12180781364440918,-0.08168239891529083,0.4471123516559601,-0.04053288698196411,-0.27009740471839905,0.43644246459007263,0.043549127876758575,-0.3365190029144287,0.3643096387386322,-0.30127668380737305,-0.2408604770898819,-0.04094916209578514,-0.09718794375658035,-0.22286416590213776,-0.2978774607181549,-0.07946889102458954,-0.20866712927818298,-0.2468138039112091,-0.3813047707080841,0.07666020840406418,0.14200495183467865,-0.14667938649654388,0.25906479358673096,0.14351002871990204,-0.16947640478610992,0.3360903561115265,0.28327110409736633,-0.1361655592918396,0.14457502961158752,0.2941138446331024,-0.0024035805836319923,0.043857965618371964,0.22521643340587616,0.012705938890576363,-0.18434523046016693,-0.6691716313362122,-0.2535090148448944,0.23080916702747345,-0.14906322956085205,-0.1028531864285469,0.3181196451187134,-0.1722608357667923,-0.16216228902339935,0.1983700841665268,-0.342241495847702,-0.10076986253261566,0.13993488252162933,0.15705296397209167,-0.269159734249115,0.13918732106685638,0.2353377491235733,-0.36011987924575806,0.1098274365067482,0.22615079581737518]},"features.5.block.1.weight":{"shape":[48],"data":[0.7937487363815308,0.9671152830123901,0.9147405624389648,0.8330896496772766,0.9513320922851562,0.9373462200164795,0.9176082015037537,0.8379420042037964,0.9258260726928711,0.9320588707923889,0.9573935866355896,0.9607217311859131,0.9768727421760559,0.9069185853004456,1.107677936553955,1.0303035974502563,1.1876295804977417,0.9370366334915161,1.1296184062957764,0.9380004405975342,1.043953537940979,0.6901259422302246,1.2019846439361572,0.9416266083717346,0.831467866897583,0.9099697470664978,0.9612417817115784,1.1448473930358887,0.9476770162582397,0.9406983256340027,1.0894901752471924,1.000884771347046,0.8728655576705933,1.0747209787368774,0.9744288921356201,1.249343991279602,0.9455187916755676,1.4138799905776978,0.9569026231765747,1.235312819480896,0.949192225933075,0.8485961556434631,0.8354554772377014,1.0477432012557983,0.9183682799339294,1.108659029006958,0.9022665619850159,0.8784806132316589]},"features.5.block.1.bias":{"shape":[48],"data":[-0.19932855665683746,-0.1645299345254898,-0.47491756081581116,-0.016480443999171257,-0.18986876308918,-0.4907568097114563,-0.18306368589401245,-0.02647058479487896,-0.29385003447532654,0.2930801808834076,-0.24124588072299957,-0.46535560488700867,-0.24504271149635315,-0.3056689500808716,0.034964900463819504,0.05773075670003891,-0.7489266991615295,0.00196638866327703,0.47122156620025635,-0.3435669243335724,-0.12737713754177094,-1.0088233947753906,0.1209588348865509,-0.3195638954639435,-0.2147250771522522,0.013367068022489548,-0.09143278747797012,0.0689452514052391,-0.346681147813797,-0.9162130355834961,-0.18266774713993073,-0.3461427092552185,-0.18735967576503754,0.24912157654762268,0.7089769244194031,0.11954150348901749,-0.46777838468551636,-0.021435722708702087,0.13345523178577423,-0.10665024071931839,-0.047752343118190765,-0.08650577813386917,-0.21358448266983032,0.10136000066995621,-0.7261202931404114,-0.3415674567222595,-0.3932914733886719,-0.2528151571750641]},"features.5.block.1.running_mean":{"shape":[48],"data":[-0.005702491849660873,-0.6286312341690063,0.12247264385223389,0.4227343499660492,-0.018791021779179573,-0.13772103190422058,0.07487882673740387,0.05387246981263161,0.1120339035987854,-0.055656056851148605,-0.07204709202051163,0.6719515919685364,0.07523787766695023,-0.06026632338762283,-0.8250695466995239,-0.21345993876457214,-0.11078472435474396,0.2834414541721344,-0.32217535376548767,0.04540884494781494,0.21564044058322906,0.051475390791893005,-0.5315916538238525,0.1646876037120819,0.06707119196653366,0.032175321131944656,0.16606968641281128,-0.3551549017429352,0.04722662270069122,0.037028759717941284,-0.23262636363506317,-0.08699128776788712,0.5412516593933105,-0.41011181473731995,0.08966211974620819,-0.5653634071350098,0.058256905525922775,-0.3852417767047882,0.12665778398513794,-0.17684580385684967,-0.9130033254623413,0.19221779704093933,0.26744890213012695,-0.6620810031890869,0.03548264503479004,-0.034252334386110306,-0.1493144929409027,0.01034504547715187]},"features.5.block.1.running_var":{"shape":[48],"data":[0.00962106417864561,0.11939442902803421,0.05291888862848282,0.1484779715538025,0.07819570600986481,0.09926730394363403,0.06697043031454086,0.04021165519952774,0.050886426120996475,0.15016162395477295,0.04257435351610184,0.1611713320016861,0.06830566376447678,0.13666166365146637,0.8315940499305725,0.16714975237846375,0.18568550050258636,0.16320931911468506,0.36509326100349426,0.010378911159932613,0.39085909724235535,0.01255191769450903,0.4263828992843628,0.07615422457456589,0.13768595457077026,0.013225127011537552,0.0424371175467968,0.16826646029949188,0.024982905015349388,0.06613866239786148,0.3606911897659302,0.3035793900489807,0.2789817154407501,0.33007052540779114,0.10333698242902756,0.6200147271156311,0.020777113735675812,0.772545337677002,0.09006834775209427,0.2843164801597595,0.26159340143203735,0.09773684293031693,0.09142148494720459,0.5795237421989441,0.028828702867031097,0.09962214529514313,0.09400336444377899,0.00967581756412983]},"features.5.block.3.weight":{"shape":[64,48,1,1],"data":[-0.07004107534885406,-0.010228626430034637,-0.13095469772815704,0.16351698338985443,0.228514164686203,-0.02503341995179653,0.07906361669301987,-0.14363130927085876,0.16012832522392273,-0.0008124852320179343,0.003244098974391818,0.11983844637870789,0.1080300509929657,-0.047383394092321396,-0.07991551607847214,0.20571595430374146,0.2678340673446655,-0.07459727674722672,-0.20506450533866882,-0.08170020580291748,0.25382205843925476,-0.1034814640879631,0.33289963006973267,0.08845140784978867,0.05133578181266785,-0.16482676565647125,-0.07228996604681015,0.10721418261528015,0.08163836598396301,0.3576836585998535,-0.10136786848306656,0.0672544315457344,-0.11398469656705856,0.036072731018066406,-0.01994563452899456,0.29699409008026123,-0.06832832843065262,0.13138152658939362,-0.18831825256347656,0.36236873269081116,0.19005361199378967,0.0008834542240947485,0.07721639424562454,-0.2812213599681854,0.06769681721925735,0.0263043362647295,0.15454751253128052,0.2249196469783783,-0.06805521994829178,0.05917389318346977,0.12145406007766724,-0.1310448795557022,0.07830516993999481,0.14040911197662354,-0.01699627749621868,-0.18294768035411835,-0.16252532601356506,0.050700731575489044,0.08067026734352112,0.09363705664873123,0.19243906438350677,-0.1168731153011322,-0.2439541220664978,0.2724386751651764,0.07265295088291168,0.05579632893204689,-0.050201788544654846,-0.16765736043453217,0.17998450994491577,-0.20678196847438812,-0.11661659181118011,-0.04988008737564087,0.17413941025733948,-0.11966104805469513,0.14141976833343506,0.3051784038543701,-0.01997523009777069,-0.26316025853157043,0.12588974833488464,0.18541455268859863,-0.1485523283481598,0.07677871733903885,-0.11342290788888931,0.2196592390537262,0.15024980902671814,-0.22039452195167542,0.05222783237695694,-0.010111174546182156,-0.024554532021284103,-0.012807376682758331,0.007674033287912607,-0.3391987681388855,-0.15517783164978027,-0.09155064821243286,0.11358089745044708,0.09409458190202713,0.07887687534093857,0.234775573015213,-0.04995520040392876,0.04184417054057121,-0.02032800205051899,-0.19348952174186707,-0.09206639975309372,0.2537252604961395,-0.10657397657632828,