(function bootstrapCcxpLiteDecaptchaModel(globalScope, factory) {
  const model = factory();
  const namespace = globalScope.CCXP_LITE || (globalScope.CCXP_LITE = {});
  namespace.decaptchaModel = model;

  if (typeof module === "object" && module.exports) {
    module.exports = model;
  }
})(typeof globalThis !== "undefined" ? globalThis : this, function createCcxpLiteDecaptchaModel() {
  return {"digits":6,"maxValidWidth":100,"eps":1e-05,"tensors":{"0.weight":{"shape":[16,3,3,3],"data":[0.3105006515979767,-0.17850936949253082,-0.036375708878040314,0.17218837141990662,-0.27461549639701843,0.0015824096044525504,-0.19776393473148346,0.204817533493042,0.3009341359138489,0.23750127851963043,-0.08378712832927704,-0.12957161664962769,0.20351673662662506,-0.17216245830059052,0.0681014433503151,-0.15497688949108124,-0.06881093233823776,0.306154727935791,0.2913362681865692,-0.05869385227560997,-0.215768501162529,0.14830826222896576,-0.2649126350879669,0.00414461363106966,-0.32368117570877075,0.09437842667102814,0.3192225694656372,-0.18285711109638214,-0.2762649953365326,-0.36400407552719116,-0.030136054381728172,-0.05841526389122009,-0.1491624265909195,-0.35361096262931824,-0.006618563085794449,-0.18855814635753632,-0.2843549847602844,-0.2629459798336029,-0.19613897800445557,-0.0902460590004921,-0.0466763973236084,-0.22261852025985718,-0.17943383753299713,-0.06900312006473541,-0.038846537470817566,-0.1979253888130188,-0.14405177533626556,-0.21363681554794312,-0.10051053762435913,-0.08609894663095474,-0.3132193982601166,0.03860919550061226,-0.04493134841322899,-0.22290116548538208,-0.2483775019645691,0.2697485089302063,0.15485167503356934,0.0361761637032032,0.23930783569812775,-0.21285825967788696,0.24611727893352509,-0.00021717378695029765,-0.23128411173820496,-0.1676853746175766,0.24008995294570923,0.06929169595241547,-0.07588576525449753,0.192701056599617,-0.26984545588493347,0.054813921451568604,-0.0069626858457922935,-0.07297595590353012,-0.1126006469130516,0.2659801244735718,0.0901271253824234,-0.030129602178931236,0.34678933024406433,-0.4052882790565491,0.3790152072906494,0.0291898250579834,-0.18908347189426422,-0.1258966028690338,-0.025671672075986862,0.21108181774616241,-0.3088020086288452,0.1529708355665207,0.10729184001684189,-0.10983666032552719,0.3733117878437042,-0.38614168763160706,-0.012111952528357506,0.1095949336886406,0.023586414754390717,-0.2577109634876251,0.2911965548992157,-0.0840415358543396,-0.1596500724554062,0.32523754239082336,-0.18826964497566223,-0.09576725959777832,-0.020797431468963623,0.14000478386878967,-0.23183046281337738,0.21227382123470306,0.017626071348786354,-0.09835910052061081,0.24325624108314514,-0.10095980018377304,-0.09862653911113739,0.31484490633010864,-0.3548477292060852,0.3767828345298767,-0.10293684899806976,-0.07818090170621872,0.31609293818473816,-0.30748364329338074,0.06642118841409683,0.14275899529457092,0.04332291707396507,-0.2929159998893738,0.3005981147289276,-0.23750312626361847,-0.03220184147357941,0.23022419214248657,-0.18995380401611328,0.03694950044155121,0.1447356641292572,-0.05938532203435898,-0.16757115721702576,0.21331769227981567,-0.041094645857810974,-0.09281116724014282,0.1513744294643402,0.009855068288743496,-0.03633565828204155,0.10809504985809326,-0.4412493109703064,-0.04563293978571892,-0.0579046867787838,-0.30149999260902405,0.19502946734428406,0.31087660789489746,0.11704101413488388,0.40205755829811096,-0.08840252459049225,-0.20357897877693176,0.12711280584335327,-0.10011203587055206,-0.21409189701080322,0.06965208798646927,-0.03567861393094063,0.31115588545799255,0.23855875432491302,-0.11976218223571777,-0.19949068129062653,0.05244630202651024,0.03175674378871918,-0.31916236877441406,0.1945517212152481,0.14938108623027802,0.27981385588645935,0.13276515901088715,0.20927076041698456,0.4080636501312256,0.24284885823726654,-0.2273271679878235,-0.08702696114778519,0.10268149524927139,-0.10044176131486893,-0.3519062101840973,-0.1057642251253128,0.15826712548732758,0.3097476363182068,0.05791006609797478,-0.22118818759918213,-0.09734083712100983,0.18971186876296997,-0.09171523153781891,-0.12018201500177383,-0.1488284468650818,0.21235422790050507,0.17639568448066711,0.23405338823795319,-0.19179195165634155,0.005150853656232357,0.1370975524187088,-0.10615081340074539,-0.3311295807361603,-0.10030712932348251,0.04733579233288765,0.2607753872871399,-0.2115860879421234,0.19757576286792755,-0.13248211145401,-0.13210372626781464,-0.37845513224601746,-0.08099165558815002,-0.00622149184346199,0.2489720731973648,0.12358071655035019,-0.15031415224075317,0.1593184769153595,-0.2128562331199646,-0.25555628538131714,-0.2815895676612854,-0.019183112308382988,0.006569591350853443,0.21274125576019287,0.18139521777629852,-0.06099295988678932,0.3407386541366577,-0.25040167570114136,-0.20401142537593842,-0.19915927946567535,-0.26025137305259705,0.06267739087343216,0.12770451605319977,0.022669536992907524,-0.31480568647384644,0.1423284262418747,0.31009042263031006,-0.0207329411059618,-0.31597480177879333,0.22088414430618286,0.06550869345664978,0.1331019550561905,0.01935192011296749,-0.2979362905025482,0.21537423133850098,0.178216814994812,-0.10360760986804962,-0.3086177408695221,0.14850033819675446,0.15858976542949677,0.16174045205116272,-0.04351310059428215,-0.1808498352766037,0.25254929065704346,0.23506373167037964,-0.17379826307296753,-0.19006682932376862,0.20475417375564575,0.12252353131771088,0.16861966252326965,-0.11717290431261063,-0.2443671077489853,-0.07127231359481812,0.052037570625543594,-0.20609165728092194,0.1992286741733551,0.31579238176345825,-0.02029201202094555,0.307282954454422,-0.2032816857099533,-0.2406436800956726,0.08096268773078918,0.05679292604327202,-0.21398913860321045,-0.08652001619338989,0.3003556430339813,-0.043457429856061935,0.13760867714881897,-0.05634642019867897,-0.2943565249443054,-0.040653716772794724,-0.06390874832868576,-0.24711783230304718,0.12124514579772949,0.4095142185688019,-0.0644802525639534,-0.04655013233423233,0.0035781285259872675,-0.08657946437597275,-0.12360314279794693,-0.31877440214157104,0.5425462126731873,-0.1568179875612259,-0.09823264181613922,0.12799057364463806,-0.12894783914089203,-0.2597876191139221,0.13441334664821625,-0.0053339130245149136,-0.27745702862739563,0.28778818249702454,0.04003957286477089,-0.11364775151014328,0.3122176229953766,-0.22060789167881012,-0.1323528289794922,0.19049331545829773,-0.1690990924835205,-0.2139475792646408,0.23427288234233856,-0.007593479007482529,-0.10622178018093109,0.22794567048549652,-0.1295371949672699,-0.27256184816360474,0.14537470042705536,0.1596459299325943,-0.16393236815929413,-0.10906572639942169,0.21823030710220337,-0.09142507612705231,0.0012251208536326885,0.04124787449836731,-0.37740054726600647,0.18098466098308563,0.19861917197704315,-0.31390950083732605,-0.07218248397111893,0.20282605290412903,0.0065071159042418,-0.06041335687041283,0.07614410668611526,-0.3541937470436096,0.1363740861415863,0.22664955258369446,-0.3358306288719177,-0.11433576047420502,0.2565482258796692,-0.06810041517019272,0.1322428286075592,-0.28013885021209717,0.12623263895511627,-0.24789898097515106,0.2089190036058426,0.0625685602426529,-0.026639139279723167,0.013705289922654629,-0.18941831588745117,0.17681249976158142,-0.34450826048851013,0.13297103345394135,-0.17796112596988678,0.2660413086414337,0.011825847439467907,0.2466699331998825,0.03432951867580414,-0.16713443398475647,0.01580960489809513,-0.2044004499912262,-0.022364040836691856,-0.09840044379234314,0.365408718585968,0.06983812898397446,0.11006443947553635,0.05790784955024719,-0.24764522910118103,0.15921448171138763,-0.19087311625480652,0.011288630776107311,0.42947837710380554,0.13549882173538208,-0.2881539762020111,-0.1601019948720932,0.31161776185035706,0.12730127573013306,-0.1277952343225479,-0.14492888748645782,0.13756106793880463,0.244862899184227,0.16852416098117828,-0.2224394828081131,-0.15448740124702454,0.18646685779094696,0.06514870375394821,-0.07460099458694458,-0.26790881156921387,-0.03939283639192581,0.41377270221710205,0.1961582899093628,-0.19569720327854156,-0.16457752883434296,0.29685863852500916,0.14198271930217743,-0.1452716439962387,0.08360330760478973,-0.30928313732147217,0.09091712534427643,-0.3956451117992401,0.04019754007458687,-0.08737728744745255,0.05505606532096863,0.38362300395965576,-0.09340287744998932,0.0528080090880394,-0.357470840215683,0.002007054630666971,-0.31049999594688416,-0.012595396488904953,-0.08073145896196365,0.15589983761310577,0.3555331528186798,-0.0662483423948288,0.0018282374367117882,-0.15384282171726227,0.03671085834503174,-0.3553091287612915,-0.14267225563526154,-0.11231272667646408,0.10410787165164948,0.3449828028678894,0.09381242096424103,0.0967184379696846,-0.0083855502307415,0.28549158573150635,0.26624616980552673,0.061421506106853485,0.011980948969721794,0.2294752597808838,-0.11223866790533066,0.2511669993400574,0.04625613987445831,0.00012859643902629614,0.40631505846977234,0.4267801344394684,0.044990841299295425,0.26799970865249634,0.3406858444213867,-0.16431494057178497,-0.057187896221876144,0.036322809755802155,-0.07956595718860626,0.32088837027549744,0.23440171778202057,-0.13043808937072754,0.19965597987174988,0.19684909284114838,-0.09125539660453796,0.10507895797491074]},"0.bias":{"shape":[16],"data":[0.2740320563316345,-0.07110559940338135,-0.2666398584842682,-0.024770809337496758,0.19762350618839264,-0.14478139579296112,0.273864209651947,-0.22647599875926971,0.1970820128917694,-0.19570420682430267,0.07830190658569336,0.035883110016584396,0.03954746201634407,0.04425822198390961,0.15152287483215332,-0.16117286682128906]},"1.weight":{"shape":[16],"data":[0.9709337949752808,0.8749448657035828,1.0421210527420044,0.8658004999160767,1.023445963859558,0.8901699781417847,1.3502159118652344,0.7926151156425476,0.993295431137085,1.0372825860977173,0.8952814936637878,1.1347042322158813,0.928020179271698,1.0297499895095825,1.045262098312378,0.7051647305488586]},"1.bias":{"shape":[16],"data":[-0.3066196143627167,-0.21551498770713806,-0.14010316133499146,0.20327185094356537,-0.14365673065185547,-0.06218806281685829,-0.21969906985759735,-0.3718392252922058,0.16867801547050476,-0.5295505523681641,-0.2059600055217743,-0.7363091111183167,0.004800501745194197,-0.18729335069656372,-0.1796789914369583,0.2365613579750061]},"1.running_mean":{"shape":[16],"data":[0.6482318639755249,-3.7083444595336914,0.22692732512950897,0.13539718091487885,0.2429855763912201,0.39763709902763367,0.3634011447429657,-1.216084599494934,0.9005060791969299,-0.3188667893409729,-0.13058121502399445,-0.5138115882873535,0.12065678089857101,0.561188280582428,-0.3686036169528961,2.468702793121338]},"1.running_var":{"shape":[16],"data":[0.08270638436079025,0.6489154100418091,0.08345931023359299,0.24036893248558044,0.4044029414653778,0.12627023458480835,0.30392587184906006,0.12775279581546783,0.07621173560619354,0.16881270706653595,0.18036819994449615,0.2401321828365326,0.07784558087587357,0.11179572343826294,0.10869764536619186,0.5208841562271118]},"3.weight":{"shape":[16,16,3,3],"data":[-0.2519376575946808,-0.46846282482147217,-0.2554273009300232,0.051370780915021896,-0.2541484236717224,-0.18491560220718384,0.09711188822984695,0.013714372180402279,-0.29374122619628906,0.1315561980009079,0.001247367006726563,-0.0054660364985466,0.23341581225395203,0.14220891892910004,0.10822634398937225,0.14949870109558105,-0.0077083054929971695,0.010266869328916073,-0.14589743316173553,-0.15213429927825928,0.13143596053123474,0.1723744422197342,-0.17584992945194244,0.015849146991968155,0.10369878262281418,0.23362861573696136,-0.4411507844924927,-0.4220931828022003,-0.09247970581054688,-0.012296090833842754,-0.27791285514831543,-0.018380392342805862,0.24419298768043518,-0.05550898239016533,0.07623719424009323,0.056252170354127884,0.09774734079837799,-0.1139768436551094,0.01607980765402317,0.08401623368263245,-0.09404519945383072,-0.23723477125167847,0.1883319914340973,-0.12982498109340668,0.0713239386677742,0.16896659135818481,-0.2515223026275635,-0.0012883906019851565,0.11287431418895721,-0.01765088178217411,0.04383306950330734,-0.07049983739852905,-0.19806478917598724,-0.19744588434696198,0.13018468022346497,-0.16817602515220642,-0.25575533509254456,0.23840396106243134,-0.19216293096542358,-0.25995129346847534,0.1705910712480545,-0.10549742728471756,0.025513576343655586,0.16960248351097107,-0.0984586775302887,0.01714206486940384,0.32125774025917053,-0.057214077562093735,-0.014379806816577911,0.15784978866577148,-0.0384875163435936,-0.23698973655700684,0.1674756407737732,0.19337265193462372,-0.045773010700941086,-0.07741955667734146,0.03158134967088699,0.07756081223487854,-0.2913982570171356,-0.1529872566461563,0.38910210132598877,0.09081797301769257,0.30795344710350037,0.1723097264766693,-0.059049565345048904,0.15003752708435059,-0.013283035717904568,0.20032666623592377,0.14947225153446198,0.0652291551232338,0.0199645534157753,0.1473926603794098,-0.040081530809402466,0.03724052384495735,-0.0012176259187981486,0.14316946268081665,-0.1816674768924713,-0.008807195350527763,0.29397350549697876,-0.1405983865261078,0.3657734990119934,0.27575376629829407,-0.14490965008735657,0.35407739877700806,0.31455516815185547,-0.06656914204359055,0.19044062495231628,0.28631940484046936,-0.12837453186511993,-0.2507621943950653,-0.3854244649410248,-0.20327210426330566,-0.1826278120279312,-0.10030482709407806,-0.05188451334834099,0.0694209486246109,-0.04082293063402176,0.010196764953434467,-0.13695596158504486,-0.2275511920452118,-0.055992040783166885,-0.14536678791046143,-0.19709786772727966,-0.00767066515982151,-0.11804118752479553,0.172855943441391,0.0687560886144638,-0.3028854727745056,-0.16204552352428436,0.12521591782569885,-0.3795569837093353,-0.14914892613887787,-0.040518466383218765,-0.13815155625343323,-0.03182268515229225,-0.08876585215330124,-0.015466355718672276,0.23028695583343506,-0.24494418501853943,-0.1377508044242859,0.050923414528369904,-0.1676253080368042,0.003434638027101755,0.13237787783145905,-0.3178137540817261,0.12686552107334137,0.11843328922986984,-0.2733963429927826,-0.22189493477344513,-0.030873479321599007,0.004147344268858433,-0.09113099426031113,-0.2229248583316803,0.1809876710176468,-0.4614342153072357,0.041244182735681534,0.18976885080337524,-0.05359986051917076,0.12116097658872604,0.1396949589252472,0.003592216642573476,0.02073909156024456,-0.1537761390209198,0.032353725284338,0.22578005492687225,-0.22430774569511414,-0.16994528472423553,0.15059232711791992,-0.032624416053295135,-0.09244928508996964,0.05951196327805519,-0.02708667330443859,0.08243498206138611,0.2514716684818268,0.15919864177703857,-0.07639922946691513,0.07972198724746704,0.14116273820400238,-0.11651993542909622,0.15635477006435394,0.1466563194990158,0.2822906970977783,0.23569844663143158,0.059499289840459824,-0.20557670295238495,-0.06471924483776093,-0.04030070826411247,0.025458458811044693,0.09962990134954453,-0.13837198913097382,-0.014057989232242107,0.030444717034697533,-0.01060065720230341,-0.028343189507722855,0.06591320782899857,-0.3176383078098297,-0.3242095708847046,-0.12117832899093628,-0.12403623759746552,-0.09615422785282135,-0.14755527675151825,0.06308583915233612,-0.06274016946554184,0.030972154811024666,-0.01970311626791954,0.2804124355316162,0.26889726519584656,-0.03814704343676567,-0.14383946359157562,-0.04192277044057846,0.07179423421621323,-0.14511613547801971,-0.031514398753643036,-0.007895637303590775,-0.3224009573459625,-0.29930248856544495,0.045951105654239655,0.007677886169403791,-0.19928975403308868,0.059635452926158905,-0.008364730514585972,-0.04602453485131264,-0.1536070853471756,0.16101041436195374,0.18238933384418488,0.2990410029888153,0.48871684074401855,-0.02979092486202717,0.2077423632144928,0.17354610562324524,0.1357124298810959,0.09337077289819717,0.31263190507888794,0.15489517152309418,0.28683194518089294,-0.0028154912870377302,0.00845316145569086,0.05059986561536789,0.026523064821958542,0.03573451191186905,-0.013400854542851448,0.053928785026073456,-0.2201334834098816,0.20345652103424072,0.07552657276391983,-0.07560877501964569,0.06628561019897461,0.2573966085910797,0.18492262065410614,-0.0971919521689415,0.079392209649086,0.19774334132671356,-0.4278321862220764,-0.39137324690818787,0.0664498582482338,-0.1071060374379158,-0.1566358357667923,-0.005104153882712126,-0.08919532597064972,-0.13135290145874023,-0.053027715533971786,-0.32650843262672424,0.06029737740755081,-0.26628950238227844,-0.19878973066806793,0.0655585378408432,-0.17136144638061523,-0.21525369584560394,0.22249765694141388,0.16705679893493652,-0.3286285996437073,-0.2269311100244522,-0.10945817828178406,-0.1733148843050003,-0.2685176134109497,-0.2085954248905182,0.08355171978473663,-0.1527847796678543,-0.18271049857139587,0.092906653881073,-0.033572468906641006,0.07465001940727234,-0.2820766270160675,-0.15265023708343506,-0.015522065572440624,-0.25674307346343994,-0.40977567434310913,-0.2547367811203003,0.1729968935251236,0.107937753200531,0.012491824105381966,0.022759588435292244,-0.03008214756846428,0.2287357747554779,-0.31645530462265015,-0.21819578111171722,-0.04499188810586929,0.04449549689888954,-0.2209462672472,-0.260409951210022,0.10378410667181015,0.055675070732831955,0.0250144824385643,0.10293878614902496,-0.007636156864464283,0.010769950225949287,0.09220035374164581,0.17852193117141724,0.14783090353012085,0.07610715925693512,-0.02015107125043869,0.03028266876935959,0.13566970825195312,0.11590072512626648,-0.23524144291877747,0.22798067331314087,0.12699595093727112,0.3333469033241272,0.09651528298854828,-0.06265438348054886,0.09002912789583206,-0.2652338743209839,0.0467086099088192,-0.4318479299545288,0.12173433601856232,0.23812206089496613,0.2868753671646118,-0.35859811305999756,0.1574915647506714,0.07026674598455429,-0.08272115141153336,0.07775522768497467,-0.14231553673744202,-0.016788387671113014,0.3039030134677887,0.1370975822210312,-0.1052086278796196,-0.052895303815603256,0.03691018745303154,-0.0777675062417984,-0.0837160125374794,-0.13928194344043732,-0.02221308834850788,-0.09746048599481583,-0.2051737904548645,-0.023161176592111588,0.06782215088605881,-0.20369814336299896,0.0762595385313034,-0.11851074546575546,0.1331518292427063,0.19968260824680328,0.1696562021970749,0.03385182097554207,-0.27564311027526855,0.013293043710291386,0.06206250563263893,-0.17552384734153748,-0.09600984305143356,-0.26796770095825195,-0.10810578614473343,-0.05908128246665001,-0.385663777589798,0.15366463363170624,0.014568088576197624,-0.3224167227745056,-0.10583753138780594,-0.024914737790822983,0.4284883737564087,0.05182625725865364,0.18829357624053955,0.0057477159425616264,0.173730731010437,0.26717308163642883,-0.3731330633163452,0.25676095485687256,0.2794160544872284,-0.25469422340393066,0.48180118203163147,0.11930680274963379,-0.11925286799669266,-0.05954733490943909,-0.0576791949570179,0.0163608156144619,0.11042256653308868,-0.08113057911396027,-0.2647038698196411,-0.23067989945411682,0.2567412257194519,0.2676829993724823,-0.06459776312112808,0.21520203351974487,0.00999006349593401,0.044422999024391174,0.36749064922332764,0.17167392373085022,-0.22086411714553833,0.2704780697822571,0.20790351927280426,-0.22559671103954315,0.04669254273176193,0.28404635190963745,0.004413416143506765,0.061964359134435654,-0.03705991432070732,0.022696159780025482,-0.1206962838768959,-0.196562722325325,-0.27344197034835815,-0.0321405827999115,-0.16346797347068787,-0.174459770321846,0.17844539880752563,0.16707958281040192,-0.345452219247818,-0.1439904421567917,-0.06793949753046036,-0.29860052466392517,-0.1662498414516449,0.21888980269432068,-0.2452077716588974,-0.1350315660238266,0.23147651553153992,-0.003435497172176838,-0.056837860494852066,-0.1801273077726364,-0.015240351669490337,-0.07458633929491043,-0.0006933294353075325,0.03563538193702698,-0.18389813601970673,-0.04835326969623566,-0.008815571665763855,-0.11293894052505493,-0.1488470882177353,-0.07313720881938934,-0.32695600390434265,-0.24852177500724792,0.0024256431497633457,-0.12001749128103256,-0.23080244660377502,-0.02688589133322239,-0.4116190969944,-0.17159540951251984,0.38313794136047363,-0.0168695580214262,-0.06281711906194687,0.21031910181045532,-0.030889589339494705,-0.29026108980178833,0.1265145093202591,-0.08830125629901886,-0.22357510030269623,0.10152014344930649,-0.016165658831596375,-0.24043086171150208,0.09251327067613602,0.06325723975896835,-0.5475158095359802,0.2714831829071045,0.041094712913036346,0.20703423023223877,-0.024507010355591774,0.1635352224111557,0.4346409738063812,0.03272469341754913,0.18268164992332458,0.007812243886291981,0.07493129372596741,0.2238936722278595,0.020124182105064392,-0.07453971356153488,-0.10540790110826492,0.026363110169768333,0.1969604641199112,0.1078290343284607,-0.1345287710428238,0.27107512950897217,0.17056913673877716,-0.32594412565231323,0.02760901115834713,0.051376909017562866,-0.21879152953624725,-0.08875063806772232,0.04470600187778473,-0.2268601655960083,-0.2788107991218567,-0.27082598209381104,0.16564352810382843,-0.1462869793176651,-0.2694393992424011,0.0638962835073471,-0.12063559889793396,-0.14733938872814178,0.05035100877285004,0.257587194442749,0.05878356844186783,-0.07899396121501923,0.08938071131706238,0.0839838907122612,0.022384852170944214,0.03398217260837555,-0.14657852053642273,-0.2159741073846817,-0.10053300112485886,0.10821501165628433,0.3282853364944458,-0.017759758979082108,0.032494913786649704,0.1962854415178299,-0.15354031324386597,-0.052180156111717224,0.2501571774482727,-0.017239393666386604,0.07356508821249008,0.17936216294765472,0.07749214768409729,0.30407416820526123,0.3484652638435364,0.08616433292627335,0.09403961896896362,0.35193729400634766,0.20968350768089294,0.038928162306547165,0.342818021774292,0.05826406180858612,-0.050103455781936646,0.2721310555934906,-0.04081479087471962,0.04074675217270851,0.19178666174411774,-0.09966067969799042,0.2887047529220581,0.4917120039463043,-0.09144895523786545,0.16613802313804626,0.28053656220436096,-0.08770716190338135,0.15138299763202667,0.2351355403661728,-0.1133505180478096,-0.13802334666252136,-0.1929369419813156,-0.18183569610118866,-0.004001776687800884,-0.20900900661945343,-0.14374865591526031,-0.03619695082306862,-0.09660108387470245,0.06771481782197952,-0.12997125089168549,0.06501404941082001,-0.1647549867630005,-0.205062136054039,0.22319847345352173,-0.20007160305976868,-0.13691280782222748,0.2049105316400528,-0.08854447305202484,-0.018703900277614594,-0.1674044132232666,-0.10575186461210251,-0.14519181847572327,-0.23247824609279633,-0.06962641328573227,-0.23204508423805237,-0.12214165925979614,0.05871814116835594,-0.06541690975427628,-0.24540016055107117,0.039426252245903015,0.04078449308872223,-0.08545085787773132,-0.09024254977703094,-0.005613031331449747,0.05081117898225784,0.1296306848526001,-0.05379793047904968,-0.12180326133966446,0.09374827891588211,-0.1534852385520935,-0.2971361577510834,-0.1986595243215561,-0.04655596613883972,-0.06483299285173416,0.0433586910367012,0.1717662811279297,0.1843559592962265,0.04785286635160446,0.05309425666928291,0.013348902575671673,0.14679203927516937,-0.22462205588817596,-0.19540004432201385,0.1842564195394516,-0.07108592242002487,-0.2516842484474182,0.011153099127113819,0.09909896552562714,-0.39232996106147766,0.01221842598170042,0.06696689873933792,-0.23670944571495056,-0.10470104217529297,0.08494456857442856,-0.07032102346420288,-0.058686669915914536,-0.028438206762075424,-0.2351050227880478,-0.16534626483917236,0.08466560393571854,-0.13477292656898499,-0.008866550400853157,0.15241065621376038,-0.15917128324508667,0.16700592637062073,-0.020711001008749008,0.05924740433692932,0.1621488630771637,0.016929462552070618,0.023573480546474457,0.24994295835494995,-0.12511368095874786,-0.3855099081993103,0.17856253683567047,-0.17608977854251862,-0.36973756551742554,-0.25404661893844604,-0.09092514216899872,-0.07938510179519653,-0.12368351966142654,-0.2854141891002655,0.0968816876411438,0.017631657421588898,-0.15943841636180878,0.31593263149261475,0.3105335235595703,-0.15284687280654907,0.14819347858428955,0.035730332136154175,0.21643780171871185,-0.09291286021471024,0.032801512628793716,0.05533163249492645,-0.33637744188308716,-0.2002638429403305,-0.02912471815943718,-0.03366786241531372,0.13367973268032074,0.09984058886766434,0.3032532036304474,-0.016804294660687447,0.12035010010004044,0.3830024302005768,0.2259829342365265,0.2033035308122635,0.13375303149223328,-0.17996764183044434,-0.07163701206445694,0.06667523086071014,-0.02450815960764885,0.19197842478752136,0.3239910900592804,0.18530260026454926,0.15507057309150696,-0.10395348072052002,-0.10934454947710037,0.1922786384820938,0.016752775758504868,-0.24147002398967743,0.1575239598751068,0.005086589604616165,0.04117169231176376,0.245382621884346,-0.02018883265554905,-0.04873741418123245,0.033679839223623276,0.07636046409606934,-0.09813061356544495,0.21117667853832245,0.3601367473602295,0.3297097086906433,0.2753829061985016,-0.1207718625664711,0.13686572015285492,-0.26536673307418823,-0.0032896301709115505,-0.14499707520008087,-0.14849212765693665,-0.07334333658218384,-0.3319220542907715,-0.2708664536476135,0.1545902043581009,0.03573908656835556,0.14102785289287567,0.2430521547794342,0.21578463912010193,0.15362292528152466,0.34949588775634766,-0.021719837561249733,0.09059000015258789,0.23129186034202576,0.058801986277103424,-0.15328215062618256,0.08948934078216553,0.13595415651798248,-0.3311733901500702,0.15620483458042145,0.042184311896562576,-0.26521363854408264,0.26861828565597534,-0.11958321183919907,-0.3467620313167572,-0.23740865290164948,-0.15731552243232727,-0.10759957879781723,-0.1339641511440277,-0.26125258207321167,-0.16298465430736542,-0.1870042234659195,0.13697952032089233,-0.030123958364129066,0.23430396616458893,-0.07874105870723724,-0.12592697143554688,-0.05206487700343132,0.08837193995714188,-0.045249272137880325,-0.3132936656475067,-0.011111252941191196,-0.18602493405342102,-0.007757342886179686,0.08418571203947067,-0.02513173408806324,0.0418023057281971,0.03455156087875366,-0.036466192454099655,0.2292751520872116,0.1449865996837616,0.04323776811361313,0.11852563917636871,-0.05422966554760933,0.050936195999383926,0.27922922372817993,0.14510008692741394,0.09232842177152634,0.008381298743188381,-0.09829425811767578,-0.008274449035525322,0.2237146645784378,-0.017505984753370285,0.010857129469513893,0.43280255794525146,0.018030336126685143,0.09252715110778809,0.20219461619853973,-0.02269172854721546,-0.07124053686857224,0.33492985367774963,-0.024362949654459953,0.02426491677761078,0.28314676880836487,-0.1049996018409729,0.252582848072052,0.2540374994277954,0.44591760635375977,0.006805627141147852,0.1123928651213646,0.06910870224237442,-0.18743737041950226,-0.18390150368213654,0.14298847317695618,-0.22187282145023346,-0.10226761549711227,0.27900436520576477,-0.1961357444524765,-0.40795814990997314,-0.16382016241550446,-0.15887922048568726,-0.3604304790496826,-0.11078222841024399,-0.029453368857502937,-0.27886539697647095,0.33320680260658264,0.08960013091564178,0.09900309145450592,0.2477371245622635,-0.03862682357430458,0.019273029640316963,0.2916989326477051,-0.03716808930039406,-0.16207633912563324,-0.26408088207244873,-0.1795559823513031,-0.25584617257118225,-0.12643218040466309,-0.01822606287896633,0.037818990647792816,0.010316180065274239,0.0536545068025589,-0.00197588256560266,-0.06282668560743332,-0.16873405873775482,-0.3042472004890442,0.03631501644849777,0.2928873300552368,-0.012498833239078522,0.13281284272670746,0.05800719931721687,-0.012224998325109482,-0.34039306640625,0.13125362992286682,-0.0487348735332489,-0.11144983023405075,0.24512062966823578,0.34397879242897034,-0.42021840810775757,0.07778439670801163,0.43379542231559753,-0.1603715717792511,-0.10470344871282578,-0.03167739510536194,-0.191643625497818,0.1679587960243225,0.09271883219480515,-0.3207094073295593,0.3876688778400421,0.28236034512519836,0.02138606458902359,-0.12249638885259628,0.0931306704878807,-0.07973961532115936,0.01880389079451561,-0.028582947328686714,0.13388994336128235,-0.18831601738929749,0.13219031691551208,-0.030643081292510033,-0.19460895657539368,-0.033299803733825684,-0.031224612146615982,-0.1816374659538269,0.027217769995331764,0.178390234708786,0.3552754819393158,-0.062187302857637405,0.23854118585586548,-0.04953905940055847,0.14777295291423798,-0.06430511176586151,-0.06358473002910614,0.07013115286827087,0.21694432199001312,-0.11357597261667252,-0.33559688925743103,0.258355975151062,0.11358916014432907,0.10137911140918732,0.06329645961523056,-0.06679058820009232,-0.20165468752384186,0.19808858633041382,-0.28386807441711426,-0.38210466504096985,-0.0039716255851089954,0.0007483648369088769,-0.05954640731215477,0.0072302380576729774,-0.05007164180278778,-0.07289387285709381,0.09907298535108566,-0.20894554257392883,-0.0443999357521534,0.1962536722421646,-0.0729239359498024,-0.36357107758522034,-0.0075556556694209576,-0.10028286278247833,-0.28540098667144775,0.17810899019241333,0.016451707109808922,-0.2326066493988037,0.32864856719970703,0.1664709895849228,-0.27527743577957153,-0.09787844121456146,0.2744026780128479,-0.24956871569156647,0.05502623692154884,0.2966088354587555,-0.12526069581508636,0.3860396146774292,0.04226268455386162,-0.5360234975814819,-0.018217794597148895,0.008190639317035675,-0.2501862943172455,-0.11079634726047516,-0.08059829473495483,0.07021217793226242,0.04487782344222069,0.03925596550107002,-0.470159113407135,-0.3202076852321625,-0.11884667724370956,-0.117002934217453,-0.15703263878822327,0.10167267173528671,0.22897610068321228,0.2155551016330719,0.020916519686579704,0.04601758345961571,-0.09616497904062271,-0.05229477211833,0.10183610022068024,-0.0731012299656868,-0.054791755974292755,-0.1385011076927185,-0.1179368644952774,-0.0878395065665245,0.48414695262908936,0.019514285027980804,-0.07854107022285461,0.38616272807121277,0.06534940004348755,-0.037758056074380875,0.2954794466495514,0.10913664847612381,0.15758216381072998,-0.148254856467247,0.12690752744674683,0.1704694777727127,-0.08776725828647614,0.22177106142044067,0.20229272544384003,-0.03948364406824112,-0.10624197125434875,-0.18332844972610474,0.13967962563037872,-0.1577993929386139,-0.14496219158172607,0.32107242941856384,-0.21537898480892181,0.040761154145002365,0.3269766569137573,-0.0347781740128994,-0.11475495994091034,0.08335193991661072,-0.004401395097374916,-0.02239140309393406,0.255591481924057,-0.038053132593631744,0.20025430619716644,0.16949598491191864,0.2994149327278137,-0.2647186517715454,-0.5072389841079712,-0.015182828530669212,-0.019888147711753845,-0.4003981351852417,-0.3634072542190552,0.056418128311634064,0.025236258283257484,-0.32735663652420044,-0.30254456400871277,-0.22196580469608307,-0.27569708228111267,-0.12025557458400726,0.11379145085811615,-0.1371896117925644,0.09652988612651825,0.5024219155311584,0.15581442415714264,0.044075146317481995,0.33974689245224,0.051605209708213806,0.10085194557905197,0.09378175437450409,0.07044889777898788,0.13201576471328735,0.31014522910118103,-0.17170749604701996,-0.0693296492099762,0.19826361536979675,-0.1054484024643898,-0.20114666223526,0.262603759765625,0.025263115763664246,0.05060873553156853,0.29644936323165894,0.12696529924869537,0.1245955303311348,0.21827946603298187,0.23983147740364075,0.10110452771186829,0.15382657945156097,0.2203274965286255,0.02062945067882538,-0.0032230867072939873,0.04662039130926132,0.1788668930530548,0.12261100858449936,-0.012306222692131996,0.09805088490247726,0.15032468736171722,-0.04002460092306137,-0.12826670706272125,0.03951585292816162,0.18856671452522278,0.09167018532752991,-0.1272927075624466,-0.12942247092723846,-0.21766459941864014,-0.05669434368610382,0.05172821506857872,0.06858750432729721,0.08199071139097214,-0.06334188580513,-0.2536151707172394,0.013886159285902977,0.014267670921981335,-0.06335744261741638,0.08156789094209671,0.004933459684252739,-0.1331997513771057,-0.12865662574768066,0.2202150970697403,-0.07154633104801178,-0.18812048435211182,-0.1685568243265152,-0.24618005752563477,-0.20256420969963074,-0.0035274727270007133,0.053246188908815384,0.0020764993969351053,0.171879380941391,-0.022933823987841606,0.19957318902015686,-0.23022551834583282,-0.2774730622768402,-0.3166642189025879,0.10265941172838211,-0.035096243023872375,-0.12187739461660385,0.03716885671019554,0.1508556604385376,0.23104749619960785,0.004015287850052118,-0.013428534381091595,0.2105306088924408,0.17983971536159515,0.08826933801174164,0.10630005598068237,0.060622863471508026,0.06423848122358322,-0.3134172856807709,-0.10052554309368134,-0.2501906156539917,-0.38995346426963806,0.08144891262054443,-0.059687044471502304,-0.16617482900619507,-0.24790999293327332,0.014985358342528343,-0.05676194280385971,0.26545050740242004,0.14653989672660828,0.24305815994739532,-0.021293211728334427,0.0387202687561512,0.23534861207008362,0.18691851198673248,0.0470467284321785,-0.029218118637800217,-0.1363479197025299,-0.18587444722652435,-0.20256967842578888,-0.026690689846873283,0.060049619525671005,0.02608400583267212,-0.3000672459602356,-0.068766288459301,0.22489990293979645,0.1051512137055397,0.24168215692043304,0.29019615054130554,0.04318348318338394,-0.002496500965207815,0.08707297593355179,-0.038574643433094025,-0.04151318594813347,-0.016794255003333092,-0.00863028597086668,0.20970529317855835,0.1896236091852188,-0.09892036020755768,-0.12103945761919022,0.1628647893667221,-0.1024404764175415,0.10511099547147751,0.6267342567443848,-0.19369438290596008,0.05165107175707817,0.28636422753334045,0.06723546981811523,0.03796703368425369,0.06631196290254593,-0.192565456032753,-0.1203387901186943,0.2312440127134323,0.013370715081691742,0.18846137821674347,0.1775161772966385,-0.019684607163071632,-0.09531565755605698,-0.187095046043396,0.070305734872818,-0.11023827642202377,-0.22164548933506012,-0.02061374858021736,-0.023717910051345825,-0.26130571961402893,0.06431569159030914,-0.18251670897006989,-0.20834733545780182,-0.24449151754379272,0.01918427273631096,-0.019284147769212723,0.4140320122241974,0.3601907193660736,0.16208912432193756,0.22783885896205902,0.22323042154312134,0.5330874919891357,0.05406641587615013,0.05167476087808609,-0.04124538600444794,0.10318654030561447,0.10524814575910568,-0.2518923878669739,-0.023494377732276917,0.02936987206339836,0.05735773593187332,-0.005140597000718117,-0.24244606494903564,-0.3494957983493805,-0.2091093212366104,-0.2805374562740326,-0.27307388186454773,-0.06988948583602905,-0.03318798542022705,-0.26909446716308594,-0.03507513925433159,0.022010356187820435,0.03442563861608505,-0.138164684176445,0.0816616341471672,-0.019696513190865517,-0.018788062036037445,-0.022810840979218483,-0.0036814294289797544,0.0016796202398836613,-0.28833338618278503,-0.2767672538757324,0.16202400624752045,0.06097181513905525,0.0004840829351451248,0.28607553243637085,0.010906067676842213,0.18019472062587738,0.21420170366764069,0.257750540971756,0.15228059887886047,0.015011283569037914,0.3333583474159241,0.40191650390625,0.004351824522018433,0.24362747371196747,0.4194985032081604,0.05833204835653305,0.09347909688949585,0.3211325705051422,0.4183877408504486,0.0753621831536293,0.16560125350952148,0.35479483008384705,0.1160014197230339,0.15388458967208862,-0.03992510959506035,0.2678118348121643,0.26375633478164673,-0.04685883969068527,0.11454280465841293,0.28910231590270996,0.08148828148841858,0.24783895909786224,0.041573893278837204,-0.12445706129074097,0.13746993243694305,0.26702696084976196,-0.13180720806121826,0.0627652257680893,0.2608810365200043,-0.21506653726100922,0.08520381897687912,0.22966478765010834,-0.2300439476966858,-0.10935609042644501,-0.32891133427619934,-0.5359658598899841,-0.05617097020149231,-0.4530991017818451,-0.1571965217590332,-0.3182718753814697,-0.24356156587600708,0.19728711247444153,0.04201294481754303,0.10355649143457413,0.0892692431807518,-0.186287522315979,0.021157948300242424,-0.0907934308052063,0.058858852833509445,0.3024674654006958,-0.04149819165468216,-0.2662530243396759,-0.24213005602359772,-0.12149413675069809,-0.1798730343580246,-0.3544675409793854,0.02253592573106289,-0.16819046437740326,-0.3052234649658203,0.3293282091617584,0.242314413189888,-0.12242575734853745,0.32485517859458923,0.050548382103443146,-0.11514599621295929,0.15911993384361267,-0.17536036670207977,-0.369174987077713,0.21208935976028442,0.053383827209472656,-0.13321517407894135,0.06755989789962769,-0.04507691040635109,-0.08869003504514694,0.31287091970443726,-0.09347402304410934,-0.08594173192977905,-0.09367034584283829,0.10033003240823746,-0.07774392515420914,-0.1785256564617157,0.16927221417427063,0.08590833842754364,0.22672529518604279,0.06388586759567261,0.11549083143472672,-0.07162102311849594,-0.1992708444595337,-0.11361837387084961,-0.11300792545080185,0.0639876127243042,0.12503646314144135,-0.005944887176156044,0.14834871888160706,0.34842145442962646,-0.3063211739063263,-0.2426043301820755,0.06351662427186966,-0.14330191910266876,-0.234541654586792,-0.17044754326343536,-0.040287937968969345,-0.4353552460670471,-0.32616251707077026,-0.0452420711517334,-0.32834717631340027,-0.09929069876670837,-0.3129127025604248,-0.18568813800811768,-0.016236385330557823,-0.1683092564344406,-0.10878068953752518,0.06091493368148804,0.0018314466578885913,-0.046723444014787674,0.20040905475616455,-0.029814263805747032,0.038053691387176514,0.1780773550271988,-0.1250152736902237,0.009676062501966953,-0.012653251178562641,-0.09283850342035294,0.08976823836565018,0.20107893645763397,0.1085507720708847,0.11542626470327377,0.020021166652441025,0.07125083357095718,0.06265240162611008,0.06629437953233719,-0.01054210402071476,-0.12979161739349365,0.006358331069350243,-0.12426057457923889,-0.25105220079421997,-0.2423049956560135,-0.11174165457487106,0.01549345813691616,-0.15535788238048553,-0.021839406341314316,-0.0028906313236802816,0.16862612962722778,-0.16024011373519897,-0.10207733511924744,0.02513544075191021,-0.11945436894893646,-0.06116001680493355,-0.2784980237483978,-0.24723024666309357,0.09758841246366501,-0.14425620436668396,0.057010434567928314,-0.0886039137840271,-0.25271862745285034,-0.31251397728919983,-0.09745077043771744,-0.37127387523651123,-0.19283907115459442,-0.3299214839935303,-0.07012611627578735,-0.32211339473724365,-0.2896673083305359,-0.09459520876407623,-0.3392118811607361,-0.4277432858943939,-0.11736787110567093,-0.03975046053528786,0.15402816236019135,0.19378243386745453,-0.03882671520113945,0.14701804518699646,-0.04314577206969261,-0.15783096849918365,-0.10124404728412628,-4.8702269850764424e-05,0.1486484706401825,0.09563374519348145,-0.13973499834537506,0.2987016439437866,0.2798626720905304,0.011988429352641106,0.4145253896713257,0.16663329303264618,0.16550195217132568,0.34591254591941833,0.2936100959777832,0.13185928761959076,0.09266898781061172,0.2717497944831848,0.016383107751607895,0.12620292603969574,0.21873797476291656,-0.0720515251159668,0.021565156057476997,-0.07954821735620499,-0.19378036260604858,0.06710575520992279,-0.10816376656293869,-0.13631419837474823,0.09885680675506592,-0.10431265830993652,-0.14782892167568207,0.1624976098537445,-0.050959959626197815,-0.42617470026016235,0.009828845039010048,-0.1066601350903511,-0.20107921957969666,-0.06811194866895676,0.0309920534491539,-0.14055997133255005,-0.389377236366272,-0.25440382957458496,-0.0866599977016449,-0.26152902841567993,-0.16092677414417267,-0.04333512857556343,-0.14624978601932526,-0.17205463349819183,-0.2646486759185791,0.03448023274540901,0.021070126444101334,-0.15622620284557343,-0.024991096928715706,-0.11850583553314209,-0.16905450820922852,0.006483307108283043,0.13520382344722748,-0.14194898307323456,0.21152955293655396,0.1599097102880478,0.08668911457061768,0.1338125467300415,0.07404584437608719,0.14016945660114288,0.18403436243534088,0.28960493206977844,0.10892196744680405,-0.23609986901283264,-0.16666525602340698,0.0226710494607687,-0.09128522127866745,-0.01789247989654541,-0.04774004593491554,0.02534300833940506,0.03653079643845558,0.01576238125562668,0.26665017008781433,0.2345835417509079,0.06578952074050903,0.29414671659469604,0.29534873366355896,0.19034408032894135,0.2509939968585968,0.17817829549312592,0.0667261853814125,0.1326558142900467,0.12582245469093323,-0.12400931864976883,0.19184567034244537,0.18705497682094574,-0.1187780499458313,0.07619649916887283,-0.06560838222503662,-0.14569102227687836,-0.33701980113983154,-0.10429522395133972,-0.021062975749373436,-0.13624700903892517,-0.25587719678878784,-0.1361524611711502,-0.19895964860916138,-0.15268413722515106,-0.08653180301189423,0.26287955045700073,-0.0951399952173233,-0.09563146531581879,0.18086881935596466,0.1290283203125,0.0913502424955368,-0.0600116141140461,0.012341627851128578,0.1326272338628769,-0.2671681046485901,0.1441415697336197,0.30790725350379944,-0.020011404529213905,-0.11768340319395065,0.1758676916360855,-0.2813151776790619,-0.06611944735050201,0.3185049295425415,-0.27144384384155273,0.0257376991212368,0.3485242426395416,0.10588552802801132,0.004848654847592115,0.175507590174675,0.14552095532417297,0.09417536109685898,0.28000470995903015,-0.09760922193527222,-0.12237033247947693,0.349135160446167,-0.06187959387898445,-0.04757416620850563,0.15470601618289948,0.16083924472332,-0.046700991690158844,0.1644383817911148,-0.07813870906829834,-0.03783047944307327,0.24255751073360443,-0.0032330802641808987,-0.06054626777768135,-0.06295258551836014,-0.3423319458961487,-0.06656903028488159,0.08282262831926346,0.2302352339029312,-0.178620383143425,-0.350372314453125,-0.056315481662750244,-0.02878466807305813,-0.19629551470279694,0.10699265450239182,0.05425335839390755,-0.2816319167613983,-0.17526262998580933,0.024822132661938667,0.03988594934344292,-0.007369395811110735,0.09632940590381622,-0.07828543335199356,-0.06805622577667236,-0.01441916637122631,0.11685103923082352,0.23841720819473267,-0.17620134353637695,-0.41291701793670654,-0.07550777494907379,0.1603546291589737,-0.19464115798473358,0.09350552409887314,-0.108016237616539,-0.24529971182346344,0.07854562252759933,0.5585416555404663,0.13241782784461975,0.3349662125110626,0.481709748506546,0.043520238250494,0.4028298854827881,0.1931852400302887,-0.00762907974421978,0.036660902202129364,0.14193730056285858,-0.08862248063087463,0.059935636818408966,0.23890048265457153,-0.07382184267044067,0.3452681601047516,-0.17281846702098846,0.16816137731075287,0.20576071739196777,-0.02590787783265114,0.13865306973457336,-0.04236758127808571,0.20453815162181854,0.12251794338226318,0.2678891122341156,0.09782934188842773,-0.0161372572183609,-0.24807964265346527,-0.09566068649291992,-0.09441116452217102,-0.11088240146636963,-0.11259645223617554,0.11925160884857178,-0.40747636556625366,-0.0025656188372522593,0.2514614760875702,-0.017189769074320793,-0.10860808938741684,-0.25179335474967957,-0.11456438899040222,-0.11655595153570175,-0.2677276134490967,0.07634121924638748,-0.13905367255210876,-0.23112377524375916,-0.3483074903488159,-0.3452177047729492,-0.2653513550758362,-0.3165675699710846,-0.3140300512313843,-0.10673601180315018,-0.2720353305339813,-0.07801122963428497,0.054905254393815994,0.003177924081683159,-0.05050734430551529,-0.03313707932829857,0.0485241636633873,0.19267086684703827,0.05844961479306221,-0.13092094659805298,0.1825309693813324,-0.09578725695610046,-0.04238147288560867,0.14417260885238647,-0.1616699993610382,-0.09261154383420944,0.002271089470013976,-0.0012898982968181372,-0.046286337077617645,0.18098196387290955,-0.11980025470256805,-0.1021747812628746,-0.10127123445272446,0.3020775318145752,-0.14338360726833344,0.0014671210665255785,0.11017287522554398,-0.37836405634880066,-0.290603369474411,-0.010882807895541191,0.04403234273195267,0.3171495497226715,0.1463748961687088,0.043993253260850906,0.2900582551956177,0.14252176880836487,-0.3846074938774109,0.007390172686427832,-0.06362299621105194,-0.187062606215477,0.13307063281536102,-0.1951247602701187,-0.12656967341899872,0.051100824028253555,-0.27415651082992554,-0.3193740248680115,-0.10407941788434982,-0.10665151476860046,0.15002202987670898,0.008221491239964962,-0.09683883935213089,0.19508938491344452,-0.23673756420612335,-0.05340760573744774,-0.18403661251068115,-0.3934870660305023,-0.008481623604893684,0.12848471105098724,0.37269166111946106,0.19151757657527924,-0.15454372763633728,0.11272018402814865,0.2424800843000412,-0.04828781634569168,-0.08797483891248703,0.2488694190979004,-0.1524113416671753,-0.06845833361148834,-0.014408450573682785,0.11466801911592484,-0.0003604917728807777,0.3333339989185333,0.11107242852449417,-0.0783163532614708,0.5063894391059875,0.22550858557224274,0.30135929584503174,0.35591650009155273,-0.13099350035190582,0.08845369517803192,0.05335640534758568,-0.29078227281570435,-0.223749041557312,-0.08871393650770187,-0.10452057421207428,-0.4070955812931061,-0.28452053666114807,0.3019057512283325,-0.14465279877185822,0.08449312299489975,0.3606613576412201,0.021151265129446983,0.1076294481754303,-0.3303554654121399,-0.21731577813625336,-0.16034498810768127,-0.12567730247974396,-0.0588156022131443,0.2497185915708542,-0.09798287600278854,0.11334708333015442,0.016915028914809227,0.08307249844074249,0.18092314898967743,0.009749172255396843,0.03863126412034035,-0.02634390816092491,-0.17178595066070557,-0.230660542845726,-0.052748169749975204,-0.13032843172550201,-0.12504516541957855,-0.00827237032353878,-0.31463098526000977,0.10510251671075821,0.11046066880226135,-0.30048108100891113,0.0283772312104702,-0.3928341567516327,0.12107676267623901,-0.06081550568342209,0.30003127455711365,-0.014175232499837875,-0.20923826098442078,-0.10331373661756516,0.10910932719707489,0.06462130695581436,-0.016854196786880493,0.125592902302742,-0.07421944290399551,-0.14911819994449615,-0.10406338423490524,0.11800497770309448,-0.1332930028438568,0.25267326831817627,0.19037960469722748,-0.24230967462062836,-0.004439154639840126,0.09535548090934753,-0.033690594136714935,0.22378048300743103,0.014245553873479366,-0.01138830091804266,0.1568291187286377,0.0326663963496685,0.22028708457946777,0.14343813061714172,0.15169751644134521,-0.031699083745479584,-0.054067738354206085,0.0546778179705143,0.02447962947189808,-0.0800153836607933,0.23321889340877533,0.28905758261680603,-0.05246880277991295,-0.16442415118217468,-0.24899844825267792,0.036374256014823914,0.015061010606586933,-0.13121654093265533,0.048898011445999146,0.10620332509279251,-0.11018570512533188,-0.1818665862083435,-0.08028438687324524,0.02498246543109417,0.24978065490722656,-0.12827545404434204,-0.23441839218139648,0.427738755941391,-0.07151850312948227,-0.046542391180992126,0.6283634901046753,-0.16408894956111908,-0.30109813809394836,0.22518548369407654,0.10763142257928848,-0.08479536324739456,0.188102126121521,0.22473680973052979,0.051172055304050446,0.09986676275730133,-0.1634366512298584,-0.026712842285633087,0.30944809317588806,0.08474067598581314,-0.08443275094032288,-0.16810765862464905,-0.25792792439460754,-0.030261294916272163,-0.028666207566857338,-0.03432541340589523,0.013809588737785816,0.21044552326202393,0.13019807636737823,-0.2174125462770462,0.22752410173416138,-0.11492601782083511,-0.39748096466064453,0.05776900425553322,-0.024031836539506912,-0.24279335141181946,-0.11198747903108597,-0.07038387656211853,-0.0011950160842388868,-0.17817673087120056,0.0929248109459877,-0.011971485801041126,-0.009840021841228008,0.14358925819396973,-0.03214002028107643,-0.4742989242076874,0.15283700823783875,-0.17605899274349213,-0.3329179883003235,0.22320620715618134,0.04153380170464516,0.0005772334989160299,-0.16943205893039703,0.029294535517692566,0.23961913585662842,0.04877251386642456,-0.02370406687259674,0.13767538964748383,0.12373459339141846,0.010036789812147617,0.03526976704597473,0.2096245139837265,0.2991844713687897,-0.10556841641664505,-0.1572606861591339,0.14555351436138153,-0.1934276521205902,-0.21795029938220978,-0.054345350712537766,-0.007246523164212704,-0.04755920171737671,0.23360846936702728,-0.1998620629310608,-0.283094197511673,0.0983135849237442,-0.25693279504776,-0.14462511241436005,0.11121732741594315,-0.14449508488178253,-0.15213437378406525,0.05689266696572304,0.008430393412709236,-0.010662722401320934,0.047163255512714386,0.023597601801156998,0.17786085605621338,-0.1293092966079712,0.03728872537612915,0.398804247379303,0.2022435963153839,-0.2204291671514511,-0.2163601815700531,-0.08108001202344894,-0.2043578028678894,-0.16901364922523499,-0.06369038671255112,0.013941163197159767,0.4580671489238739,-0.1825590431690216,0.04197824373841286,0.28474488854408264,-0.08792921155691147,-0.13032715022563934,0.3149428963661194,-0.09662646055221558,0.19306933879852295,0.09282246232032776,-0.04440610110759735,-0.3067004978656769,0.031134186312556267,-0.19617991149425507,0.10536706447601318,-0.07284344732761383,-0.0954090803861618,0.1998148113489151,-0.16381524503231049,0.06539804488420486,-0.06066599488258362,0.2821187376976013,0.23047766089439392,0.2655942142009735,0.1294144093990326,0.14895863831043243,0.0933946743607521,-0.10912100970745087,-0.12998008728027344,-0.24746325612068176,0.2559731602668762,-0.012945767492055893,-0.3765150308609009,0.06666455417871475,0.08042143285274506,-0.22097726166248322,0.03657757118344307,0.043374963104724884,-0.1448645144701004,0.1277267336845398,0.2561207711696625,-0.01647227630019188,-0.3487420976161957,-0.014962034299969673,0.18939264118671417,-0.13978582620620728,0.1388113647699356,0.1077181026339531,-0.2041996270418167,-0.14942555129528046,0.07862526923418045,0.009763458743691444,0.012971978634595871,-0.04173984378576279,0.20838025212287903,-0.35847121477127075,-0.1812942624092102,-0.12579549849033356,0.0018835724331438541,-0.1292693316936493,-0.33781829476356506,0.1197623535990715,0.1364745795726776,0.49387115240097046,0.007389197126030922,-0.2589181363582611,-0.2424534559249878,-0.1961159110069275,-0.40201234817504883,-0.3675720691680908,-0.23263366520404816,0.10933568328619003,0.26200833916664124,-0.08816567063331604,-0.24936585128307343,0.04395178705453873,-0.13996723294258118,-0.23211340606212616,-0.16848570108413696,-0.20390169322490692,0.1633991152048111,0.16726171970367432,-0.08766811341047287,-0.1649647206068039,-0.08280681073665619,-0.09544156491756439,-0.17385821044445038,-0.45312607288360596,0.28918740153312683,0.260189950466156,-0.4575941562652588,0.04248616471886635,0.07153570652008057,-0.07321374118328094,0.32554319500923157,0.07518123090267181,0.07747174054384232,0.15450450778007507,-0.2514483630657196,0.20780666172504425,0.3159908950328827,0.11428359150886536,0.03763812407851219,0.13514401018619537,0.026630442589521408,-0.20801229774951935,0.15337058901786804,0.2462274134159088,-0.38620802760124207,0.024288535118103027,0.10673219710588455,-0.018425030633807182,0.06848178803920746,0.04578561708331108,0.017355026677250862,-0.1911391317844391,-0.20612536370754242,0.009638313204050064,0.03135398402810097,0.21087093651294708,-0.15955600142478943,-0.037038713693618774,0.04952657222747803,0.15919029712677002,0.07816611975431442,-0.0910692811012268,0.17766053974628448,0.007396308239549398,0.09160812944173813,-0.18895624577999115,-0.13101373612880707,0.059871211647987366,0.22275736927986145,-0.06872270256280899,0.05547625944018364,-0.09476412832736969,0.05014651641249657,0.08214149624109268,-0.14357276260852814,-0.14679399132728577,-0.29493632912635803,0.251793771982193,0.17049649357795715,-0.18804317712783813,0.16600064933300018,0.3604932427406311,0.12805141508579254,0.2782460153102875,-0.054891034960746765,-0.00042848801240324974,-0.11247354000806808,0.09905299544334412,0.026818303391337395,-0.26482394337654114,-0.061135709285736084,-0.01212436705827713,-0.04709678888320923,0.11577271670103073,0.13473916053771973,-0.010509662330150604,-0.15518279373645782,-0.2055470049381256,0.028041070327162743,0.08144453912973404,-0.06671832501888275,0.34512555599212646,0.3623673915863037,0.13926595449447632,0.08017879724502563,-0.11606187373399734,-0.0748075321316719,-0.1517263501882553,-0.18854545056819916,-0.08873656392097473,0.05011523887515068,0.1617382913827896,0.09218890219926834,-0.06778356432914734,-0.09700070321559906,-0.29658037424087524,0.3091816306114197,0.22115959227085114,0.05926089361310005,0.260455459356308,0.37225961685180664,0.11626569926738739,0.08853790163993835,0.2551453411579132,0.2539803683757782,-0.05316859856247902,-0.4204314947128296,-0.2749922275543213,-0.08660263568162918,-0.327877938747406,-0.12206977605819702,-0.06414173543453217,-0.034917574375867844,-0.026378044858574867,0.3043096363544464,0.13999272882938385,-0.013696270063519478,0.17530491948127747,0.13190267980098724,-0.10056917369365692,-0.00598927354440093,0.29830318689346313,0.10892711579799652,0.2958383560180664,0.254199355840683,0.2403559684753418,0.18355806171894073,0.004590689204633236,0.06801200658082962,0.005911779589951038,0.004765219986438751,0.23215985298156738,0.1581011265516281,0.0821586325764656,0.11522568762302399,0.08911622315645218,0.05528337508440018,0.02972434088587761,0.14623336493968964,-0.0477907732129097,0.056994445621967316,0.09473023563623428,0.073175348341465,-0.07341379672288895,-0.01575184240937233,0.15688766539096832,-0.0723486915230751,0.1002224013209343,0.19516071677207947,-0.003998176660388708,-0.17345455288887024,-0.21843953430652618,-0.13134348392486572,-0.2978508472442627,-0.059631649404764175,-0.23465119302272797,-0.38159558176994324,-0.1752804070711136,0.2190755009651184,0.18617790937423706,0.03260793164372444,0.14327283203601837,0.0010964709799736738,0.05162002891302109,0.13162870705127716,0.11013351380825043,0.3984016478061676,0.1593000739812851,0.0042839208617806435,0.03336787968873978,-0.10476913303136826,-0.1042017936706543,-0.17843101918697357,-0.19315984845161438,-0.17980046570301056,-0.18357372283935547,-0.027221040800213814,-0.037177570164203644,-0.002378580393269658,-0.040282439440488815,-0.15123656392097473,-0.14343297481536865,-0.09255378693342209,-0.1248195692896843,-0.1444704532623291,-0.06144440546631813,0.1495649665594101,0.04712516441941261,0.11633480340242386,0.07833350449800491,-0.09242600947618484,0.002685826737433672,-0.10590759664773941,0.049154408276081085,-0.07239973545074463,-0.2019011527299881,-0.17797116935253143,-0.13097356259822845,-0.31395596265792847,-0.2796565592288971,-0.25050094723701477,-0.4453114867210388,-0.45489901304244995,0.02432599663734436,0.18102583289146423,0.12426819652318954,0.08059312403202057,0.06962831318378448,0.18025439977645874,0.2695986330509186,-0.09556649625301361,0.36023637652397156,0.19832125306129456,0.09193732589483261,0.23994740843772888,0.08328147977590561,-0.2598895728588104,0.002359111560508609,0.05847932770848274,-0.18504539132118225,-0.23976516723632812,-0.11898985505104065,0.10443299263715744,-0.015661075711250305,0.04591823369264603,0.24755394458770752,0.2763313353061676,0.1428891122341156,0.11552396416664124,0.2703990638256073,0.16532506048679352,-0.014261775650084019,0.057497721165418625,0.10108853131532669,0.0034282500855624676,-0.0545126348733902,-0.10031867027282715,0.23876610398292542,0.20531468093395233,-0.2486330270767212,0.13152305781841278,0.19469524919986725,0.04561236500740051,0.14786750078201294,0.23004412651062012,0.14739273488521576,-0.06404309719800949,0.16740745306015015,0.2911447286605835,-0.00883620698004961,-0.11214984208345413,0.06364084035158157,-0.04341860115528107,-0.05116308107972145,0.09014694392681122,0.016658451408147812,-0.08958973735570908,0.021775634959340096,0.27835360169410706,0.32937660813331604,0.2234605997800827,-0.06921955198049545,0.13054677844047546,0.1974799931049347,-0.0690300315618515,0.12517477571964264,0.09527334570884705,0.6677987575531006,0.04062553122639656,0.3107980191707611,0.35155630111694336,0.07379742711782455,0.10995269566774368,-0.22929205000400543,0.12130610644817352,0.30593833327293396,-0.0011764528462663293,0.015845155343413353,0.025393571704626083,0.15197710692882538,-0.03292398899793625,0.1270354688167572,0.052174001932144165,0.38272804021835327,0.1453145146369934,0.32915082573890686,0.3126411736011505,-0.16849559545516968,0.2381121665239334,-0.08843172341585159,-0.0678299143910408,0.07564563304185867,0.05382901057600975,0.400288462638855,-0.09298160672187805,-0.40787217020988464,-0.3257986307144165,-0.06527593731880188,-0.41437748074531555,-0.5573506355285645,-0.3393940329551697,-0.21613484621047974,-0.4990856349468231,0.27372661232948303,0.3059520423412323,0.26425740122795105,0.07665456831455231,0.0660848468542099,-0.08781957626342773,0.15399794280529022,0.08554501831531525,0.042629893869161606,-0.26119866967201233,-0.347927451133728,-0.020768439397215843,0.022870782762765884,-0.13638146221637726,-0.2833443284034729,-0.13311266899108887,-0.13920922577381134,-0.26896432042121887,-0.14824560284614563,-0.19359396398067474,-0.25465765595436096,0.006211680825799704,-0.08484724164009094,-0.05156530439853668,0.138571098446846,-0.262606143951416,-0.36002516746520996,0.08289393782615662,0.047014474868774414,0.0500655323266983,-0.027401326224207878,0.09847656637430191,0.11387676745653152,0.22029399871826172,0.13054677844047546,0.07121296226978302,-0.30764806270599365,-0.43757912516593933,-0.1561710685491562,-0.08225444704294205,-0.017403651028871536,-0.025574499741196632,-0.2510881721973419,-0.19043037295341492,-0.17255635559558868,0.3339775800704956,0.016952622681856155,0.19793279469013214,-0.02048921398818493,0.09591313451528549,0.007389267440885305,-0.07249590009450912,0.036360032856464386,-0.06510625034570694,0.007926350459456444,-0.20231419801712036,-0.151809960603714,0.14215151965618134,-0.21344128251075745,-0.21006080508232117,-0.15985992550849915,-0.21145014464855194,0.11178270727396011,0.17883694171905518,-0.037002719938755035,0.1512739211320877,-0.02116403542459011,0.016067879274487495,0.05365009233355522,0.007074621040374041,0.0851912572979927,-0.10149170458316803,-0.1523590385913849,0.02400503121316433,-0.04902660846710205,0.06545625627040863,0.059263553470373154,0.05966072529554367,0.14421574771404266,0.02946600131690502,0.021527757868170738]},"3.bias":{"shape":[16],"data":[-0.04439293220639229,-0.1149987205862999,-0.019724421203136444,-0.0179750956594944,-0.043124087154865265,0.03357890993356705,0.06129666417837143,-0.021097559481859207,-0.1346605122089386,-0.1044040322303772,0.12140399217605591,0.21072527766227722,0.013105439953505993,-0.2299000322818756,0.3480179011821747,0.022177940234541893]},"4.weight":{"shape":[16],"data":[4.312040328979492,3.527090311050415,4.248496055603027,4.006738185882568,4.402131080627441,4.579180717468262,4.787827491760254,3.759471893310547,4.38290548324585,3.663156032562256,3.9593842029571533,4.0242109298706055,4.085494041442871,3.347914218902588,4.214044094085693,4.366418361663818]},"4.bias":{"shape":[16],"data":[0.3841785490512848,-0.044779736548662186,0.1080360934138298,-0.6355952024459839,0.2684488892555237,-0.2997942864894867,0.08157370239496231,0.3461902439594269,0.005895586684346199,0.135498508810997,-0.10692591965198517,0.29038867354393005,0.12050672620534897,0.6240260004997253,0.2694423496723175,-0.34978941082954407]},"4.running_mean":{"shape":[16],"data":[-0.7980801463127136,-1.3169656991958618,-0.5216056704521179,-0.44415444135665894,-0.19866295158863068,0.06091449409723282,0.5048437118530273,-0.30234411358833313,-0.6601009964942932,-0.62257981300354,-0.47270527482032776,0.5079496502876282,-0.42739033699035645,-0.9773787260055542,0.7048171162605286,-0.15581969916820526]},"4.running_var":{"shape":[16],"data":[0.40050971508026123,0.4033862352371216,0.5049822926521301,0.45292147994041443,0.4601553678512573,0.5792931914329529,0.4589945375919342,0.3726721704006195,0.4924410283565521,0.6115689873695374,0.4826596677303314,0.5211071968078613,0.5450245141983032,0.3254188597202301,0.4120587706565857,0.6645230650901794]},"8.weight":{"shape":[10,64],"data":[0.895541787147522,-0.5625969171524048,1.1038728952407837,-1.1851614713668823,0.47702115774154663,0.8317994475364685,0.3835916221141815,1.1339712142944336,-0.09334589540958405,-0.5188256502151489,0.6389843225479126,-0.042402200400829315,0.8496841192245483,1.3529057502746582,0.5824772119522095,1.0910139083862305,0.8113768696784973,-0.6797359585762024,0.8341735005378723,-0.7711485028266907,0.38459405303001404,-0.18504492938518524,1.2312431335449219,-0.1541079431772232,-0.8689448237419128,-0.09541799873113632,-1.6574914455413818,-0.3051779270172119,0.2640688419342041,0.11581038683652878,0.3416963517665863,-0.13275094330310822,0.11034168303012848,0.4420481324195862,0.5474986433982849,0.4946735203266144,-0.4720022678375244,-0.29063841700553894,0.32827654480934143,-0.48165959119796753,-0.11298317462205887,0.534390389919281,0.4606008529663086,0.8549449443817139,-1.0698003768920898,-0.3660597801208496,-1.9003605842590332,-0.33256053924560547,0.1396775245666504,-0.21583236753940582,0.54759281873703,-0.6049420237541199,0.020321208983659744,-1.3124583959579468,-0.3627524971961975,-1.202911615371704,0.12157201766967773,-0.6963587999343872,0.2351681888103485,-1.137202262878418,0.39921537041664124,0.9528543949127197,0.3071279525756836,0.570609986782074,0.12270036339759827,0.7543052434921265,-0.36156946420669556,1.1352214813232422,0.07349842041730881,0.7011327743530273,0.04724225401878357,1.1305817365646362,-0.7649956345558167,0.4467828571796417,-2.2987725734710693,0.6855865120887756,0.5480352640151978,0.4129575490951538,0.24448196589946747,0.7191136479377747,0.11162205785512924,-0.1677406281232834,-1.3477425575256348,0.4949305057525635,-1.080542802810669,0.3407951295375824,-1.1312264204025269,0.5116108059883118,0.624110996723175,-0.618079662322998,0.25100812315940857,-0.6434109807014465,0.8861552476882935,-0.34622496366500854,0.45477890968322754,-0.28641238808631897,-0.2741476893424988,0.1284746676683426,-0.6579926013946533,0.7869406342506409,-0.4811076521873474,-1.0433744192123413,-0.47437942028045654,-0.5370041728019714,-0.3351967930793762,0.9770470261573792,-0.4468660056591034,1.895693063735962,0.034199997782707214,0.30800896883010864,-0.24984651803970337,0.25529566407203674,0.02704598940908909,-0.2840120494365692,0.0890294685959816,-0.6780461668968201,0.19950802624225616,-0.8490952849388123,0.11907431483268738,-1.3971633911132812,-0.26123669743537903,-0.5872678756713867,-1.476566195487976,-1.6757915019989014,-0.30822664499282837,-0.563431441783905,0.5403964519500732,0.10991029441356659,-0.18199436366558075,-0.025550657883286476,-0.816042959690094,-0.07151685655117035,-0.5233168005943298,-0.5562878847122192,-0.5499157309532166,-1.3707200288772583,-0.4916969835758209,-0.8454575538635254,-0.4191488027572632,-1.5821782350540161,-0.8684135675430298,-1.1129543781280518,-0.6544305086135864,-1.32984459400177,-2.50559401512146,-0.1687745749950409,-2.431182384490967,-0.7980272173881531,-0.9672995805740356,0.18023401498794556,-0.6036044955253601,-0.9060691595077515,0.04262688383460045,0.4433140158653259,-1.2907829284667969,0.9913336038589478,-0.918850839138031,0.2986478805541992,-1.225152611732483,-0.9621922969818115,0.3948093056678772,0.3248041272163391,0.6398739218711853,0.29175513982772827,0.3510516583919525,0.3180999457836151,0.37575647234916687,0.892580509185791,-0.06678581982851028,-0.4296025335788727,0.25480321049690247,-1.1863421201705933,0.6678822040557861,0.3920171558856964,1.1793639659881592,0.1548267900943756,-0.3747924864292145,-0.11551569402217865,-0.10805899649858475,-0.3868815004825592,-0.09037063270807266,0.3915080726146698,0.17387893795967102,0.8786950707435608,0.48294344544410706,0.4113633334636688,1.437665581703186,0.9071725606918335,0.75868159532547,0.6552470326423645,0.3527533710002899,-0.46495646238327026,-0.9312135577201843,0.8085395097732544,-0.6035393476486206,0.5593708753585815,-0.44358086585998535,0.26690393686294556,-0.6264629364013672,0.27501973509788513,-0.7490606904029846,-0.2599095106124878,-1.4795567989349365,0.09887569397687912,-0.5584485530853271,-1.5516437292099,0.04861659184098244,-1.5504610538482666,-1.0581740140914917,-0.2648096978664398,0.18144281208515167,0.09981309622526169,-1.9376986026763916,0.5760397911071777,-2.6858270168304443,0.6794055700302124,0.7161534428596497,0.030865369364619255,1.430711030960083,-0.5651652812957764,-0.3325803577899933,0.7505363821983337,-0.1270419955253601,0.6840173006057739,0.0997905358672142,-1.5154365301132202,0.14659483730793,-2.2734808921813965,0.21457062661647797,-0.2908409535884857,-0.11692687124013901,-0.236305832862854,-0.8726902604103088,-0.5441309213638306,-1.5713304281234741,-0.28752532601356506,0.8518896102905273,0.6689525246620178,0.4265093505382538,1.3144676685333252,-1.628408670425415,0.5962628126144409,-2.063739776611328,1.1117933988571167,0.37084507942199707,0.20096872746944427,-0.2687748968601227,0.4505588412284851,1.0745512247085571,-0.25356408953666687,0.20173881947994232,-0.6760867238044739,0.20031067728996277,-1.2664545774459839,0.11086352169513702,-1.006899356842041,-0.29687339067459106,0.19982662796974182,-0.48555535078048706,0.2576777935028076,-0.5477884411811829,-0.1275523155927658,-0.8025550842285156,-0.7260388731956482,0.700886070728302,0.20501329004764557,1.3629941940307617,0.3649751543998718,-0.9198785424232483,0.41489139199256897,-2.2733163833618164,0.23383130133152008,-0.674272894859314,0.3978830873966217,-1.0380481481552124,0.2018168419599533,0.48776769638061523,0.3069624602794647,0.07008737325668335,0.7961797714233398,-0.32409101724624634,-1.3601202964782715,-1.2216633558273315,-1.6512428522109985,-1.5210390090942383,-0.3739392161369324,-2.375497341156006,0.10274478048086166,0.3154177665710449,0.22318680584430695,0.543615460395813,0.00135457469150424,0.12424757331609726,-1.5308300256729126,0.4134821891784668,-1.8351558446884155,0.43402180075645447,-0.4320968687534332,0.5459953546524048,-1.0974857807159424,0.0307431910187006,0.388997882604599,0.489641398191452,0.49717649817466736,0.1656433492898941,0.2718666195869446,0.05188973248004913,1.1663631200790405,-0.16066043078899384,-0.23721036314964294,0.7675942182540894,0.09037639945745468,0.009803488850593567,1.1216696500778198,0.8613033890724182,0.561867892742157,0.3238987326622009,-0.05976990610361099,0.23569446802139282,-0.38618746399879456,-0.1372353583574295,-0.5924229025840759,-0.7605906128883362,-0.42160043120384216,0.2048582136631012,-1.697031021118164,0.07931169122457504,-2.4147331714630127,0.30364468693733215,0.15077781677246094,-0.0171979907900095,-0.06817565113306046,-0.5685164332389832,-0.2332688421010971,-1.1823761463165283,0.9310851693153381,-0.041891809552907944,0.28625279664993286,0.24257737398147583,0.2601448893547058,-0.015481183305382729,-1.4480282068252563,-0.402357280254364,-1.1619305610656738,0.4046783447265625,0.6770085692405701,1.9233360290527344,0.890228271484375,-0.4963974952697754,-0.3432324230670929,-0.722360372543335,0.26047804951667786,0.22212618589401245,0.6602298021316528,-0.2985098659992218,0.4066224992275238,0.07333621382713318,1.7576727867126465,0.25669607520103455,1.1841906309127808,0.7451654672622681,0.624406099319458,0.5261569619178772,0.4626513123512268,0.2369132936000824,-0.024545932188630104,0.8043465614318848,-0.3250206708908081,-0.07312902808189392,-0.8693019151687622,-0.457273006439209,-1.0238085985183716,-0.2891486585140228,0.877142608165741,-0.25203245878219604,0.07295280694961548,-0.8402488231658936,-0.830744743347168,-0.8794397711753845,-0.7429153323173523,-0.38248226046562195,-1.7367968559265137,-1.0523688793182373,-0.9695043563842773,1.3185210227966309,-1.068302035331726,1.1784991025924683,-0.5106300711631775,0.19582362473011017,-1.0141465663909912,0.00047530929441563785,-1.0328153371810913,0.7439932227134705,-0.3566938042640686,0.6138887405395508,-0.076374851167202,0.14214502274990082,-1.0146631002426147,0.6369010210037231,-1.1981596946716309,0.4135749340057373,0.0206984281539917,0.6312103867530823,0.035330936312675476,0.6866297125816345,-1.5061663389205933,0.6298878788948059,-0.8542378544807434,-0.8699735999107361,0.23271064460277557,-2.1361472606658936,0.6939324736595154,-0.0866132453083992,0.03778507560491562,0.2505044937133789,0.26292330026626587,0.4133743643760681,-0.09700050204992294,0.5462786555290222,-0.9570883512496948,-0.18324720859527588,0.022173382341861725,0.3577515780925751,-0.18297116458415985,0.5311222672462463,0.1494756042957306,0.1793985664844513,-0.285223126411438,-0.9832519292831421,-0.6233289241790771,-1.6884000301361084,-0.6739149689674377,0.3861432373523712,-0.8917375802993774,0.897077202796936,-0.9541845917701721,-0.5610666871070862,0.36472806334495544,-0.566912829875946,0.006968763191252947,-0.11044038087129593,1.3854364156723022,-0.4284648895263672,1.1140187978744507,0.35790717601776123,-0.5405063033103943,0.29762002825737,-1.0557382106781006,-0.5518287420272827,-0.2711409032344818,0.5210698246955872,-0.4777615964412689,-0.5252102017402649,-0.22839044034481049,0.1943766325712204,0.017764952033758163,-1.0344221591949463,0.36156684160232544,-1.6015264987945557,0.3166413903236389,-0.8722736835479736,0.11727609485387802,-0.33576640486717224,-0.1998208910226822,-1.3408291339874268,-1.4061338901519775,-0.8232550621032715,-1.4435315132141113,-0.6879652738571167,0.22748629748821259,-0.5098212957382202,-0.18935854732990265,0.42769119143486023,0.3950119614601135,0.04832597076892853,1.0183509588241577,-0.16129067540168762,-2.2899556159973145,-0.03762950375676155,-1.9295344352722168,-0.19374273717403412,0.971065104007721,-0.46657228469848633,1.524879813194275,0.9823325276374817,0.9402024745941162,0.32160255312919617,-0.5337600708007812,0.05351356416940689,0.24973660707473755,-0.24010016024112701,0.3219774663448334,0.9204472303390503,-0.05639125406742096,0.0032128579914569855,-1.064176082611084,0.08536376059055328,0.018511896952986717,-1.0299607515335083,-0.7479882836341858,0.5379850268363953,0.20445047318935394,0.4574510455131531,-0.8902384638786316,-0.3259618878364563,-0.1570640653371811,-0.8646872043609619,0.9504823684692383,-0.16312134265899658,0.8374976515769958,0.31267493963241577,1.6271147727966309,-0.7831099033355713,-0.05657624080777168,-1.0446884632110596,-0.36675381660461426,0.2807716429233551,0.15745790302753448,0.24528814852237701,0.08013824373483658,0.6218782663345337,0.7910993695259094,0.9515697360038757,0.39028507471084595,0.11076778173446655,-1.062182903289795,0.2630680501461029,-2.0040643215179443,0.48844146728515625,0.4782910645008087,0.1655847430229187,0.843070387840271,0.42882195115089417,0.5824092626571655,0.7439345121383667,-0.2587265074253082,-0.5274202823638916,-0.19497673213481903,-1.7027051448822021,-0.3494647145271301,0.5622608661651611,0.8516936898231506,0.7332099080085754,1.1273422241210938,-1.033072829246521,-0.8341749310493469,-0.7615817785263062,-0.840526819229126,-0.0223289392888546,-0.23620785772800446,-0.6349700689315796,-0.45371952652931213,-0.12013310194015503,-1.5714153051376343,0.47822657227516174,-2.388441562652588,-0.15517902374267578,-0.4836007356643677,-0.2508438229560852,-0.4012433588504791,0.23731398582458496,0.44236692786216736,0.7533859610557556,0.3237442672252655,0.5746303200721741,0.5260260105133057,0.9128038883209229,0.6225937604904175,-0.15030315518379211,-0.7702973484992981,0.5165315270423889,-1.4298040866851807,-0.9042248725891113,-1.1904995441436768,-0.5946360230445862,-1.9066532850265503,-0.6127824783325195,-0.16118726134300232,-0.2961784601211548,-0.23677729070186615,0.12973058223724365,0.499007910490036,0.317061185836792,0.9589442610740662,-0.3172319829463959,-0.5642114281654358,-0.5072020888328552,-1.3457891941070557,0.2938188314437866,0.6125057935714722,0.5376198887825012,1.2848058938980103,0.570267915725708,0.3675905168056488,0.6294944286346436,-0.3920266330242157,0.18530362844467163,-0.17796792089939117,0.094349704682827,0.1392916738986969,-0.17906883358955383,-0.21661745011806488,1.2482894659042358,-1.0210375785827637,0.4537811875343323,-0.07017342001199722,0.47983089089393616,-0.37226220965385437,-0.08457546681165695,-0.8575327396392822,-0.562691867351532,-1.5910065174102783,-0.17091535031795502,-0.5008880496025085,-0.7800936698913574,0.5931985974311829,-0.36067765951156616,-0.8459748029708862,-0.7343516945838928,-0.6879450678825378,-0.6921554803848267,-0.5724027156829834,-0.35869964957237244,-0.030445659533143044,0.07493092864751816,0.36031365394592285,-0.7431074976921082,1.018179178237915,-0.25304174423217773,-0.33650997281074524,-0.6701690554618835,0.21414144337177277,-0.10258718580007553,-0.17247246205806732,-0.15853451192378998,0.8488309979438782,-0.06982028484344482,1.077898621559143,-0.5389934778213501,1.5576319694519043]},"8.bias":{"shape":[10],"data":[-0.5472832322120667,0.06896599382162094,-0.006656155455857515,0.14476783573627472,0.12754328548908234,0.17561836540699005,-0.05653291940689087,0.26013660430908203,0.27713409066200256,-0.3781454861164093]}}};
});
